tree
version=v3
num_class=1
num_tree_per_iteration=1
label_index=0
max_feature_idx=23
objective=binary sigmoid:1
feature_names=MONTO_POSTERIOR FLAG_CON_SALDO SUM_CANTIDAD_RECARGAS SUM_MONTO_RECARGAS DIAS_FRECUENCIA_RECARGA SUM_SS_TRAFICO_IVR SUM_ESC_TRAFICO_LOCAL_VOZ SUM_ESC_TRAFICO_INTERNACIONAL_VOZ SUM_ESC_TRAFICO_IVR_VOZ SUM_ESC_ROAMING_ENTRANTE_VOZ SUM_ESC_ROAMING_SALIENTE_VOZ SUM_ESC_FAMILIA_Y_AMIGOS_VOZ STORE LATITTUDE LONGITUDE AGE GENDER EMPLYEE_STATUS MANUFACTURER MODEL YEAR MONTH DAY KMEANS_CLUSTERS
feature_infos=[-0.70270270270270274:9.4054054054054053] [-1:0] [-0.66666666666666663:26.333333333333332] [-0.73770491803278693:9.0491803278688518] [-0.73560371517027845:14.359133126934982] [-0.37181996086105673:155.18199608610567] [-0.37755102040816324:54.653061224489797] [0:1442] [-0.53731343283582089:68.611940298507463] [0:1072] [0:246] [0:120] [-1:0.94999999999999996] [-1.2543341295683479:1.054761552489738] [-2.0236131295385165:0.21203735822144471] [-1:1] [-1:0] [-0.5:0.5] [-0.94999999999999996:1] [-1:0.94999999999999996] [-5.5:0.5] [-0.7142857142857143:0.8571428571428571] [-1:1] [-0.5:1]
tree_sizes=3383 3470 3475 3484 3485 3488 3512 3520 3499 3497 3502 3496 3503 3501 3500 3526 3506 3511 3507 3509 3516 3501 3512 3513 3502 3525 3512 3511 3491 3504 3498 3540 3532 3535 3489 3493 3501 3530 3525 3524 3530 3542 3512 3500 3529 3524 3524 3529 3514 3522 3520 3532 3502 3534 3525 3515 3536 3494 3522 3498 3499 3504 3504 3515 3457 3485 3512 3500 3521 3487 3476 3500 3486 3430 3479 3475 3514 3530 3468 3485 3515 3496 3456 3512 3437 3471 3441 3470 3456 3493 3429 3521 3415 3442 3463 3528 3477 3497 3475 3458

Tree=0
num_leaves=31
num_cat=0
split_feature=0 2 4 21 0 2 4 2 21 21 4 2 3 0 21 20 4 0 21 0 0 0 21 20 21 0 4 20 20 2
split_gain=104531 15138.8 6611.49 3668.89 2597.11 2436.48 3735.55 1967.79 1770.08 1404.69 693.354 686.211 1515.22 791.097 600.078 1380.83 524.34 496.699 449.903 350.919 348.295 1752.66 341.451 338.501 3693.98 335.448 322.34 317.609 249.459 229.304
threshold=-0.49999999999999994 -0.37499999999999994 -0.21486687306501537 -0.49999999999999994 -0.47297297297297297 -0.12499999999999999 -0.41902476780185743 -0.54166666666666663 -0.49999999999999994 -0.49999999999999994 -0.6721826625386994 -0.54166666666666663 -0.56557377049180313 -0.63513513513513498 -0.49999999999999994 1.0000000180025095e-35 2.1838699690402477 -0.22972972972972971 -0.64285714285714268 -0.44594594594594589 -0.52702702702702686 -0.58108108108108103 -0.49999999999999994 1.0000000180025095e-35 -0.49999999999999994 -0.52702702702702686 4.2012383900928798 1.0000000180025095e-35 1.0000000180025095e-35 -0.45833333333333331
decision_type=2 2 2 2 2 2 2 2 2 2 2 2 2 2 2 2 2 2 2 2 2 2 2 2 2 2 2 2 2 2
left_child=11 2 3 -2 -4 6 8 9 -3 16 22 -1 13 -13 18 19 -6 -12 -9 -16 21 -14 -7 -19 -25 -15 -8 -11 -24 -21
right_child=1 5 4 -5 7 10 26 14 -10 27 17 12 20 25 15 -17 -18 23 -20 29 -22 -23 28 24 -26 -27 -28 -29 -30 -31
leaf_value=0.80847978339753723 1.2256910672646031 1.2521975767464624 1.353797868300646 0.79443437799884986 1.2657992571418335 1.3281892857922675 1.2888760228587866 1.1678000184378714 0.79697315967643223 0.96233144446597163 1.2910004826811918 0.81198191976933243 0.81133823835232244 1.1181244874475722 0.96849723706233926 0.78917385070633106 0.89633050694258176 1.348680202743582 1.310488980824879 1.1380481031873946 0.79040560636033064 1.1029872232499685 1.3203150878012779 1.3432585031864779 0.79871166267086946 0.85130238011150339 0.82585207814384121 0.78670875370254656 0.78605075411264203 1.2247936536034398
leaf_weight=3196.749932974577 267.49138551950455 133.21982502937317 803.35060277581215 751.46498671174049 207.19188576936722 28.221568197011948 5704.9637176394463 350.75377616286278 238.04279261827469 319.3770015835762 1887.5145735740662 138.82908082008362 988.63133311271667 387.5645172894001 73.446193009614944 96.058505415916443 47.152806490659714 18596.786417126656 597.21045246720314 480.11723783612251 895.55274483561516 260.30452653765678 11.043222337961195 1724.6708664000034 134.27156049013138 53.638508498668671 15.07487493753433 151.97577407956123 41.894129186868668 834.20150962471962
leaf_count=18237 1526 760 4583 4287 1182 161 32546 2001 1358 1822 10768 792 5640 2211 419 548 269 106092 3407 2739 5109 1485 63 9839 766 306 86 867 239 4759
internal_value=1.22723 1.2957 1.13482 0.907646 1.19326 1.32379 1.2677 1.15242 0.960321 1.00791 1.33902 0.839907 0.876782 1.02018 1.19554 1.15584 1.1973 1.34008 1.25769 1.18122 0.837998 0.872124 1.04727 1.34461 1.30393 1.08569 1.28766 0.905706 0.897503 1.19311
internal_weight=0 33495.5 4979.79 1018.96 3960.84 28515.7 6091.3 3157.49 371.263 725.697 22424.4 5921.27 2724.52 580.032 2431.79 1483.82 254.345 22343.2 947.964 1387.76 2144.49 1248.94 81.1589 20455.7 1858.94 441.203 5720.04 471.353 52.9374 1314.32
internal_count=224867 191087 28409 5813 22596 162678 34750 18013 2118 4140 127928 33780 15543 3309 13873 8465 1451 127465 5408 7917 12234 7125 463 116697 10605 2517 32632 2689 302 7498
is_linear=0
shrinkage=1


Tree=1
num_leaves=31
num_cat=0
split_feature=0 2 4 21 2 4 0 2 21 21 4 0 2 4 4 0 0 21 4 20 4 20 21 4 21 0 0 3 3 2
split_gain=71945.2 12686.3 4219.6 2532.92 2277.36 2751.1 2032.8 1257.77 1020.23 782.906 571.616 485.069 403.459 356.838 354.363 668.507 1393.45 305.483 386.261 338.036 277.942 272.219 2385.42 238.703 224.152 196.721 285.303 214.081 178.566 437.65
threshold=-0.49999999999999994 -0.37499999999999994 -0.16586687306501541 -0.49999999999999994 -0.12499999999999999 -0.41902476780185743 -0.47297297297297297 -0.54166666666666663 -0.49999999999999994 -0.49999999999999994 -0.6721826625386994 -0.094594594594594586 -0.45833333333333331 2.1838699690402477 2.0496594427244585 -0.52702702702702686 -0.58108108108108103 -0.49999999999999994 0.74150154798761603 1.0000000180025095e-35 -0.15551998311286228 1.0000000180025095e-35 -0.49999999999999994 4.0117647058823529 -0.49999999999999994 -0.47297297297297297 -0.39189189189189183 -0.10655737704918032 -0.56557377049180313 -0.45833333333333331
decision_type=2 2 2 2 2 2 2 2 2 2 2 2 2 2 2 2 2 2 2 2 2 2 2 2 2 2 2 2 2 2
left_child=14 2 3 -2 5 8 -4 9 -3 13 24 -12 17 -8 15 16 28 18 -9 -19 -18 -13 -23 25 -6 -7 27 -27 29 -1
right_child=1 4 6 -5 10 23 7 12 -10 -11 11 21 -14 -15 -16 -17 20 19 -20 -21 -22 22 -24 -25 -26 26 -28 -29 -30 -31
leaf_value=-0.27353566198306639 0.0084357283433164672 0.02280314591223262 0.12299697811486299 -0.31263920934569078 0.096487409769754104 0.12460711931076762 0.036234768881443238 0.073780378274404354 -0.31294133915656808 -0.24138686067152304 0.076340063764411645 0.12003622948600064 0.010761219157939324 -0.25113738619979392 -0.31112122319501445 -0.31729393107332288 -0.258598895275435 -0.089264586352529263 -0.12778590407491316 -0.317442929244039 -0.064392041866530622 0.11400955249563732 -0.31051697332630407 -0.27540222255946034 -0.25036626760786013 0.011790111861351767 0.063024900099526576 -0.21014097940121537 -0.30205376885374302 -0.064497768416768533
leaf_weight=566.76460847258568 326.82362189888954 131.39928221702576 742.3706556558609 989.88377317786217 26.65933795273304 406.65374587476254 196.810551404953 245.33156159520149 290.82306125760078 522.74847200512886 3791.2981630712748 15467.641977250576 1360.1961292624474 55.365077391266823 3263.4616984575987 1541.0757783651352 87.350145608186722 546.87513113021851 155.2214974462986 73.671600744128227 471.33179947733879 1555.0262284576893 144.6737015247345 21.601196646690369 61.873601868748665 819.74349439144135 4236.5834232866764 45.898860946297646 1056.0254175662994 121.65425519645214
leaf_count=2720 1877 760 4551 4624 161 2401 1147 1450 1358 2558 22778 94537 7756 269 15388 7202 428 2956 878 343 2453 9474 676 106 302 4840 25014 271 4958 631
internal_value=0 0.0646162 -0.0781677 -0.232944 0.0921963 0.037586 -0.0258935 -0.0609139 -0.208455 -0.171575 0.107642 0.108713 -0.0249025 -0.0268577 -0.286887 -0.266314 -0.232203 -0.0724097 -0.00433017 -0.116354 -0.0947564 0.115862 0.077875 0.0563699 -0.145921 0.0576709 0.052336 2.26836e-05 -0.276222 -0.236595
internal_weight=0 32215.2 5215.3 1316.71 26999.9 5952.7 3898.59 3156.22 422.222 774.924 21047.2 20958.6 2381.3 252.176 7107.66 3844.2 2303.13 1021.1 400.553 620.547 558.682 17167.3 1699.7 5530.48 88.5329 5508.88 5102.23 865.642 1744.44 688.419
internal_count=224867 191087 28409 6501 162678 34750 21908 17357 2118 3974 127928 127465 13383 1416 33780 18392 11190 5627 2328 3299 2881 104687 10150 32632 463 32526 30125 5111 8309 3351
is_linear=0
shrinkage=0.1


Tree=2
num_leaves=31
num_cat=0
split_feature=0 2 4 21 0 2 20 21 0 21 20 21 20 2 0 2 3 3 4 3 0 0 0 0 0 2 21 3 0 21
split_gain=54202.1 10904.1 3984.63 2164.85 1683.93 1688.6 1370.99 6209.35 892.611 865.833 557.472 525.509 315.939 285.757 238.575 235.458 739.379 227.79 215.483 207.761 214.821 262.148 292.935 200.582 185.795 177.68 162.045 159.454 451.895 273.58
threshold=-0.49999999999999994 -0.29166666666666657 -0.21486687306501537 -0.49999999999999994 -0.47297297297297297 -0.45833333333333331 1.0000000180025095e-35 -0.49999999999999994 -0.22972972972972971 -0.49999999999999994 1.0000000180025095e-35 -0.64285714285714268 1.0000000180025095e-35 -0.62499999999999989 -0.44594594594594589 -0.45833333333333331 -0.49999999999999994 0.13934426229508198 1.8601857585139319 -0.33606557377049173 -0.44594594594594589 -0.3108108108108108 -0.33783783783783777 -0.63513513513513498 -0.17567567567567566 0.12500000000000003 -0.64285714285714268 -0.63114754098360648 -0.58108108108108103 -0.49999999999999994
decision_type=2 2 2 2 2 2 2 2 2 2 2 2 2 2 2 2 2 2 2 2 2 2 2 2 2 2 2 2 2 2
left_child=15 2 3 26 -4 9 8 18 17 11 13 -6 -13 -11 -7 27 23 -3 -8 20 -15 22 -22 -17 -21 -10 -2 28 -1 -30
right_child=1 6 4 -5 5 14 7 -9 25 10 -12 12 -14 19 -16 16 -18 -19 -20 24 21 -23 -24 -25 -26 -27 -28 -29 29 -31
leaf_value=-0.24104632741310841 -0.2115248243878084 0.06072531537867687 0.11996584780876668 -0.25775775514290677 -0.13884055934568942 -0.14777208874637154 0.10089883636499275 -0.2911990211526696 0.094215249150526301 -0.3056374707168642 -0.26616349720082483 -0.15508895987531485 0.082892444669798823 -0.22280181758473427 0.023523156703177492 -0.24986680471721004 -0.23759369676543682 -0.044557050469836587 -0.28985043783192166 -0.27430389242814002 -0.054742776533649284 -0.154171679951709 0.13926008541054827 -0.0694871862525233 -0.082444713120778418 0.11720304259277053 0.033767763062953308 -0.25735243385838891 0.035471532179551339 -0.17384153126551127
leaf_weight=1802.5150160044432 29.117953181266785 2874.7770291566849 874.00387561321259 1153.1811567991972 217.90380682051182 83.78318689763546 2237.2756510227919 499.80714392662048 4502.8300740718842 71.323731422424316 313.79235389828682 64.886408418416977 397.70853710174561 83.150676473975182 2752.587714612484 72.578468963503838 1635.3319551944733 221.3276080340147 14.202512696385382 110.54125624895096 339.11001919209957 177.52165085077286 101.01642210781574 409.32722958922386 92.887637108564377 13275.297904893756 358.73455707728863 3593.6323920190334 92.923910871148109 190.37458372116089
leaf_count=7710 169 17609 5726 4937 1138 458 14279 2256 28716 324 1340 346 2415 389 16268 321 7093 1361 88 548 1680 882 505 1973 464 87098 2091 15421 423 839
internal_value=0 0.0611351 -0.0464058 -0.18902 -0.00771469 -0.0309332 0.0940055 0.027652 0.102751 -0.102059 -0.150224 -0.0108009 0.0495117 -0.112931 0.0184633 -0.233977 -0.205514 0.0531991 0.098434 -0.0977311 -0.0719054 -0.051591 -0.0102159 -0.0966537 -0.186699 0.111381 0.0153525 -0.244587 -0.222593 -0.105185
internal_weight=0 30846.8 7221.25 1541.03 5680.22 4806.21 23625.5 2751.29 20874.2 1969.84 1289.34 680.499 462.595 975.551 2836.37 7796.68 2117.24 3096.1 2251.48 904.228 700.799 617.648 440.126 481.906 203.429 17778.1 387.853 5679.45 2085.81 283.298
internal_count=224867 191087 39680 7197 32483 26757 151407 16623 134784 10031 6132 3899 2761 4792 16726 33780 9387 18970 14367 4468 3456 3067 2185 2294 1012 115814 2260 24393 8972 1262
is_linear=0
shrinkage=0.1


Tree=3
num_leaves=31
num_cat=0
split_feature=0 2 4 21 2 0 21 2 4 20 21 0 0 3 20 0 21 0 0 0 4 3 0 21 20 2 21 4 4 20
split_gain=42675.8 9511.22 3827.61 1801.72 1482.61 1563.31 719.001 665.372 1267.04 487.108 412.4 394.078 294.584 265.61 245.428 228.528 219.92 214.221 1224.06 205.594 202.237 197.223 158.459 188.358 807.508 176.328 168.993 154.642 152.416 145.774
threshold=-0.49999999999999994 -0.20833333333333329 -0.28408324733402118 -0.49999999999999994 -0.45833333333333331 -0.47297297297297297 -0.49999999999999994 0.20833333333333334 -0.54560371517027839 1.0000000180025095e-35 -0.64285714285714268 -0.47297297297297297 -0.39189189189189183 -0.23770491803278684 1.0000000180025095e-35 -0.22972972972972971 -0.49999999999999994 -0.52702702702702686 -0.58108108108108103 -0.17567567567567566 2.9986068111455109 0.13934426229508198 -0.3108108108108108 -0.49999999999999994 1.0000000180025095e-35 -0.37499999999999994 -0.64285714285714268 -0.6721826625386994 -0.3508250070363072 1.0000000180025095e-35
decision_type=2 2 2 2 2 2 2 2 2 2 2 2 2 2 2 2 2 2 2 2 2 2 2 2 2 2 2 2 2 2
left_child=17 2 3 -2 5 -4 10 8 16 20 -7 -6 13 -13 -12 21 -3 18 -1 -9 -8 -10 -14 26 25 -25 -24 -21 -20 -5
right_child=1 7 4 29 11 6 9 19 15 -11 14 12 22 -15 -16 -17 -18 -19 28 27 -22 -23 23 24 -26 -27 -28 -29 -30 -31
leaf_value=-0.20871486252192098 0.019603099938626387 0.013251022639145958 0.11591430634213631 -0.055498331499567545 0.1188560783432263 -0.11862275667247402 -0.070028007492827282 0.056794436853685917 0.057141149473788545 -0.22679872421820352 -0.12969185980584486 -0.0054910134037952337 0.088558211947716403 -0.18543558516596334 0.073816409823449017 0.090119642478539416 -0.22598914117688298 -0.22372618513947218 -0.22210329891861763 -0.049861853117738691 -0.17033315983673158 -0.091213972360921769 0.017147044196077665 -0.031495393711922219 -0.31886555402914413 0.04193332167887534 0.099123593679488545 0.1142359663642923 -0.063627327374743622 -0.22967517300360743
leaf_weight=4714.7925415486097 405.87023603916168 50.523778229951859 430.7293593287468 50.04347163438797 512.25339414179325 234.64932560920715 745.75716741383076 676.86282317340374 1774.6819224953651 403.90523882210255 69.5517358481884 898.30256876349449 561.8802897632122 90.2719696611166 400.4664236754179 5505.6335229724646 160.43388293683529 2637.6952596306801 65.996524468064308 57.706105649471283 275.17830558121204 94.374543070793152 431.63545180857182 427.06931845843792 71.064141139388084 1396.1050893068314 602.47826689481735 11909.824810624123 754.53287796676159 1206.5625067800283
leaf_count=19345 2438 342 3062 225 3538 1153 3588 4393 11286 1640 346 5283 3414 514 2543 37487 662 10705 281 307 1223 565 2653 2471 340 8833 3755 84097 3449 4929
internal_value=0 0.0580085 -0.0262087 -0.163574 0.00403344 -0.0578335 -0.0929769 0.0963653 0.0729507 -0.13384 -0.0103511 0.035769 0.0262661 -0.0219227 0.0437019 0.079863 -0.168692 -0.200273 -0.189097 0.110412 -0.0970638 0.0496502 0.0399151 0.0305816 0.0118426 0.024733 0.0649069 0.113445 -0.0763738 -0.222739
internal_weight=0 29443.8 9213.77 1662.48 7551.3 2560.24 2129.51 20230 7585.65 1424.84 704.667 4991.06 4478.81 988.575 470.018 7374.69 210.958 8173.02 5535.32 12644.4 1020.94 1869.06 3490.23 2928.35 1894.24 1823.17 1034.11 11967.5 820.529 1256.61
internal_count=224867 191087 51948 7592 44356 13555 10493 139139 50342 6451 4042 30801 27263 5797 2889 49338 1004 33780 23075 88797 4811 11851 21466 18052 11644 11304 6408 84404 3730 5154
is_linear=0
shrinkage=0.1


Tree=4
num_leaves=31
num_cat=0
split_feature=0 2 4 21 0 2 2 4 21 20 21 0 0 0 2 3 0 20 2 21 3 8 21 20 21 3 0 0 0 0
split_gain=34512.2 8361.86 3065.68 1413.15 1217.02 1639.83 653.361 1056.38 552.786 400.217 323.786 252.444 215.788 205.973 204.892 547.309 315.856 199.743 185.645 172.14 167.502 153.501 145.806 706.193 157.921 145.709 147.74 183.958 254.208 141.837
threshold=-0.49999999999999994 -0.20833333333333329 -0.28408324733402118 -0.49999999999999994 -0.47297297297297297 -0.45833333333333331 0.20833333333333334 -0.54560371517027839 -0.49999999999999994 1.0000000180025095e-35 -0.64285714285714268 -0.44594594594594589 -0.22972972972972971 -0.094594594594594586 -0.54166666666666663 -0.56557377049180313 -0.63513513513513498 1.0000000180025095e-35 -0.62499999999999989 -0.49999999999999994 -0.10655737704918032 -0.42537313432835816 -0.49999999999999994 1.0000000180025095e-35 -0.64285714285714268 -0.28688524590163927 -0.44594594594594589 -0.3108108108108108 -0.33783783783783777 0.31081081081081091
decision_type=2 2 2 2 2 2 2 2 2 2 2 2 2 2 2 2 2 2 2 2 2 2 2 2 2 2 2 2 2 2
left_child=14 2 3 -2 -4 8 7 19 10 18 -6 -7 20 -8 -1 16 -16 -12 -10 -3 -9 -14 24 -24 -13 26 -20 28 -28 -27
right_child=1 6 4 -5 5 11 13 12 9 -11 17 22 21 -15 15 -17 -18 -19 25 -21 -22 -23 23 -25 -26 29 27 -29 -30 -31
leaf_value=-0.19113120562403074 0.017855171428483581 0.012033159890028454 0.11490276898634655 -0.19730820625726242 -0.1016342971474925 -0.11621403267810836 0.064684398785319272 0.06260370000311595 -0.23117021391528667 -0.20094190456274405 -0.11061231885891437 0.018775206773609394 0.042838134469483917 0.1115550979454813 -0.19386153249962584 -0.1789112427127896 -0.047161724332208804 0.069709539176518426 -0.17176434604729787 -0.19990811044527501 -0.010108313658286469 0.093071047769259646 0.024355826779278927 -0.26785064762522121 0.088102444267529875 -0.19176066428649019 -0.040905705740877867 -0.11178117659044794 0.13765792096763038 0.042018016654879212
leaf_weight=4542.6060661524534 401.29370602965355 50.097028851509094 871.62665198743343 1275.342729985714 245.82387411594391 124.42761042714119 1027.5003046989441 1403.3326915502548 79.743604779243469 409.85797639191151 73.178326800465584 613.58648630976677 703.67390291392803 10713.530673339963 196.97572012245655 3006.0185544043779 575.79530753195286 382.60087923705578 93.4762262403965 163.04368825256824 409.1969285607338 4489.2445661574602 2869.8321667313576 85.161618247628212 707.36740028858185 153.84634901583195 366.55827355384827 226.83037619292736 101.88687567412853 31.218807771801949
leaf_count=18237 2438 342 6600 5154 1153 658 7163 9251 325 1640 346 3765 4892 81634 792 12234 2517 2543 396 662 2600 32595 17833 376 4631 688 1712 1024 521 145
internal_value=0 0.0550588 -0.023659 -0.14581 0.00387925 -0.0108603 0.0928975 0.0692226 -0.0821098 -0.117097 -0.00913284 0.0241951 0.0758953 0.107453 -0.17682 -0.159615 -0.0845548 0.0407577 -0.0844795 -0.150093 0.0461882 0.0862642 0.0282809 0.0159346 0.0558998 -0.0724674 -0.0537305 -0.0378615 -0.0020681 -0.152324
internal_weight=0 28073.3 9113.66 1676.64 7437.02 6565.4 18959.6 7218.59 2165.02 1463.42 701.603 4400.38 7005.45 11741 8321.4 3778.79 772.771 455.779 1053.56 213.141 1812.53 5192.92 4275.95 2954.99 1320.95 973.817 788.752 695.276 468.445 185.065
internal_count=224867 191087 51948 7592 44356 37756 139139 50342 10493 6451 4042 27263 49338 88797 33780 15543 3309 2889 4811 1004 11851 37487 26605 18209 8396 4486 3653 3257 2233 833
is_linear=0
shrinkage=0.1


Tree=5
num_leaves=31
num_cat=0
split_feature=0 2 4 21 0 2 2 4 21 21 20 21 0 0 0 0 0 3 20 4 3 2 0 0 3 2 0 8 20 21
split_gain=28370.1 7357.24 2503.77 1149.47 1071.09 1323.78 640.808 904.821 441.012 436.963 343.279 257.007 234.367 218.113 208.119 195.608 1005.16 190.283 163.94 154.891 152.553 147.552 142.123 179.639 837.081 139.885 130.713 124.06 123.373 120.526
threshold=-0.49999999999999994 -0.20833333333333329 -0.28408324733402118 -0.49999999999999994 -0.47297297297297297 -0.45833333333333331 0.20833333333333334 -0.482314241486068 -0.49999999999999994 -0.49999999999999994 1.0000000180025095e-35 -0.64285714285714268 -0.39189189189189183 -0.22972972972972971 -0.17567567567567566 -0.52702702702702686 -0.58108108108108103 -0.23770491803278684 1.0000000180025095e-35 -0.6721826625386994 0.13934426229508198 -0.62499999999999989 -0.3108108108108108 -0.28378378378378372 -0.30327868852459011 -0.37499999999999994 -0.33783783783783777 -0.42537313432835816 1.0000000180025095e-35 -0.64285714285714268
decision_type=2 2 2 2 2 2 2 2 2 2 2 2 2 2 2 2 2 2 2 2 2 2 2 2 2 2 2 2 2 2
left_child=15 2 3 29 -4 9 7 8 -3 11 21 -6 17 20 -8 16 -1 -7 -13 -16 -9 -11 26 24 -24 -18 -14 -15 -5 -2
right_child=1 6 4 28 5 12 14 13 -10 10 -12 18 22 27 19 -17 25 -19 -20 -21 -22 -23 23 -25 -26 -27 -28 -29 -30 -31
leaf_value=-0.16657682441295055 -0.16895214438138173 0.057718189098972673 0.11256326938538541 -0.028324287532528625 -0.088131832190510795 -0.0058653070254298363 0.048718613747676102 0.050663981615233666 -0.18965519955016197 -0.20412116264131919 -0.18243638866186504 -0.095640899314232738 0.01943956763877723 0.044209188368962385 -0.057285961963134603 -0.18152933023974413 -0.075608670522150659 -0.15220326056095032 0.065759707595213726 0.10899633406342187 -0.076714534258866554 -0.063887759937340624 0.031449975626867459 0.039442985425995135 -0.27739287366893212 0.012415243387800264 0.12227176372287683 0.09101243056565532 -0.18519766481829525 0.032635117876933621
leaf_weight=4794.7743947207928 32.283268347382545 112.66061778366566 804.23031940311193 52.290000349283218 254.62239429354668 894.64431181550026 626.57888954877853 1656.0393708646297 200.01936785131693 81.178559556603432 406.40392196178436 76.004091054201126 200.5528282225132 655.92963875830173 56.327983289957047 2656.296190738678 613.4997471421957 98.653963178396225 365.91000688076019 10209.636371284723 99.681456431746483 990.86870092153549 510.26191322505474 2192.2015750110149 105.98789574205875 255.82153008878231 322.20405815541744 4146.6298409476876 1215.0804115086794 364.84317357838154
leaf_count=19345 180 822 6600 225 1153 5283 4393 11262 834 325 1640 346 1315 4722 307 10705 2602 514 2543 84097 564 4486 3225 14150 677 1128 2099 32138 4929 2258
internal_value=0 0.0523078 -0.021526 -0.132207 0.00369793 -0.00977278 0.0895841 0.0656699 -0.100525 -0.0734095 -0.104175 -0.00810769 0.022233 0.0735936 0.104669 -0.15914 -0.148639 -0.0203995 0.0380007 0.108084 0.043432 -0.0745066 0.0349451 0.0260337 -0.0216675 -0.0497052 0.0828208 0.0846201 -0.178725 0.0162477
internal_weight=0 26731.7 8968.22 1664.5 7303.72 6499.49 17763.5 6870.96 312.68 2174.99 1478.45 696.536 4324.51 6558.28 10892.5 8320.39 5664.1 993.298 441.914 10266 1755.72 1072.05 3331.21 2808.45 616.25 869.321 522.757 4802.56 1267.37 397.126
internal_count=224867 191087 51948 7592 44356 37756 139139 50342 1656 10493 6451 4042 27263 48686 88797 33780 23075 5797 2889 84404 11826 4811 21466 18052 3902 3730 3414 36860 5154 2438
is_linear=0
shrinkage=0.1


Tree=6
num_leaves=31
num_cat=0
split_feature=0 2 4 0 2 0 21 20 21 21 20 20 21 21 3 0 4 0 0 3 4 21 20 21 0 0 20 4 3 2
split_gain=23624.4 6481.52 2090.69 989.842 1182.62 639.799 589.546 532.777 2196.95 388.393 353.498 266.202 364.635 204.794 188.703 187.412 186.694 333.791 638.018 150.499 150.012 149.939 703.737 148.293 136.253 150.218 130.135 128.935 111.181 292.202
threshold=-0.49999999999999994 -0.20833333333333329 -0.3508250070363072 -0.47297297297297297 -0.45833333333333331 -0.094594594594594586 -0.49999999999999994 1.0000000180025095e-35 -0.49999999999999994 -0.49999999999999994 1.0000000180025095e-35 1.0000000180025095e-35 -0.49999999999999994 -0.64285714285714268 0.20491803278688528 -0.39189189189189183 2.4301857585139319 -0.52702702702702686 -0.58108108108108103 -0.28688524590163927 -0.15551998311286228 -0.49999999999999994 1.0000000180025095e-35 -0.64285714285714268 -0.39189189189189183 -0.47297297297297297 1.0000000180025095e-35 3.2959752321981424 -0.59836065573770481 -0.54166666666666663
decision_type=2 2 2 2 2 2 2 2 2 2 2 2 2 2 2 2 2 2 2 2 2 2 2 2 2 2 2 2 2 2
left_child=16 2 6 -4 9 11 -2 -7 -9 13 27 14 -13 -5 24 19 17 18 28 -6 -20 23 -23 -17 25 -3 -15 -11 29 -1
right_child=1 5 3 4 15 7 -8 8 -10 10 -12 12 -14 26 -16 21 -18 -19 20 -21 -22 22 -24 -25 -26 -27 -28 -29 -30 -31
leaf_value=-0.1499205821610464 -0.0030423976209827028 0.11679964978697061 0.11050034276517634 -0.078181235822851164 -0.0016875965425099998 0.10517085206258014 -0.16570957110487544 0.097436440053652665 -0.21020382695630679 -0.046660326150312299 -0.16842817297372648 0.025619315231553946 -0.27403238159201354 -0.084351673031043323 -0.0059360577936935109 0.018193143148013961 -0.16403670870565418 -0.16642248954432687 -0.13987054819691327 -0.10790875998086991 -0.010434603905915871 0.029059496604758858 -0.21961480864246138 0.091056371559043919 0.075893073370012235 0.0039603532048850445 0.057381685248425796 -0.12805043014000017 -0.15490947321803211 -0.027608992280507477
leaf_weight=599.1443659812212 279.44990804791451 148.13092336058617 747.29610995203257 262.9994623363018 850.85672731697559 11087.668915055692 1099.0928753912449 1325.4484134465456 281.41765086352825 840.65569069981575 480.17744129896164 138.1353827342391 57.518597632646561 78.370505690574646 420.47033673524857 484.30840671062469 3265.4796130955219 1875.3961630165577 105.14757043123245 158.18446445465088 603.20714029669762 2124.136117592454 120.24381464719772 659.9309064745903 2594.7568175643682 579.58722393214703 373.59766860306263 253.27960330247879 1459.2208653986454 289.79282465577126
leaf_count=2447 1724 1063 6637 1160 4996 97692 4571 11043 1187 3777 1988 1040 265 347 3081 3111 13394 7734 428 832 2623 13887 505 4680 19742 4026 2684 1049 5961 1193
internal_value=0 0.0497112 -0.0196261 0.00134842 -0.0108502 0.0864475 -0.132735 0.0973719 0.043558 -0.0691404 -0.0969011 0.051237 -0.0624727 -0.00802084 0.0571809 0.0194912 -0.14549 -0.13321 -0.112832 -0.0183396 -0.029648 0.0307562 0.0157366 0.0602164 0.0651686 0.0269294 0.0328054 -0.0655046 -0.137926 -0.110047
internal_weight=0 25445.7 8812.58 7434.04 6686.74 16633.1 1378.54 12694.5 1606.87 2289.08 1574.11 3938.6 195.654 714.968 3742.95 4397.66 8197.39 4931.91 3056.51 1009.04 708.355 3388.62 2244.38 1144.24 3322.47 727.718 451.968 1093.94 2348.16 888.937
internal_count=224867 191087 51948 45653 39016 139139 6295 109922 12230 11005 6814 29217 1305 4191 27912 28011 33780 20386 12652 5828 3051 22183 14392 7791 24831 5089 3031 4826 9601 3640
is_linear=0
shrinkage=0.1


Tree=7
num_leaves=31
num_cat=0
split_feature=0 2 4 0 2 0 21 20 21 21 20 20 0 0 0 21 1 21 20 21 2 4 2 3 0 0 0 20 21 20
split_gain=19868.7 5724.49 1750.93 873.066 965.512 632.86 511.769 490.323 1850.41 314.752 323.12 259.379 174.544 771.842 172.497 164.34 155.678 136.788 566.632 146.095 140.34 126.483 120.381 112.157 133.157 223.549 121.278 112.136 282.262 107.535
threshold=-0.49999999999999994 -0.20833333333333329 -0.3508250070363072 -0.47297297297297297 -0.45833333333333331 -0.094594594594594586 -0.49999999999999994 1.0000000180025095e-35 -0.49999999999999994 -0.49999999999999994 1.0000000180025095e-35 -1.0000000180025095e-35 -0.52702702702702686 -0.58108108108108103 -0.44594594594594589 -0.64285714285714268 -1.0000000180025095e-35 -0.49999999999999994 1.0000000180025095e-35 -0.64285714285714268 -0.29166666666666657 3.1433436532507737 -0.62499999999999989 -0.48360655737704911 -0.39189189189189183 -0.3108108108108108 -0.28378378378378372 1.0000000180025095e-35 -0.49999999999999994 1.0000000180025095e-35
decision_type=2 2 2 2 2 2 2 2 2 2 2 2 2 2 2 2 2 2 2 2 2 2 2 2 2 2 2 2 2 2
left_child=12 2 6 -4 9 11 -2 -7 -9 15 22 -3 13 -1 -6 -5 -16 19 20 -18 -19 -22 -11 -24 -25 -26 -27 -13 -29 -21
right_child=1 5 3 4 14 7 -8 8 -10 10 -12 27 -14 -15 16 -17 17 18 -20 29 21 -23 23 24 25 26 -28 28 -30 -31
leaf_value=-0.14100576635432954 -0.0027330000726066518 0.068252951184146718 0.10854286051307532 -0.068818665476311117 -0.093602860219216419 0.10285527458956514 -0.15472942524286626 0.094523251776242906 -0.19029152256524523 -0.17661028224285491 -0.15770512806606674 0.025444401374400662 -0.15646826357092064 -0.038705413335517469 0.098412654589514773 0.030465648281010532 0.0070887336462620871 -0.0036364729657810549 -0.20196344006754183 0.013394983787336619 0.047568437578112278 -0.33722947411246884 -0.011822577339332957 -0.15943636141995404 0.10162258442797237 -0.23499269830735889 -0.061198403642007883 0.023488164052608295 -0.23763095638908657 0.10316482538952242
leaf_weight=4601.6476632803679 279.94931341707706 2374.2572256922722 687.75246144086123 268.57902413606644 134.41209721565247 10246.887593612075 1061.2923933118582 1234.3931490108371 279.81855565309525 79.661590203642845 462.44065788388252 1224.1586516499519 2506.1917486488819 878.28659933805466 247.52181272953749 439.58885279297829 553.60080528259277 1631.5898806452751 126.9830050766468 188.14071439951658 974.3589930087328 8.6176832616329175 453.39558134973049 149.73730590939522 79.325526192784309 46.377020701766014 299.15164743363857 135.73310983926058 59.564100250601768 458.96543671190739
leaf_count=19345 1724 18476 6637 1160 664 97692 4571 11043 1187 325 1988 9436 10705 3730 1641 3031 3512 10233 533 1358 6593 46 1979 641 412 200 1269 1040 265 3431
internal_value=0 0.0473099 -0.0179994 0.00131929 -0.0098498 0.0835504 -0.123004 0.0950063 0.0418909 -0.0625336 -0.0874962 0.0480352 -0.134608 -0.12461 0.0179074 -0.00718882 0.0214847 0.0166547 0.00432728 0.0448016 0.0143463 0.0441949 -0.0581841 -0.0490069 -0.0783481 -0.0497691 -0.0845252 0.014218 -0.0561511 0.077065
internal_weight=0 24186.3 8631.44 7290.2 6602.45 15554.8 1341.24 11761.1 1514.21 2278.26 1570.09 3793.71 7986.13 5479.93 4324.19 708.168 4189.78 3942.26 2741.55 1200.71 2614.57 982.977 1107.65 1027.99 574.592 424.854 345.529 1419.46 195.297 647.106
internal_count=224867 191087 51948 45653 39016 139139 6295 109922 12230 11005 6814 29217 33780 23075 28011 4191 27347 25706 17405 8301 16872 6639 4826 4501 2522 1881 1469 10741 1305 4789
is_linear=0
shrinkage=0.1


Tree=8
num_leaves=31
num_cat=0
split_feature=0 2 4 21 0 2 0 20 21 0 21 20 2 3 0 20 20 4 3 0 0 3 0 4 2 3 4 0 0 3
split_gain=16794.7 5106.25 1681.01 1197.02 678.456 801.261 468.06 316.431 1199.52 221.498 216.618 220.158 185.798 470.237 258.756 184.73 161.876 155.124 153.487 134.599 222.921 601.032 137.369 124.236 124.127 152.875 107.8 106.461 325.575 398.477
threshold=-0.49999999999999994 -0.12499999999999999 -0.22385856281570793 -0.49999999999999994 -0.47297297297297297 -0.45833333333333331 -0.094594594594594586 1.0000000180025095e-35 -0.49999999999999994 -0.39189189189189183 -0.49999999999999994 1.0000000180025095e-35 -0.54166666666666663 -0.56557377049180313 -0.63513513513513498 -1.0000000180025095e-35 1.0000000180025095e-35 2.2559752321981423 -0.17213114754098358 -0.3108108108108108 -0.28378378378378372 -0.25409836065573765 -0.33783783783783777 1.2952233524988943 -0.29166666666666657 -0.12295081967213113 -0.47587484754667403 -0.20270270270270269 -0.17567567567567566 -0.040983606557377046
decision_type=2 2 2 2 2 2 2 2 2 2 2 2 2 2 2 2 2 2 2 2 2 2 2 2 2 2 2 2 2 2
left_child=12 2 3 26 -4 10 15 23 -9 18 17 -12 -1 14 -14 -3 -5 -6 -7 22 21 -21 -11 -8 -23 -26 -2 -22 29 -29
right_child=1 6 4 16 5 9 7 8 -10 19 11 -13 13 -15 -16 -17 -18 -19 -20 20 27 24 -24 -25 25 -27 -28 28 -30 -31
leaf_value=-0.13972457723257262 -0.050833996831815678 0.069397991896572184 0.10714486615627682 -0.0087081964437832528 0.016943808419855013 -0.0043868951985246273 0.10282382149698539 0.09338566210274285 -0.17076692554294459 0.019119043637707347 -0.052398753313149575 -0.14924209830528165 -0.1434287460422384 -0.1279306809696979 -0.0086700560717732512 0.016434614409035108 -0.15365727395037665 -0.11875397723166151 -0.13825716178592781 0.028465455236675881 0.081815183389329818 -0.29708681917316465 0.11824222190820924 -0.075285547939866637 -0.03759628453038083 -0.29344705104361557 0.052444546629479984 -0.030281002172956564 0.045413359796582321 -0.43148689365080534
leaf_weight=4155.6746341437101 131.67586626112461 1776.0730590596795 670.32600171864033 82.043774239718914 559.88416481763124 1112.172027349472 9078.8362217992544 985.35773246735334 208.2394288033247 232.8624075204134 1104.5281968265772 298.09940081834793 186.57280585169792 2788.0594456493855 603.02300553023815 1046.6179246082902 1264.8838263601065 99.16370889544487 92.790991947054863 539.41353969275951 491.46265107393265 63.958161801099777 349.87006762623787 39.332516469061375 71.801450714468956 34.611997365951538 434.73953547328711 269.04687902331352 1922.6706994175911 27.263938508927822
leaf_count=18237 824 14666 6964 409 3489 6705 94210 9628 889 1645 4793 1340 792 12234 2517 8144 5705 410 469 3686 3542 347 2568 391 493 222 3073 1947 14337 191
internal_value=0 0.0450196 -0.00939542 -0.0935363 0.0108806 0.00200415 0.0858409 0.0957176 0.0473006 0.0228928 -0.0507618 -0.0729808 -0.125343 -0.108637 -0.0405121 0.0497598 -0.144828 -0.00347397 -0.0146959 0.0342076 0.0266386 -0.0232503 0.0786322 0.102056 -0.186988 -0.120814 0.0284352 0.0397031 0.0303761 -0.0671965
internal_weight=0 22987.7 9853.27 1913.34 7939.93 7269.6 13134.5 10311.8 1193.6 5207.92 2061.68 1402.63 7733.33 3577.66 789.596 2822.69 1346.93 659.048 1204.96 4002.96 3420.23 709.785 582.732 9118.17 170.372 106.413 566.415 2710.44 2218.98 296.311
internal_count=224867 191087 63159 10011 53148 46184 127928 105118 10517 36152 10032 6133 33780 15543 3309 22810 6114 3899 7174 28978 24765 4748 4213 94601 1062 715 3897 20017 16475 2138
is_linear=0
shrinkage=0.1


Tree=9
num_leaves=31
num_cat=0
split_feature=0 2 4 21 0 2 0 20 21 0 1 2 0 0 20 4 20 0 21 20 21 4 4 3 2 21 0 4 20 2
split_gain=14241.7 4539.3 1429.06 1037.52 607.716 666.954 470.766 291.491 1030.19 274.546 220.823 210.413 191.216 737.359 166.147 154.886 147.487 135.873 129.125 145.97 143.368 112.324 111.615 129.337 216.29 107.038 105.967 104.643 103.203 100.8
threshold=-0.49999999999999994 -0.12499999999999999 -0.22385856281570793 -0.49999999999999994 -0.47297297297297297 -0.54166666666666663 -0.094594594594594586 1.0000000180025095e-35 -0.49999999999999994 -0.44594594594594589 -1.0000000180025095e-35 -0.37499999999999994 -0.52702702702702686 -0.58108108108108103 -1.0000000180025095e-35 4.0117647058823529 1.0000000180025095e-35 -0.41891891891891891 -0.49999999999999994 1.0000000180025095e-35 -0.64285714285714268 1.2952233524988943 2.0496594427244585 -0.56557377049180313 -0.45833333333333331 -0.49999999999999994 -0.63513513513513498 1.8601857585139319 1.0000000180025095e-35 -0.37499999999999994
decision_type=2 2 2 2 2 2 2 2 2 2 2 2 2 2 2 2 2 2 2 2 2 2 2 2 2 2 2 2 2 2
left_child=12 2 3 -2 -4 25 14 21 -9 -7 -11 17 13 22 -3 -13 -5 -12 20 -20 -19 -8 23 24 -1 27 -26 -6 -22 -15
right_child=1 6 4 16 5 9 7 8 -10 10 11 15 -14 29 -16 -17 -18 18 19 -21 28 -23 -24 -25 26 -27 -28 -29 -30 -31
leaf_value=-0.10037315914105427 0.026169719706221263 0.065844216376429607 0.10545693028375683 -0.007825607494847479 0.024049502059069149 -0.091949974028959575 0.10084626445011301 0.090723925994149385 -0.15887307876005344 0.096271992060039766 0.11848422337537151 0.029516605544917085 -0.14129370600149213 -0.045759606200977132 0.014965220159335471 -0.23634144628009818 -0.14632190702148551 -0.030108239523364534 -0.024777857698104016 -0.14546213309939812 -0.037475884990119113 -0.063757722486787377 -0.13803321047183092 -0.12749259027651016 -0.10876709585257255 -0.1021249472194751 0.081847937599819634 -0.11633710068850554 0.085510456686106712 0.02774935346064876
leaf_weight=616.81479761004448 555.75304990261793 1689.3309022635221 615.74981051683426 82.160626836121082 157.43840248882771 238.83114346861839 8367.7793316468596 916.41726011782885 201.77242003381252 335.00791692733765 77.557799562811852 3513.5697786211967 2288.0764804631472 626.15921452641487 1035.078480809927 22.051095962524414 1198.8559964448214 339.84431439638138 1278.5041567236185 108.74625463783741 87.537647359073162 41.662954591214657 2410.5315307676792 1097.9076338857412 39.303409978747368 626.61014710366726 113.05882176756859 80.113557457923889 309.34930402040482 265.70164480805397
leaf_count=2720 3897 14666 6964 409 1104 1143 94210 9628 889 2408 432 25803 10705 2602 8144 100 5705 1743 6872 512 518 391 11036 4958 165 2690 466 347 2512 1128
internal_value=0 0.0427941 -0.00858863 -0.0879359 0.0101181 0.00193644 0.0831707 0.0936526 0.0456852 0.0132183 0.0173548 0.0127466 -0.117225 -0.106572 0.0465139 0.0278585 -0.137439 -0.0115227 -0.01627 -0.0342383 0.017564 0.100031 -0.123817 -0.105463 -0.074018 -0.0804553 0.0326768 -0.0232954 0.0583845 -0.0238599
internal_weight=0 21879.7 9627.68 1836.77 7790.91 7175.16 12252 9527.63 1118.19 6311 6072.17 5737.16 7457.55 5169.48 2724.41 3535.62 1281.02 2201.54 2123.98 1387.25 736.731 8409.44 4277.62 1867.08 769.177 864.162 152.362 237.552 396.887 891.861
internal_count=224867 191087 63159 10011 53148 46184 127928 105118 10517 42043 40900 38492 33780 23075 22810 25903 6114 12589 12157 7384 4773 94601 19345 8309 3351 4141 631 1451 3030 3730
is_linear=0
shrinkage=0.1


Tree=10
num_leaves=31
num_cat=0
split_feature=0 2 4 0 2 21 0 20 21 0 0 0 21 20 3 20 21 3 0 0 3 0 0 4 2 3 0 21 2 0
split_gain=12150.9 4036.1 1230.8 582.76 687.496 485.074 472.015 268.009 889.126 186.987 667.921 171.65 164.323 270.53 163.936 138.498 143.765 130.076 129.354 198.444 429.379 138.503 120.167 107.594 107.165 310.291 218.454 107.143 105.728 104.723
threshold=-0.49999999999999994 -0.12499999999999999 -0.3508250070363072 -0.47297297297297297 -0.45833333333333331 -0.49999999999999994 -0.094594594594594586 1.0000000180025095e-35 -0.49999999999999994 -0.52702702702702686 -0.58108108108108103 -0.39189189189189183 -0.49999999999999994 1.0000000180025095e-35 0.22131147540983609 1.0000000180025095e-35 -0.49999999999999994 -0.25409836065573765 -0.3108108108108108 -0.28378378378378372 -0.30327868852459011 -0.33783783783783777 -0.39189189189189183 1.0666519239274657 -0.54166666666666663 -0.59836065573770481 -0.63513513513513498 -0.64285714285714268 -0.37499999999999994 -0.47297297297297297
decision_type=2 2 2 2 2 2 2 2 2 2 2 2 2 2 2 2 2 2 2 2 2 2 2 2 2 2 2 2 2 2
left_child=9 2 5 -4 12 -2 14 23 -9 10 24 17 27 -14 15 22 -17 -6 21 20 -20 -13 29 -8 -1 26 -26 -5 -21 -3
right_child=1 6 3 4 11 -7 7 8 -10 -11 -12 18 13 -15 -16 16 -18 -19 19 28 -22 -23 -24 -25 25 -27 -28 -29 -30 -31
leaf_value=-0.13058780309079762 0.0065385818553801546 0.11464700246429556 0.10357760960256031 -0.055719534415021255 0.00084025396889757871 -0.13327978673144095 0.099204836065242941 0.088094425193609785 -0.14921193236174923 -0.13513321507601683 -0.021476638610556539 0.014556948083334534 -0.040987798760655086 -0.13712257661556002 -0.020851576309782932 0.024492587003712124 -0.21654009815945174 -0.08521576200579406 0.021331481638164753 -0.0064950306081573775 -0.15233341959665744 0.1157126620074404 0.070129765233947705 -0.024072820327486193 -0.12176534293540603 -0.12015929774445255 0.041079769979767471 0.024930577812665427 0.043013291880604973 -0.01344838080789218
leaf_weight=2399.4892262220383 332.47666969895363 78.535235419869423 576.18355619907379 273.17378808557987 1005.4869598299265 978.07709718495607 7682.6634462848306 852.7027053385973 193.76369698345661 2159.7596967071295 891.49370712041855 232.70842278003693 1126.0734673291445 395.54207234084606 345.03989388048649 74.47591832280159 37.059161111712456 212.82126121222973 533.448810108006 532.65333654731512 194.1979257017374 323.55452799797058 1758.1165542677045 71.455964230000973 126.52247528731823 1322.0686956942081 236.10262922942638 414.91463530808687 2268.1745445430279 340.68556991219521
leaf_count=11597 2219 668 7045 1160 6107 4928 93884 9628 889 10705 3730 1688 4826 1988 2779 602 160 1146 3754 3479 1124 2604 15922 717 576 6206 966 3031 18060 2679
internal_value=0 0.0406368 -0.00790893 0.00665652 -0.000776757 -0.097809 0.0805428 0.091658 0.0441548 -0.110562 -0.0998972 0.0187504 -0.0476399 -0.0659779 0.0434043 0.0530907 -0.055594 -0.0141925 0.028576 0.0215103 -0.0250171 0.0733949 0.0586581 0.0980688 -0.117015 -0.0976829 -0.015738 -0.00708783 0.0335979 0.0105485
internal_weight=0 20834 9399.49 8088.93 7512.75 1310.55 11434.5 8800.59 1046.47 7135.44 4975.68 5303.05 2209.7 1521.62 2633.91 2288.87 111.535 1218.31 4084.74 3528.47 727.647 556.263 2177.34 7754.12 4084.18 1684.69 362.625 688.088 2800.83 419.221
internal_count=224867 191087 63159 56012 48967 7147 127928 105118 10517 33780 23075 37962 11005 6814 22810 20031 762 7253 30709 26417 4878 4292 19269 94601 19345 7748 1542 4191 21539 3347
is_linear=0
shrinkage=0.1


Tree=11
num_leaves=31
num_cat=0
split_feature=0 2 4 0 2 0 21 20 21 0 0 3 1 0 3 1 4 4 4 4 4 3 2 20 4 2 21 0 0 3
split_gain=10393.8 3590.26 1051.82 520.473 566.036 467.98 435.513 271.264 809.611 184.553 611.967 171.679 166.756 152.274 171.81 146.256 141.416 144.326 117.207 115.816 108.6 115.079 172.801 105.799 98.4833 101.572 97.4256 96.8373 338.481 186.003
threshold=-0.49999999999999994 -0.12499999999999999 -0.3508250070363072 -0.47297297297297297 -0.45833333333333331 -0.12162162162162161 -0.49999999999999994 1.0000000180025095e-35 -0.49999999999999994 -0.52702702702702686 -0.58108108108108103 0.22131147540983609 -1.0000000180025095e-35 -0.094594594594594586 -0.10655737704918032 -1.0000000180025095e-35 0.040085507887365611 2.8722910216718263 1.2952233524988943 1.232065457762052 2.0496594427244585 -0.56557377049180313 -0.45833333333333331 -0.74999999999999989 -0.3575851393188853 -0.62499999999999989 -0.64285714285714268 -0.3108108108108108 -0.33783783783783777 -0.38524590163934419
decision_type=2 2 2 2 2 2 2 2 2 2 2 2 2 2 2 2 2 2 2 2 2 2 2 2 2 2 2 2 2 2
left_child=9 2 6 -4 15 11 26 18 -9 10 20 19 -6 14 23 -5 -17 27 -7 -3 21 22 -1 -14 -12 -26 -2 28 29 -18
right_child=1 5 3 4 12 7 -8 8 -10 -11 24 -13 13 -15 -16 16 17 -19 -20 -21 -22 -23 -24 -25 25 -27 -28 -29 -30 -31
leaf_value=-0.086781760271012198 -0.16470241172125161 0.048427402741396702 0.10200271792692904 0.087627197524498282 0.090716954705890168 0.095590440923357112 -0.12781167814870906 0.083278363132925512 -0.14356384833234093 -0.12992649848780893 -0.14352022507805282 -0.045760598304417456 0.034865936821049423 0.040834783782251416 -0.061647685070517592 -0.10284608275122009 -0.011567884812300932 -0.091021493385106039 -0.06210079524245922 -0.16185381585618272 -0.12599293521048899 -0.11435049470147346 0.034346469658378669 -0.0037147672894908279 -0.17238595121911723 -0.002892197855398316 0.023154806941899721 -0.053426871171082371 0.14327316878725194 -0.19476937778105097
leaf_weight=573.9420780390501 30.397281065583229 1774.9023903161287 528.99383766204119 82.025931388139725 291.41213608533144 7580.8296803086996 920.88738027215004 814.17198292911053 195.02391259372234 2028.4499947726727 59.557863995432854 233.78435170650482 1080.3802398517728 1396.1875661686063 380.47926818579435 389.86003519594669 599.26029324531555 374.40267696976662 47.429154738783836 26.584229193627834 2164.4401748180389 996.57325515151024 148.18412853777409 2077.7570431306958 36.998339995741844 796.64118947088718 300.73575004935265 542.05670024454594 138.81508658081293 61.066894486546516
leaf_count=2720 169 15842 7045 449 2341 98976 4928 9802 933 10705 249 1730 7496 11169 2615 2321 3028 1557 420 225 11036 4958 631 14341 153 3328 2050 2673 726 251
internal_value=0 0.0385425 -0.00725694 0.00617141 -0.00066649 0.0779995 -0.0924451 0.0881642 0.0394418 -0.104656 -0.0939236 0.0348617 0.0172101 0.0128693 0.0018353 -0.0433761 -0.0484798 -0.0361254 0.09461 0.0453243 -0.111091 -0.0923237 -0.0619256 0.00948347 -0.01929 -0.0104146 0.00590993 -0.0208008 0.00132935 -0.0285103
internal_weight=0 19867.4 9194.72 7942.7 7413.7 10672.7 1252.02 8637.45 1009.2 6804.79 4776.34 2035.27 5226.22 4934.8 3538.62 2187.49 2105.46 1715.6 7628.26 1801.49 3883.14 1718.7 722.126 3158.14 893.197 833.64 331.133 1341.2 799.142 660.327
internal_count=224867 191087 63159 56012 48967 127928 7147 110131 10735 33780 23075 17797 37962 35621 24452 11005 10556 8235 99396 16067 19345 8309 3351 21837 3730 3481 2219 6678 4005 3279
is_linear=0
shrinkage=0.1


Tree=12
num_leaves=31
num_cat=0
split_feature=2 0 0 4 20 21 0 0 21 2 2 3 0 0 20 3 1 4 0 0 4 21 4 0 0 4 21 20 21 20
split_gain=8929.59 1943.55 1453.42 690.782 590.304 1502.97 461.417 414.046 325.717 261.978 218.963 203.928 152.132 172.785 157.068 139.084 127.437 117.853 116.86 336.964 114.888 126.039 114.695 114.1 156.399 109.42 96.2374 152.182 147.983 132.631
threshold=-0.29166666666666657 -0.49999999999999994 -0.22972972972972971 -0.21486687306501537 1.0000000180025095e-35 -0.49999999999999994 -0.47297297297297297 -0.49999999999999994 -0.49999999999999994 -0.54166666666666663 0.12500000000000003 -0.38524590163934419 -0.47297297297297297 -0.44594594594594589 -1.0000000180025095e-35 -0.36885245901639335 -1.0000000180025095e-35 1.1760504201680673 -0.52702702702702686 -0.58108108108108103 1.4891331269349846 -0.64285714285714268 1.8601857585139319 -0.44594594594594589 -0.41891891891891891 1.456501547987616 -0.49999999999999994 1.0000000180025095e-35 -0.64285714285714268 1.0000000180025095e-35
decision_type=2 2 2 2 2 2 2 2 2 2 2 2 2 2 2 2 2 2 2 2 2 2 2 2 2 2 2 2 2 2
left_child=1 18 7 8 10 20 -5 11 -3 -8 -4 25 -9 15 -15 -14 -11 -12 19 -1 -6 -22 -16 -18 -25 -2 28 -28 -26 -30
right_child=2 3 4 6 5 -7 9 12 -10 16 17 -13 13 14 22 -17 23 -19 -20 -21 21 -23 -24 24 26 -27 27 -29 29 -31
leaf_value=-0.10755232866867635 0.03641920804701361 -0.0062512599441270026 0.061361263557679457 0.10032603361666251 0.07799391684573681 -0.15122297352515257 -0.06506636546833254 0.10734671519528155 -0.12219712856441588 0.082592914401904555 0.096671061645591277 -0.10549134713032915 0.00029504947224546433 0.039101706915580237 -0.0094506417291769576 -0.22831957852629495 -0.085100916999909459 -0.11367152381225919 -0.12603490557496588 -0.031978879301123829 -0.49061192398806502 0.11551082184551009 -0.24534757239907307 0.1141387191987769 -0.019687343785290211 -0.13504424086732178 -0.012969796643445164 -0.13932382440672914 -0.023042981502487136 0.08861927478713405
leaf_weight=3392.271413564682 206.51580339670181 335.45867734402418 2645.0879594832659 379.77815129607916 1186.9716115221381 390.32989606261253 833.36976014077663 176.99407231062651 872.34144042432308 166.25452722609043 6135.6833317577839 482.32148124277592 53.566818356513977 1322.7506258487701 884.90300372242928 52.883657544851303 177.62512032687664 26.753287523984909 1632.9067489504814 714.20658206939697 7.4655414670705795 6.347774960100649 21.102547034621239 110.49453611671925 512.98381851613522 45.400187805294991 2081.0053981095552 99.895660936832428 149.96463897824287 365.95293636620045
leaf_count=17835 968 2260 28716 5726 13495 2001 4140 1984 4937 1212 86847 2539 340 10705 6465 361 780 251 9232 2985 54 58 130 660 2915 221 12344 540 983 3183
internal_value=0 -0.0616611 0.0570653 -0.0222876 0.075301 0.0192445 -0.00552108 -0.00134548 -0.0899939 -0.0144589 0.0854278 -0.0674041 0.0179614 0.0111865 0.0171313 -0.113279 -0.00294893 0.0957579 -0.103406 -0.0944084 0.0746571 -0.212074 -0.0149451 -0.00701469 -0.00283734 0.00551814 -0.00686413 -0.0187574 0.0183454 0.0561618
internal_weight=0 11824.5 13645.1 6085.12 10398.6 1591.11 4877.32 3246.44 1207.8 4497.55 8807.52 734.237 2512.2 2335.21 2228.76 106.45 3664.18 6162.44 5739.38 4106.48 1200.78 13.8133 906.006 3497.92 3320.3 251.916 3209.8 2180.9 1028.9 515.918
internal_count=224867 69732 155135 39680 131422 15608 32483 23713 7197 26757 115814 3728 19985 18001 17300 701 22617 87098 30052 20820 13607 112 6595 21405 20625 1189 19965 12884 7081 4166
is_linear=0
shrinkage=0.1


Tree=13
num_leaves=31
num_cat=0
split_feature=2 0 0 4 20 21 0 0 21 2 2 3 3 20 4 3 0 2 4 2 3 0 1 21 3 20 3 0 0 4
split_gain=7620.07 1723.43 1319.15 597.464 526.068 1299.18 405.103 347.555 300.238 226.273 212.665 177.533 148.91 157.195 126.607 231.865 215.109 277.852 323.836 130.612 383.532 129.506 108.582 106.045 98.9982 96.2149 95.496 109.907 168.628 91.8874
threshold=-0.29166666666666657 -0.49999999999999994 -0.22972972972972971 -0.21486687306501537 1.0000000180025095e-35 -0.49999999999999994 -0.47297297297297297 -0.49999999999999994 -0.49999999999999994 0.20833333333333334 -0.54166666666666663 -0.38524590163934419 -0.10655737704918032 1.0000000180025095e-35 3.2959752321981424 -0.63114754098360648 -0.63513513513513498 -0.62499999999999989 0.10584365325077404 -0.45833333333333331 -0.53278688524590156 -0.63513513513513498 -1.0000000180025095e-35 -0.49999999999999994 -0.66393442622950805 1.0000000180025095e-35 -0.48360655737704911 -0.3108108108108108 -0.33783783783783777 1.456501547987616
decision_type=2 2 2 2 2 2 2 2 2 2 2 2 2 2 2 2 2 2 2 2 2 2 2 2 2 2 2 2 2 2
left_child=1 14 7 8 9 -6 -5 11 -3 -4 26 29 13 -9 15 16 -1 -18 -19 -17 21 -21 -12 -15 -20 -10 27 28 -8 -2
right_child=2 3 4 6 5 -7 10 12 25 -11 22 -13 -14 23 -16 19 17 18 24 20 -22 -23 -24 -25 -26 -27 -28 -29 -30 -31
leaf_value=-0.11779653228904803 0.032679802926217874 -0.0056033583470840682 0.061053257593326388 0.098924012247273901 0.071647581636739427 -0.14450183103396441 -0.036337692133056342 0.039265729787919638 0.013186715244344581 0.095535703784548495 0.078476467219429982 -0.099653503191833942 -0.025177573261809166 -0.0056287914042781355 -0.12105611334482445 -0.11610035175970013 -0.13392637529466481 -0.094511586318064389 0.2220524360042731 -0.13750912606820442 -0.10756219104511988 0.059591351263021654 -0.0063030114651562372 -0.18767159807996792 0.06759689456064924 -0.12679475642194846 -0.10425659342493986 -0.13255392792072471 0.14872509046562751 -0.12725246422005115
leaf_weight=243.58803358674049 207.09861993789673 336.75008811801672 3001.807281255722 348.26186615973711 1130.8429253101349 368.75182962417603 386.94009797275066 1701.6904523447156 52.471261397004128 5198.7236660197377 157.91773749142885 460.65943725407124 636.82422717660666 88.451453559100628 1673.8177356421947 1941.7729448378086 127.37338748574257 132.0209899097681 50.472241967916489 39.013307049870491 787.70173463225365 229.08785073459148 3483.8345919921994 50.138353049755096 233.36927126348019 764.74832844734192 295.97007587552071 92.634428262710571 56.41566190123558 43.463192701339722
leaf_count=1350 968 2260 35440 5726 13607 2001 1975 14273 234 80374 1212 2539 4784 681 9640 10969 695 595 272 190 4331 1007 21405 247 1003 4703 1382 481 302 221
internal_value=0 -0.0575324 0.0546131 -0.0204288 0.0729548 0.0184962 -0.00496069 -0.00118939 -0.0850638 0.0829134 -0.0130477 -0.0628063 0.0165019 0.030925 -0.0981555 -0.0880266 -0.0397134 -0.00470081 0.0348793 -0.100708 -0.0723998 0.0309099 -0.00262671 -0.0714874 0.0950619 -0.117807 -0.0586638 -0.0334878 -0.012789 0.00493748
internal_weight=0 11434.2 12888.5 5975.94 9700.13 1499.59 4821.97 3188.33 1153.97 8200.53 4473.71 711.221 2477.1 1840.28 5458.22 3784.4 786.824 543.236 415.863 2997.58 1055.8 268.101 3641.75 138.59 283.842 817.22 831.96 535.99 443.356 250.562
internal_count=224867 69732 155135 39680 131422 15608 32483 23713 7197 115814 26757 3728 19985 15201 30052 20412 3915 2565 1870 16497 5528 1197 22617 928 1275 4937 4140 2758 2277 1189
is_linear=0
shrinkage=0.1


Tree=14
num_leaves=31
num_cat=0
split_feature=0 2 4 0 2 0 21 20 0 0 4 4 4 2 21 21 0 3 0 0 3 0 0 3 2 3 0 3 0 0
split_gain=6523.31 2596.63 783.888 402.74 472.026 375.712 218.241 390.367 199.699 528.027 169.599 160.412 148.267 146.366 145.435 132.529 132.515 223.148 156.558 163.759 247.551 155.32 238.356 130.118 117.4 285.925 172.491 115.37 119.282 299.868
threshold=-0.49999999999999994 -1.0000000180025095e-35 -0.41902476780185743 -0.47297297297297297 -0.37499999999999994 -0.094594594594594586 -0.49999999999999994 1.0000000180025095e-35 -0.52702702702702686 -0.58108108108108103 1.1760504201680673 1.0034940291906238 -0.60889318885448895 0.62500000000000011 -0.49999999999999994 -0.64285714285714268 -0.22972972972972971 -0.17213114754098358 -0.20270270270270269 -0.17567567567567566 -0.040983606557377046 -0.3108108108108108 -0.33783783783783777 0.22131147540983609 -0.54166666666666663 -0.59836065573770481 -0.63513513513513498 -0.48360655737704911 -0.39189189189189183 -0.3108108108108108
decision_type=2 2 2 2 2 2 2 2 2 2 2 2 2 2 2 2 2 2 2 2 2 2 2 2 2 2 2 2 2 2
left_child=8 2 14 -4 6 11 15 27 9 24 12 23 13 -7 -2 -5 17 -6 -18 20 -20 22 -19 -3 -1 26 -26 -8 -29 -30
right_child=1 5 3 4 16 10 7 -9 -10 -11 -12 -13 -14 -15 -16 -17 18 21 19 -21 -22 -23 -24 -25 25 -27 -28 28 29 -31
leaf_value=-0.11243170813252955 -0.024243520981690234 0.051016871091837591 0.099336002918287092 -0.030658103852800607 0.018622149801606678 -0.12994772675507221 0.0080854329512046949 -0.1260380369626922 -0.11875995276057782 -0.0092952728136826181 -0.10178907109002687 -0.18777963349314769 0.090988596213899445 0.067325153327554552 -0.1172553393246441 0.037679881076701054 0.10903002132535627 -0.10011326039910103 -0.0079685845140154629 0.039701757056373299 -0.30070612062667457 -0.15282757311378692 0.11607233048612774 -0.02193453512238876 -0.09988939991190425 -0.099359761313795231 0.054607388342962637 -0.096780146806326739 0.092229050737315479 -0.052264564029966265
leaf_weight=1894.742336884141 227.62522331625223 1426.0704317167401 444.35286688804626 480.73449946194887 1744.4929929897189 60.03418044000864 728.58487854897976 457.58404687047005 1660.3453647196293 887.61600378155708 47.253224402666092 31.906973272562027 5884.5052881911397 100.69033521413803 642.95446351915598 692.68176724016666 276.34001009911299 131.06194757670164 263.21459873020649 1975.3930713534355 32.448514819145203 135.23011283576488 83.488190568983555 295.08651392161846 105.22664858400822 1085.6262008398771 230.69632647931576 301.50278387963772 178.08057083189487 742.33456800878048
leaf_count=11597 1672 14724 7336 2365 12835 482 3486 2836 10705 3730 464 261 97506 1433 4321 5329 2617 744 2249 19740 229 854 726 2534 576 6206 966 1446 1178 3720
internal_value=0 0.0325725 -0.00247968 0.0066059 0.00159508 0.0751866 -0.0256801 -0.0429117 -0.0893964 -0.0777992 0.0869253 0.034391 0.0884004 -0.00636065 -0.0929361 0.00968263 0.0226406 0.00400566 0.0379607 0.0293131 -0.040096 -0.0688926 -0.0159887 0.0385096 -0.0961345 -0.0744124 0.00621183 -0.0234105 -0.0421903 -0.0243082
internal_weight=0 17383.7 9538.11 8667.53 8223.17 7845.55 3581.5 2408.09 5864.25 4203.91 6092.48 1753.06 6045.23 160.725 870.58 1173.42 4641.67 2094.27 2547.4 2271.06 295.663 349.78 214.55 1721.16 3316.29 1421.55 335.923 1950.5 1221.92 920.415
internal_count=224867 191087 73683 67690 60354 117404 20360 12666 33780 23075 99885 17519 99421 1915 5993 7694 39994 15159 24835 22218 2478 2324 1470 17258 19345 7748 1542 9830 6344 4898
is_linear=0
shrinkage=0.1


Tree=15
num_leaves=31
num_cat=0
split_feature=2 0 0 4 2 0 0 4 21 20 3 0 0 8 0 0 21 20 21 20 0 4 2 3 0 2 20 21 1 21
split_gain=5616.04 1368.62 1070.66 460.546 381.514 334.444 314.541 287.348 251.222 205.181 169.894 169.084 186.99 145.618 127.932 293.909 126.785 263.942 137.62 162.678 108.694 103.262 100.37 260.313 169.596 91.2852 91.008 89.2249 87.5772 78.9173
threshold=-0.29166666666666657 -0.49999999999999994 -0.094594594594594586 -0.21486687306501537 0.20833333333333334 -0.39189189189189183 -0.47297297297297297 -0.47587484754667403 -0.49999999999999994 -1.0000000180025095e-35 -0.17213114754098358 -0.44594594594594589 -0.41891891891891891 -0.47014925373134325 -0.52702702702702686 -0.58108108108108103 -0.49999999999999994 1.0000000180025095e-35 -0.64285714285714268 1.0000000180025095e-35 -0.3108108108108108 1.4891331269349846 -0.54166666666666663 -0.61475409836065564 -0.63513513513513498 -0.62499999999999989 1.0000000180025095e-35 -0.49999999999999994 -1.0000000180025095e-35 -0.49999999999999994
decision_type=2 2 2 2 2 2 2 2 2 2 2 2 2 2 2 2 2 2 2 2 2 2 2 2 2 2 2 2 2 2
left_child=1 14 5 8 7 10 -5 27 -3 -7 21 -8 -13 -9 15 22 18 25 -14 -20 -11 -2 -1 24 -24 -18 -10 -4 -22 -17
right_child=2 3 4 6 -6 9 11 13 26 20 -12 12 16 -15 -16 29 17 -19 19 -21 28 -23 23 -25 -26 -27 -28 -29 -30 -31
leaf_value=-0.10870220213979531 0.0033054675355407392 -0.0063120844256237089 0.015947095338152733 0.096136936369189338 0.092206287826105141 0.056027351981693001 -0.087052655615890664 -0.0074687378560352518 0.016562661891765848 0.069645568811279909 -0.076183620202867619 0.11400620137995968 -0.01805026074949468 0.06389332127007577 -0.11614391234111476 0.032198790677135186 -0.14224301928709437 -0.12714729237187072 -0.03289930730680591 0.078038477972549355 0.082559421723097062 -0.12005023524268942 -0.1025504367630185 -0.10001871908569877 0.059820726414212211 -0.0098715326322951404 -0.12146713725359214 -0.12244096470930571 -0.018301711739468735 -0.042567504616362419
leaf_weight=1770.2242228090763 1158.3087301887572 334.6503442376852 73.704914279282093 292.437041670084 4470.6645330414176 1672.2288796827197 273.84757172316313 335.30662581324577 51.510942086577415 205.89584862440825 442.31750344485044 126.05528036504984 606.50696390867233 1942.3392230197787 1317.5685696601868 194.18305629491806 53.214474141597748 218.71951267123222 181.74709486961365 484.67964532971382 94.23799604177475 72.084650106728077 93.447541430592537 800.1856677532196 206.43114857375622 2480.5988190099597 657.32305219769478 126.63992471247911 995.44736529886723 517.17359936237335
leaf_count=11597 8487 2260 854 5726 81634 17499 1217 3522 234 1713 2990 789 3368 27214 9232 804 257 1359 1144 4374 927 444 543 4834 861 14249 4703 965 8886 2181
internal_value=0 -0.0506459 0.0499225 -0.0176047 0.0747614 0.0127291 -0.00430786 0.0432882 -0.0777226 0.0328836 -0.0230299 -0.0109455 -0.00592518 0.0533877 -0.0895011 -0.0797001 -0.00968076 -0.0217495 0.0164162 0.0477837 0.00301145 -0.00392153 -0.0939609 -0.0702393 0.00922298 -0.0126516 -0.111437 -0.0715293 -0.00957906 -0.0221581
internal_weight=0 10660.5 11589.2 5761.29 6948.66 4640.52 4717.81 2477.99 1043.48 2967.81 1672.71 4425.37 4151.52 2277.65 4899.21 3581.65 4025.47 2752.53 1272.93 666.427 1295.58 1230.39 2870.29 1100.06 299.879 2533.81 708.834 200.345 1089.69 711.357
internal_count=224867 69732 155135 39680 114189 40946 32483 32555 7197 29025 11921 26757 25540 30736 30052 20820 24751 15865 8886 5518 11526 8931 17835 6238 1404 14506 4937 1819 9813 2985
is_linear=0
shrinkage=0.1


Tree=16
num_leaves=31
num_cat=0
split_feature=0 2 4 0 0 2 0 0 20 21 21 20 1 4 4 4 4 3 2 3 21 20 0 3 0 0 3 0 0 3
split_gain=4831.74 2047.95 606.391 347.383 346.75 352.127 200.89 457.162 156.672 403.4 155.699 360.067 125.487 117.342 115.485 114.952 114.425 113.282 118.8 111.215 93.3249 99.1841 93.0328 175.211 154.784 137.102 161.175 115.099 181.218 92.9255
threshold=-0.49999999999999994 -1.0000000180025095e-35 -0.45064088267781649 -0.094594594594594586 -0.47297297297297297 -0.37499999999999994 -0.52702702702702686 -0.58108108108108103 1.0000000180025095e-35 -0.49999999999999994 -0.49999999999999994 1.0000000180025095e-35 -1.0000000180025095e-35 1.0034940291906238 2.0496594427244585 4.0117647058823529 1.0666519239274657 -0.56557377049180313 -0.45833333333333331 0.25409836065573776 -0.64285714285714268 1.0000000180025095e-35 -0.22972972972972971 -0.17213114754098358 -0.20270270270270269 -0.17567567567567566 -0.040983606557377046 -0.3108108108108108 -0.33783783783783777 -0.48360655737704911
decision_type=2 2 2 2 2 2 2 2 2 2 2 2 2 2 2 2 2 2 2 2 2 2 2 2 2 2 2 2 2 2
left_child=6 2 -2 13 -4 10 7 14 16 -10 20 29 -7 19 17 22 -5 18 -1 -3 -6 -22 23 -14 -24 26 -26 28 -25 -12
right_child=1 3 4 8 5 12 -8 -9 9 -11 11 -13 15 -15 -16 -17 -18 -19 -20 -21 21 -23 24 27 25 -27 -28 -29 -30 -31
leaf_value=-0.059154605692972699 -0.094224126180267792 0.045249058994298354 0.097477246384306285 0.090559405488879363 -0.026081015542853681 0.087246860317703262 -0.11322353968303822 -0.0064193156614583795 0.076055045836765589 -0.12448886628389318 0.0091418183445401285 -0.11986416307599324 0.013900970425096188 -0.14808208736814349 -0.10666829589773918 -0.2024059067542075 -0.065504012455922481 -0.092535352733776693 0.045572904336518248 -0.027420501096355656 -0.045807022377628528 0.050538456500488382 0.1067988778573092 -0.086004219559633277 -0.014631732033988751 0.03133237575103992 -0.24045228226927196 -0.1357847419959882 0.1140510500664212 -0.035980235482807273
leaf_weight=463.33750176429749 663.23632460087538 1392.9388798549771 387.46549182385206 4577.5691200122237 489.43823225796223 254.93344581872225 1436.8717482686043 886.74978476762772 495.80804923176765 125.74184419214725 725.50584433227777 434.67632003128529 1606.6955358088017 36.067127101123333 1585.0550293177366 24.176396638154984 47.467834331095219 768.10014629364014 141.36407670378685 248.11262275278568 133.40883783251047 536.75170042365789 234.63448875397444 131.22195223718882 248.31052497029305 1797.7749799713492 36.215798400342464 137.48847160488367 69.13519449532032 1230.5380619466305
leaf_count=2720 5062 15144 7356 90296 2375 2653 10705 3730 8378 716 3491 3175 11984 261 11036 107 495 4958 631 2114 727 4703 2427 699 2110 18776 218 804 665 6351
internal_value=0 0.0289328 -0.00213949 0.0699586 0.005064 0.000638425 -0.0813215 -0.0693985 0.0826228 0.0354843 -0.0229541 -0.0375388 0.0190856 0.0303407 -0.0882794 0.015031 0.0889577 -0.0670473 -0.0346719 0.0342621 0.00711496 0.031359 0.0162645 0.000136325 0.0298005 0.0211243 -0.0433752 -0.0653243 -0.0169732 -0.0192443
internal_weight=0 16065.3 9141.61 6923.71 8478.37 8090.91 5281.48 3844.61 5246.59 621.55 3550.32 2390.72 4540.59 1677.12 2957.86 4285.65 4625.04 1372.8 604.702 1641.05 1159.6 670.161 4261.48 1944.54 2316.94 2082.3 284.526 337.846 200.357 1956.04
internal_count=224867 191087 73683 117404 68621 61265 33780 23075 99885 9094 20822 13017 40443 17519 19345 37790 90791 8309 3351 17258 7805 5430 37683 14152 23531 21104 2328 2168 1364 9842
is_linear=0
shrinkage=0.1


Tree=17
num_leaves=31
num_cat=0
split_feature=0 2 4 0 0 2 0 0 1 4 4 20 21 20 21 20 21 2 4 3 0 2 21 0 3 3 0 0 3 0
split_gain=4142.97 1813.07 508.835 340.049 309.792 292.015 199.546 416.154 154.787 144.465 137.513 134.801 309.443 412.101 194.506 132.515 366.811 120.207 112.259 103.951 103.114 145.818 95.7509 94.8285 226.891 94.3908 92.0818 329.974 177.611 142.584
threshold=-0.49999999999999994 -1.0000000180025095e-35 -0.45064088267781649 -0.094594594594594586 -0.47297297297297297 -0.45833333333333331 -0.52702702702702686 -0.58108108108108103 -1.0000000180025095e-35 1.1760504201680673 0.040085507887365611 -1.0000000180025095e-35 -0.49999999999999994 1.0000000180025095e-35 -0.64285714285714268 1.0000000180025095e-35 -0.49999999999999994 -0.62499999999999989 2.0496594427244585 -0.56557377049180313 -0.63513513513513498 -0.54166666666666663 -0.49999999999999994 0.31081081081081091 0.41803278688524598 0.43442622950819676 -0.3108108108108108 -0.33783783783783777 -0.38524590163934419 -0.28378378378378372
decision_type=2 2 2 2 2 2 2 2 2 2 2 2 2 2 2 2 2 2 2 2 2 2 2 2 2 2 2 2 2 2
left_child=6 2 22 25 -4 10 7 18 -7 15 -6 -10 14 -14 -13 -5 -17 -12 19 20 -1 -22 -2 24 -11 -3 27 28 -19 -28
right_child=1 3 4 9 5 8 -8 -9 11 23 17 12 13 -15 -16 16 -18 26 -20 -21 21 -23 -24 -25 -26 -27 29 -29 -30 -31
leaf_value=-0.10254588908733374 -0.027285662223127741 0.03478076566480278 0.095998742671729545 0.088633053624846497 -0.082052891947249185 0.082398142178136888 -0.11066680402039997 -0.0057763680552669963 0.025333858309492797 0.012745461689218565 -0.14233379622653541 -0.0078400739107026933 -0.014177906521260806 -0.16089849348232579 0.073900230958404603 0.078177457325243699 -0.11943965705865206 -0.0032409358613909589 -0.10330784182345461 -0.08852603590512001 -0.06557362506947266 0.049925935158374263 -0.11232411560705753 0.035235936747001033 -0.64091496729535002 -0.057610794648715394 -0.11576229982075728 0.14131108171288662 -0.1609194044758738 -0.012376160771379485
leaf_weight=153.42717185616493 186.5396373718977 1518.2902097776532 355.721261061728 4228.7926378510892 423.6973519846797 297.88102475553751 1328.6313398331404 886.8972532004118 2545.5412213876843 13.651252537965776 74.847924664616585 563.88914285600185 1620.8799882903695 217.07231436669827 601.79031318426132 455.38021574914455 118.33593113720417 744.97215438634157 1478.478285998106 724.86325578391552 216.5120675265789 220.75822266936302 456.27600584179163 27.766715809702873 8.6909264586865884 119.26300764083862 186.21896263211966 153.54303212463856 79.014289021492004 470.27905081212521
leaf_count=966 1255 16538 7356 90426 3294 3139 10705 3730 21623 124 378 4510 12889 1212 6029 8279 716 3764 11036 4958 1444 941 3807 271 69 981 922 858 332 2315
internal_value=0 0.027188 -0.00192053 0.0674552 0.00469061 0.000620213 -0.0774469 -0.0654562 0.0121732 0.0807522 -0.0310556 0.00840352 -0.00594473 -0.0315064 0.0343589 0.0825146 0.0374165 -0.0184114 -0.0844 -0.0631507 -0.0320117 -0.00726306 -0.0876467 -0.0881633 -0.241523 0.0280519 -0.012735 0.00671897 -0.0183612 -0.0417022
internal_weight=0 15468.3 8978.16 6490.17 8335.35 7979.63 5009.57 3680.94 5847.05 4852.62 2132.57 5549.17 3003.63 1837.95 1165.68 4802.51 573.716 1708.88 2794.04 1315.56 590.697 437.27 642.816 50.1089 22.3422 1637.55 1634.03 977.529 823.986 656.498
internal_count=224867 191087 73683 117404 68621 61265 33780 23075 49402 99885 11863 46263 24640 14101 10539 99421 8995 8569 19345 8309 3351 2385 5062 464 193 17519 8191 4954 4096 3237
is_linear=0
shrinkage=0.1


Tree=18
num_leaves=31
num_cat=0
split_feature=2 0 0 2 4 0 20 4 0 2 4 3 2 0 4 3 2 3 21 8 4 3 21 0 1 1 0 4 4 0
split_gain=3586.24 963.68 813.498 343.76 309.426 226.073 223.009 194.536 149.617 148.747 131.631 212.381 184.365 237.834 290.75 158.377 133.268 308.583 123.313 118.726 108.912 107.458 102.048 94.5866 92.3786 86.1113 84.934 83.2774 79.6116 74.2137
threshold=-0.29166666666666657 -0.49999999999999994 -0.094594594594594586 0.20833333333333334 -0.31199690402476771 -0.47297297297297297 -1.0000000180025095e-35 -0.54560371517027839 -0.39189189189189183 -0.54166666666666663 3.5854489164086685 -0.63114754098360648 -0.62499999999999989 -0.63513513513513498 0.36844486782567276 -0.66393442622950805 -0.45833333333333331 -0.49999999999999994 -0.49999999999999994 -0.47014925373134325 1.8601857585139319 -0.38524590163934419 -0.49999999999999994 -0.63513513513513498 -1.0000000180025095e-35 -1.0000000180025095e-35 -0.49999999999999994 0.3812383900928793 -0.63727650178798545 -0.47297297297297297
decision_type=2 2 2 2 2 2 2 2 2 2 2 2 2 2 2 2 2 2 2 2 2 2 2 2 2 2 2 2 2 2
left_child=1 10 6 7 18 -6 8 -4 21 -7 11 12 -1 -14 22 -16 -13 23 -3 -9 24 -2 -15 -18 -8 -11 -23 28 -5 -28
right_child=2 4 3 27 5 9 20 19 -10 25 -12 16 13 14 15 -17 17 -19 -20 -21 -22 26 -24 -25 -26 -27 29 -29 -30 -31
leaf_value=-0.12098762152513035 0.056527766152761151 -0.016902352541749814 -0.095296400157107261 -0.019834520387841215 0.090970771858602154 -0.049255402088683869 0.061502494079744723 -0.011160069336176425 0.049891118064955255 0.072957251062546871 -0.10867377250781825 -0.10023948924844567 -0.09807371848308398 0.051226653039901829 0.27835568776979719 0.072948501021760384 -0.12144430329327571 -0.098573274270514419 -0.10557317129162321 0.054148658846590425 -0.14482381131298402 -0.076487160974542959 -0.12682946142327678 0.04449264866500606 -0.01735677665543656 -0.0049083788938169871 0.10546439876073746 -0.016197214876625662 0.091832683220675879 -0.013432261088455863
leaf_weight=144.81721732765436 239.81421841308475 234.55464611202478 106.02501346170902 65.072871498763561 231.93939732387662 803.85087986290455 162.88175393640995 331.93874041363597 1533.2401073202491 147.94397993385792 1071.8459111750126 1513.2229722365737 159.94199688732624 48.098356440663338 45.277419239282608 219.57529433071613 38.948041379451752 523.29847885668278 473.33450599014759 1724.4938537701964 62.318298529833555 197.92715653777122 97.305986657738686 291.0582003891468 1687.979515414685 3550.6419139280915 59.886230692267418 75.85845996811986 3382.7128901556134 425.54612159729004
leaf_count=1085 1687 1467 1107 861 5795 4519 1602 3677 17499 1282 8677 11573 1225 220 274 982 246 3903 4152 27771 393 1352 477 1390 14235 22465 905 1422 79351 3273
internal_value=0 -0.0422126 0.0432493 0.0681829 -0.0145279 -0.00530769 0.0108035 0.0367965 0.0307408 -0.0102674 -0.0784885 -0.0679892 -0.0202284 0.00536209 0.0456874 0.108064 -0.0824195 -0.0508181 -0.0761926 0.0436069 -0.014795 -0.0010647 -0.0679302 0.0249084 -0.0104169 -0.00179374 -0.0212759 0.0874448 0.0897251 0.00123564
internal_weight=0 9595.66 10055.7 5686.1 5442.27 4734.38 4369.59 2162.46 2456.41 4502.44 4153.39 3081.54 715.016 570.199 410.257 264.853 2366.53 853.305 707.889 2056.43 1913.18 923.174 145.404 330.006 1850.86 3698.59 683.36 3523.64 3447.79 485.432
internal_count=224867 69732 155135 114189 39680 34061 40946 32555 24716 28266 30052 21375 4263 3178 1953 1256 17112 5539 5619 31448 16230 7217 697 1636 15837 23747 5530 81634 80212 4178
is_linear=0
shrinkage=0.1


Tree=19
num_leaves=31
num_cat=0
split_feature=0 2 4 2 0 0 0 0 4 21 20 20 21 20 2 3 21 20 4 0 0 0 21 4 21 4 2 4 2 3
split_gain=3057.96 1440.97 450.397 269.489 241.604 229.074 201.791 372.368 164.2 137.264 423.064 110.692 164.513 398.339 107.792 205.427 104.788 103.846 99.198 96.395 91.682 125.948 90.6311 86.7919 85.1645 80.0944 80.0908 74.7965 74.8146 72.9588
threshold=-0.49999999999999994 0.12500000000000003 -0.47587484754667403 -0.29166666666666657 -0.094594594594594586 -0.47297297297297297 -0.52702702702702686 -0.58108108108108103 2.7749226006191949 -0.49999999999999994 1.0000000180025095e-35 -1.0000000180025095e-35 -0.49999999999999994 1.0000000180025095e-35 -0.54166666666666663 -0.59836065573770481 -0.64285714285714268 1.0000000180025095e-35 0.50308049535603727 -0.63513513513513498 -0.44594594594594589 -0.41891891891891891 -0.49999999999999994 -0.60889318885448895 -0.64285714285714268 0.2771782397169395 0.87500000000000011 -0.3575851393188853 -0.62499999999999989 -0.64754098360655721
decision_type=2 2 2 2 2 2 2 2 2 2 2 2 2 2 2 2 2 2 2 2 2 2 2 2 2 2 2 2 2 2
left_child=6 2 22 5 25 -4 7 14 11 16 20 -5 -13 -14 -1 19 -7 -18 23 29 -11 -22 24 26 -2 -3 -6 -9 -29 -16
right_child=1 4 3 8 18 9 -8 27 -10 10 -12 12 13 -15 15 -17 17 -19 -20 -21 21 -23 -24 -25 -26 -27 -28 28 -30 -31
leaf_value=-0.096911911470067669 -0.21532804598553157 0.033348684369683163 0.091548447085787021 0.04358858443223295 -0.11061612916591122 -0.017140826245649263 -0.10661862717256861 -0.1169127090568769 -0.2134634631730993 -0.075688319440217311 -0.11755820729192286 0.05024796512182831 0.0091566337187698639 -0.1700678048100969 0.15065292849662312 -0.080706467765506912 -0.027707729986108556 0.054274314330087461 -0.027130235649340435 0.049273978416335212 0.11608018186372966 -0.0091128252823457004 -0.10979675495921455 0.088282006280407638 0.0010318376485687825 -0.075996375859008758 0.065046783530313609 -0.14416280176806515 0.011409976436937537 -0.11804709300515931
leaf_weight=1350.8718440383673 20.565416567027569 799.64794036746025 222.06404447928071 2188.0490350313485 41.971884299069643 682.86480752378702 1147.2851350978017 53.27383790910244 28.425723351538181 198.2352090626955 420.86602123826742 740.46150058507919 1326.7833555415273 136.79645803570747 11.851511783897875 836.70892038941383 201.23383904621005 665.43924441933632 80.096997212618589 222.66851916909218 82.972329527139664 2550.6432632356882 395.80509757995605 3370.7612646073103 157.70867641270161 73.114077858626842 68.015136618167162 32.16560110449791 792.77633394300938 68.577353455126286
leaf_count=11597 112 9010 5852 26972 412 3721 10705 249 161 865 3586 9135 14787 648 80 6206 1246 6088 1356 966 524 14654 3833 84820 1219 753 1333 153 3328 496
internal_value=0 0.0238742 0.00286918 0.00809647 0.0713407 -0.00774776 -0.0703965 -0.058061 0.0261049 -0.0123394 -0.0240084 0.0276554 0.0118377 -0.00759494 -0.0778027 -0.0551549 0.0121557 0.0352388 0.0828977 0.0153808 -0.0101051 -0.00516861 -0.0831309 0.0854296 -0.0239271 0.0241885 -0.00198752 -0.00207228 0.00534398 -0.0784531
internal_weight=0 14452.5 10018.9 9444.83 4433.61 5024.32 4516.18 3368.89 4420.52 4802.25 3252.72 4392.09 2204.04 1463.58 2490.68 1139.81 1549.54 866.673 3560.85 303.097 2831.85 2633.62 574.079 3480.75 178.274 872.762 109.987 878.216 824.942 80.4289
internal_count=224867 191087 93403 88239 97684 36536 33780 23075 51703 30684 19629 51542 24570 15435 19345 7748 11055 7334 87921 1542 16043 15178 5164 86565 1331 9763 1745 3730 3481 576
is_linear=0
shrinkage=0.1


Tree=20
num_leaves=31
num_cat=0
split_feature=0 2 0 0 0 0 0 0 0 4 0 0 0 3 2 0 4 0 0 2 3 20 21 20 0 4 21 2 3 3
split_gain=2647.12 1026.31 482.916 446.667 428.411 386.822 281.948 277.101 576.771 221.262 208.157 196.928 335.463 195.838 170.119 168.05 162.983 150.262 330.777 132.949 200.196 117.465 198.724 363.894 116.331 106.623 98.69 91.5494 108.55 85.9226
threshold=-0.39189189189189183 0.12500000000000003 -0.49999999999999994 -0.47297297297297297 -0.3108108108108108 -0.28378378378378372 -0.33783783783783777 -0.20270270270270269 -0.17567567567567566 -0.47587484754667403 -0.22972972972972971 -0.52702702702702686 -0.58108108108108103 -0.090163934426229483 -0.37499999999999994 -0.25675675675675674 0.3812383900928793 -0.44594594594594589 -0.41891891891891891 -0.45833333333333331 -0.25409836065573765 -1.0000000180025095e-35 -0.49999999999999994 1.0000000180025095e-35 0.067567567567567585 2.1838699690402477 -0.64285714285714268 -0.29166666666666657 -0.073770491803278673 -0.56557377049180313
decision_type=2 2 2 2 2 2 2 2 2 2 2 2 2 2 2 2 2 2 2 2 2 2 2 2 2 2 2 2 2 2
left_child=2 4 11 -4 6 19 -2 10 13 -10 15 12 25 14 -9 -7 24 -5 -19 -6 -21 -11 26 -24 -3 29 -23 -22 -29 -1
right_child=1 16 3 17 5 7 -8 8 9 21 -12 -13 -14 -15 -16 -17 -18 18 -20 20 27 22 23 -25 -26 -27 -28 28 -30 -31
leaf_value=-0.025405178478552434 0.0071892265703456431 0.046011286590545139 0.092724240028689453 -0.08500801524558374 -0.10850616713691302 0.1124935671386032 0.11939718293037396 -0.12591234169769044 -0.068306006300589722 0.050202625532323519 0.11431834094766352 -0.10453674182536457 -0.0019042004835729664 -0.21084802162457469 -0.012243202912134552 -0.04540201440915248 -0.029592176440678099 0.10097427300397584 -0.030954679224330608 0.0037521033102771457 -0.18715723185892741 0.0083283333243399267 0.0099563290558645334 -0.13575475322278233 0.086340050451366751 -0.09630454750132221 0.075728296197815168 -0.015339969279476472 -0.15250036791035826 -0.078916115211233984
leaf_weight=567.56027413904667 384.04936013370752 947.19046491011977 343.14487901702523 400.30778772383928 303.33710533380508 100.04044558107853 537.12883195281029 230.10055346041918 273.71023689582944 1195.1578964814544 422.88443303480744 1057.7272574603558 873.68444056808949 103.88028480857611 307.77316074073315 206.63063544780016 150.53548468649387 209.98713720589876 2001.0803197920322 573.40476743131876 79.870476201176643 386.11872209981084 927.11863711103797 210.26189471036196 2921.1558406017721 1146.4235631451011 496.72719975188375 161.76633002609015 89.691053323447704 636.68638804554939
leaf_count=3644 3078 15437 7946 2173 2017 769 4704 1538 2719 15898 4446 10705 3730 708 2926 1649 2430 1579 12875 4523 349 4399 10663 1503 78693 10560 6037 1441 587 5141
internal_value=0 0.0322256 -0.0456368 -0.0145374 0.00907305 -0.000572666 0.0726164 0.0120144 0.00198001 0.0180054 0.0688308 -0.0670946 -0.054812 -0.0851472 -0.0608705 0.00610576 0.0724927 -0.028632 -0.0184253 -0.0512141 -0.0320053 0.0253527 0.0106516 -0.0169806 0.0764653 -0.0744765 0.0462505 -0.0938881 -0.064263 -0.0536965
internal_weight=0 11008.5 7236.6 2954.52 6989.65 6068.47 921.178 4860.4 4130.85 3489.09 729.556 4282.08 3224.35 641.754 537.874 306.671 4018.88 2611.38 2211.07 1208.07 904.733 3215.38 2020.23 1137.38 3868.35 2350.67 882.846 331.328 251.457 1204.25
internal_count=224867 166514 58353 24573 69954 62172 7782 53255 46391 41219 6864 33780 23075 5172 4464 2418 96560 16627 14454 8917 6900 38500 22602 12166 94130 19345 10436 2377 2028 8785
is_linear=0
shrinkage=0.1


Tree=21
num_leaves=31
num_cat=0
split_feature=2 0 0 20 4 0 20 21 21 0 4 4 3 2 0 4 2 3 3 1 4 2 3 0 0 0 0 0 20 0
split_gain=2246.37 685.029 671.712 287.991 232.9 184.973 169.789 430.808 156.738 147.247 144.782 129.832 187.025 161.186 186.544 230.335 143.165 235.718 129.023 126.797 108.017 106.932 107.033 200.777 352.073 232.84 150.589 477.877 103.627 100.432
threshold=-0.29166666666666657 -0.49999999999999994 0.31081081081081091 -1.0000000180025095e-35 -0.18869296002153715 -0.28378378378378372 1.0000000180025095e-35 -0.49999999999999994 -0.49999999999999994 -0.47297297297297297 1.6828173374613002 3.5854489164086685 -0.63114754098360648 -0.62499999999999989 -0.63513513513513498 0.36844486782567276 -0.54166666666666663 -0.56557377049180313 -0.66393442622950805 -1.0000000180025095e-35 -0.54560371517027839 -0.62499999999999989 -0.41803278688524587 -0.17567567567567566 -0.20270270270270269 -0.22972972972972971 -0.3108108108108108 -0.33783783783783777 1.0000000180025095e-35 -0.63513513513513498
decision_type=2 2 2 2 2 2 2 2 2 2 2 2 2 2 2 2 2 2 2 2 2 2 2 2 2 2 2 2 2 2
left_child=1 11 3 5 8 -2 -4 -8 -3 -6 19 12 13 -1 -15 -16 -14 29 -17 -5 -21 -11 -23 24 25 26 27 -24 -10 -18
right_child=2 4 6 10 9 -7 7 -9 28 21 -12 -13 16 14 15 18 17 -19 -20 20 -22 22 23 -25 -26 -27 -28 -29 -30 -31
leaf_value=-0.11631162766111312 0.011466391801501663 -0.0083318842428140062 0.088072976136597911 0.069636950793393021 0.087742929412268245 0.059984787128637355 0.076182784474983528 -0.12791686668958874 0.035519481313634006 -0.13278215628929527 -0.12812431096477478 -0.1022681823579174 -0.11274271080041792 -0.09025096528449561 -0.059100352693154383 0.2488872954244406 -0.11548209502876064 -0.08161716627723152 0.06770076096599148 -0.10724760255599207 -0.0038245788802486382 0.011839892294844195 -0.075753617005799467 0.013362142967576271 -0.18300875761139668 0.12209209697621433 -0.1065778925366498 0.11954682280043337 -0.1128310431070767 0.027876046863645022
leaf_weight=119.55392277240753 1428.6329255625606 341.95943014323711 2340.7703850194812 228.3754480406642 174.15513673610985 1746.2189324982464 429.35115262493491 136.23375894874334 52.8301344178617 65.584821209311485 93.655038565397263 864.4927564561367 620.45981851220131 133.72991415113211 137.30659894645214 47.965156152844429 56.606293752789497 986.63994321972132 217.60232909023762 105.49987271428108 2359.8095834739506 2088.9211764596403 398.18272200226784 948.76550424844027 167.28701268136501 95.948846589773893 254.25049606710672 182.8089525103569 433.07775003835559 357.49341362714767
leaf_count=1085 13094 2445 65319 3274 5723 33626 8646 967 261 379 648 8677 6400 1225 697 274 441 8588 982 1012 28549 12951 2128 6644 823 675 1346 1522 4783 1683
internal_value=0 -0.0346508 0.0367741 0.0175593 -0.0115613 0.0381523 0.0761921 0.0270208 -0.0601996 -0.00235949 -0.00589666 -0.0685745 -0.0576951 -0.0113081 0.0120865 0.0460563 -0.0727541 -0.0550411 0.100426 -0.00164701 -0.00825044 -0.00609408 -0.00408525 -0.0203346 -0.0494388 -0.0254432 -0.0423913 -0.0143024 -0.0967017 0.00827938
internal_weight=0 8745.62 8868.55 5962.19 5203.77 3174.85 2906.36 565.585 827.867 4375.9 2787.34 3541.85 2677.36 656.158 536.604 402.874 2021.2 1400.74 265.567 2693.68 2465.31 4201.75 4136.16 2047.24 1098.48 931.191 835.242 580.992 485.908 414.1
internal_count=224867 69732 155135 80203 39680 46720 74932 9613 7489 32191 33483 30052 21375 4263 3178 1953 17112 10712 1256 32835 29561 26468 26089 13138 6494 5671 4996 3650 5044 2124
is_linear=0
shrinkage=0.1


Tree=22
num_leaves=31
num_cat=0
split_feature=0 0 2 0 20 1 0 0 4 4 0 8 2 3 21 20 21 3 4 21 20 21 3 2 3 21 4 0 3 4
split_gain=1950.92 891.608 427.503 268.157 232.84 197.98 196.684 293.391 177.841 162.488 157.363 103.052 103.046 166.93 101.727 229.707 113.274 98.0647 91.3384 89.3183 199.398 84.2356 78.5348 78.3826 109.295 74.468 70.3905 68.4442 66.5346 61.2889
threshold=-0.094594594594594586 -0.49999999999999994 0.29166666666666669 -0.47297297297297297 -1.0000000180025095e-35 -1.0000000180025095e-35 -0.52702702702702686 -0.58108108108108103 -0.3508250070363072 -0.50135074403275715 -0.44594594594594589 -0.38059701492537307 -0.54166666666666663 -0.59836065573770481 -0.49999999999999994 1.0000000180025095e-35 -0.64285714285714268 0.13934426229508198 0.21386996904024771 -0.49999999999999994 1.0000000180025095e-35 -0.64285714285714268 0.073770491803278701 -0.29166666666666657 -0.35245901639344257 -0.49999999999999994 0.3812383900928793 -0.63513513513513498 -0.64754098360655721 -0.3575851393188853
decision_type=2 2 2 2 2 2 2 2 2 2 2 2 2 2 2 2 2 2 2 2 2 2 2 2 2 2 2 2 2 2
left_child=1 6 9 -3 10 -6 7 12 -7 25 -5 19 -1 27 16 22 -10 23 -19 21 -21 -11 -16 24 -12 -2 -4 28 -14 -9
right_child=2 3 26 4 5 8 -8 29 14 11 17 -13 13 -15 15 -17 -18 18 -20 20 -22 -23 -24 -25 -26 -27 -28 -29 -30 -31
leaf_value=-0.089463632201359583 0.0092947088739817295 0.090228140700870957 0.085410514580949282 -0.073627604953787187 0.067314846585534202 -0.082154111039327085 -0.10123382384741841 -0.10676858341340836 -0.024234405733254898 -0.017002964288702252 0.02683668032846058 0.044930162082026853 0.14687647317608221 -0.070954018724973755 -0.013557165977128905 -0.12228428595741735 0.03855850901879377 -0.0068063029524965506 -0.14920225124759917 0.01177411259697916 -0.13580290057314837 0.083615814535584643 -0.079911917677294858 0.039742549341976685 -0.034581702368212508 -0.11624146158206619 -0.024814320434501002 0.046114573221209196 -0.11283569312520803 0.0073435703341166413
leaf_weight=1102.1207345575094 82.22519052028656 302.35664699785411 2341.1872791089118 192.97674785554409 237.1102443896234 505.57404100894928 914.44182292371988 49.944171279668808 604.39573527127504 141.78987222909927 878.60400975123048 1895.2278188057244 11.923344634473322 723.62883566319942 1866.4092468842864 245.15893546491861 547.53901944682002 186.72040687501431 59.368941105902195 374.17113498412073 121.2153529971838 201.36346047930419 197.2159360870719 1562.5332562886178 432.29335366562009 111.10081302002072 59.407043263316154 220.42092555761337 57.118845053017139 817.07166483998299
leaf_count=11597 869 7946 74184 1004 2380 4798 10705 249 3758 1635 5015 33500 80 6206 12881 2161 5102 2094 441 4530 889 2611 1558 18577 2694 1355 1105 966 496 3481
internal_value=0 -0.0215842 0.0514033 -0.00210773 -0.00582231 -0.0214472 -0.0606615 -0.0482208 -0.0267535 0.0257501 0.0140049 0.0320157 -0.068302 -0.0452807 -0.01866 -0.0307704 0.0056124 0.0194259 -0.0411593 0.00282689 -0.0243363 0.0420405 -0.0198985 0.0246146 0.0065828 -0.0628486 0.0826828 0.0188999 -0.0679843 0.000770176
internal_weight=0 11714.9 5327.69 7818.26 7515.9 4203.4 3896.67 2982.23 3966.29 2927.09 3312.5 2733.77 2115.21 1013.09 3460.72 2308.78 1151.93 3119.52 246.089 838.54 495.386 343.153 2063.63 2873.43 1310.9 193.326 2400.59 289.463 69.0422 867.016
internal_count=224867 104189 120678 70409 62463 32638 33780 23075 30258 45389 29825 43165 19345 7748 25460 16600 8860 28821 2535 9665 5419 4246 14439 26286 7709 2224 75289 1542 576 3730
is_linear=0
shrinkage=0.1


Tree=23
num_leaves=31
num_cat=0
split_feature=0 2 0 0 4 0 0 0 0 4 0 0 0 0 3 0 4 2 21 3 4 20 21 20 2 3 21 4 6 0
split_gain=1700.19 756.684 335.859 340.208 335.565 264.986 236.629 454.653 188.317 174.661 149.242 141.394 281.808 241.169 137.129 134.799 122.267 118.187 117.945 117.103 112.732 111.085 122.162 292.451 107.807 139.603 95.0343 79.0469 73.8885 72.7143
threshold=-0.39189189189189183 0.29166666666666669 -0.3108108108108108 -0.28378378378378372 2.4301857585139319 -0.33783783783783777 -0.20270270270270269 -0.17567567567567566 -0.22972972972972971 -0.45064088267781649 -0.25675675675675674 -0.49999999999999994 -0.47297297297297297 -0.52702702702702686 0.090163934426229511 -0.58108108108108103 0.3812383900928793 -0.37499999999999994 -0.49999999999999994 -0.23770491803278684 -0.16586687306501541 -1.0000000180025095e-35 -0.49999999999999994 1.0000000180025095e-35 -0.45833333333333331 -0.25409836065573765 -0.64285714285714268 -0.17224339128363889 -0.36224489795918363 0.17567567567567571
decision_type=2 2 2 2 2 2 2 2 2 2 2 2 2 2 2 2 2 2 2 2 2 2 2 2 2 2 2 2 2 2
left_child=4 2 5 24 11 -2 8 14 10 18 -5 13 -13 15 17 28 29 -8 -9 20 -14 -11 26 -24 -4 27 -23 -26 -1 -3
right_child=1 16 3 6 -6 -7 7 9 -10 21 -12 12 19 -15 -16 -17 -18 -19 -20 -21 -22 22 23 -25 25 -27 -28 -29 -30 -31
leaf_value=-0.0041207737666297808 0.0071281349461191608 0.048262147626454178 -0.09840944050645338 0.10876372845167806 -0.079419113451242265 0.11605039181208131 -0.11253123901989803 0.011793808718441151 0.11053072449408226 0.047668089600484326 -0.03627197724398 0.088896114524720668 -0.076282839604874711 -0.096803955700726682 -0.21182906830839024 0.0091615313243148967 -0.046585715228516553 -0.021535761128466321 -0.11033737232318414 -0.069382810197674546 -0.0011157326103996288 0.0060984921496180719 0.010478165769726386 -0.12905002640291674 -0.097076220981725081 -0.075451051222203414 0.072507083168016281 0.016651353147947794 -0.06139805017043734 0.087354191357734326
leaf_weight=307.34110197424889 400.78028685599566 636.42176396027207 284.39117603749037 103.57452104985714 1524.1120265144855 504.5126321092248 230.82242456078529 150.68059741333127 418.75104942172766 1347.4127037692815 225.22981620207429 261.96644922345877 226.70326432585716 621.51217659562826 62.519224613904953 716.52443397045135 82.004677835851908 374.01765334233642 166.38751754909754 404.94396725296974 1664.1573759242892 425.17479296214879 1059.9720138255507 175.02557694166899 69.552423913031816 377.57381602376699 436.95518216304481 503.84177301079035 842.92924100905657 1885.5584119018167
leaf_count=2371 3338 13670 2017 881 15428 4996 1593 1599 5110 23373 1849 7250 2146 7734 392 3051 1313 3656 2090 2591 10552 5720 14892 1418 612 2744 6287 3982 7230 64982
internal_value=0 0.0272875 0.0108126 0.00276236 -0.0382977 0.0678297 0.0140151 0.0052312 0.0660559 0.0187265 0.00941478 -0.0258775 -0.00936701 -0.0428488 -0.0708357 -0.0248856 0.0735819 -0.056262 -0.0522968 -0.0205795 -0.0101278 0.0252641 0.0108695 -0.00929596 -0.0443898 -0.028235 0.0397565 0.00285626 -0.0460941 0.0774893
internal_weight=0 9921.16 7317.18 6411.88 6570.19 905.293 5176.52 4428.97 747.555 3761.61 328.804 5046.08 2557.77 2488.31 667.359 1866.79 2603.98 604.84 317.068 2295.8 1890.86 3444.54 2097.13 1235 1235.36 950.968 862.13 573.394 1150.27 2521.98
internal_count=224867 166514 86549 78215 58353 8334 68860 61020 7840 55379 2730 42925 22539 20386 5641 12652 79965 5249 3689 15289 12698 51690 28317 16310 9355 7338 12007 4594 9601 78652
is_linear=0
shrinkage=0.1


Tree=24
num_leaves=31
num_cat=0
split_feature=2 0 0 20 4 3 20 21 3 4 2 3 0 3 2 3 4 4 1 4 21 4 0 0 3 2 0 0 0 0
split_gain=1481.22 625.53 367.108 203.348 162.748 157.692 141.124 339.228 126.972 224.915 117.204 316.998 296.574 222.219 131.368 182.219 115.396 111.101 107.478 104.438 102.751 101.651 100.918 100.655 136.209 91.1483 88.9421 200.5 261.424 155.296
threshold=-0.37499999999999994 0.31081081081081091 -0.49999999999999994 -0.74999999999999989 -0.095866873065015429 -0.48360655737704911 1.0000000180025095e-35 -0.49999999999999994 0.43442622950819676 0.50308049535603727 -0.62499999999999989 -0.63114754098360648 -0.63513513513513498 -0.66393442622950805 -0.54166666666666663 -0.56557377049180313 -0.042445820433436511 -0.28408324733402118 -1.0000000180025095e-35 -0.50700221141087998 -0.49999999999999994 3.4433436532507735 -0.28378378378378372 0.31081081081081091 0.17213114754098363 -0.62499999999999989 -0.39189189189189183 -0.3108108108108108 -0.28378378378378372 -0.20270270270270269
decision_type=2 2 2 2 2 2 2 2 2 2 2 2 2 2 2 2 2 2 2 2 2 2 2 2 2 2 2 2 2 2
left_child=2 3 10 22 20 25 -3 -8 18 -10 -1 12 -12 17 -13 -16 -15 -14 -5 -20 -4 -21 -2 24 26 -6 -7 -28 -29 -30
right_child=1 6 4 8 5 23 7 -9 9 -11 11 14 13 16 15 -17 -18 -19 19 21 -22 -23 -24 -25 -26 -27 27 28 29 -31
leaf_value=-0.11087445254233022 0.014895719481533896 0.082021088670861192 -0.015215566669990528 0.060091812917618753 -0.12873458239116897 -0.067339516779769779 0.068772146503177381 -0.12204385943964478 -0.037890321426119776 -0.34610540568553727 -0.096196481219139859 -0.11012038808886052 -0.062526417660825409 -0.093808049120067988 0.0018450202444287211 -0.085534862238062767 0.046842598840889316 0.25834031914173877 -0.08481537778041677 0.0030073062042050599 -0.093326302119360258 -0.1491163069956466 0.055152866494041899 0.067126086481716099 -0.18680742523926966 0.026830216751438568 0.078169486968662022 -0.14103852905458328 0.07714916792572736 -0.030826657758203514
leaf_weight=435.24385415017605 1307.2601400557905 1935.6769382469356 301.0717950835824 301.44146209768951 38.864264011383057 383.65481570921838 387.57343774661422 122.65045715495944 205.42582725733519 26.760337997227907 196.88907967507839 698.25751271098852 12.948447853326796 73.002544231712818 373.52487393468618 660.95595420897007 290.2642839923501 64.771257624030113 146.06475199013948 3900.2973622903228 382.1964755859226 44.425983291119337 1189.1510361824185 111.07543375715613 54.429231114685535 1219.511129040271 203.77452852204442 176.03339237719774 174.06544171646237 567.38294258341193
leaf_count=5417 12161 65720 2244 4492 244 2079 8861 1016 4241 195 2319 8964 118 358 2025 6921 1424 428 1554 45287 4898 253 24704 688 256 11062 1544 824 1099 3471
internal_value=0 0.0260585 -0.0360403 0.0110721 -0.0149611 -0.00470854 0.0696888 0.0229027 -0.00134399 -0.0734133 -0.0631762 -0.0544189 0.00585048 0.0514118 -0.0766059 -0.0539842 0.0185773 0.204882 0.0024658 -0.00178053 -0.058908 0.00129407 0.034072 -0.0248483 -0.0313998 0.0220257 -0.0257791 -0.0115585 -0.0314873 -0.00547781
internal_weight=0 9566.73 6417.92 7120.83 3612.06 2928.79 2445.9 510.224 4624.42 232.186 2805.86 2370.61 637.876 440.987 1732.74 1034.48 363.267 77.7197 4392.23 4090.79 683.268 3944.72 2496.41 1670.42 1559.34 1258.38 1504.91 1121.26 917.482 741.448
internal_count=224867 168484 56383 92887 28409 21267 75597 9877 56022 4436 27974 22557 4647 2328 17910 8946 1782 546 51586 47094 7142 45540 36865 9961 9273 11306 9017 6938 5394 4570
is_linear=0
shrinkage=0.1


Tree=25
num_leaves=31
num_cat=0
split_feature=0 0 2 0 1 0 0 20 4 0 4 3 2 4 3 21 20 21 0 4 4 0 3 4 0 0 0 2 20 21
split_gain=1269.17 589.205 347.041 208.209 185.812 185.59 228.763 169.686 120.98 111.529 98.0475 97.8693 108.141 92.9103 83.581 83.2245 237.713 84.4998 82.245 73.7743 70.4445 69.5786 223.333 128.092 67.3573 66.7136 162.115 85.4703 57.7767 65.7702
threshold=-0.094594594594594586 -0.49999999999999994 0.20833333333333334 -0.47297297297297297 -1.0000000180025095e-35 -0.52702702702702686 -0.58108108108108103 -1.0000000180025095e-35 -0.41902476780185743 -0.44594594594594589 1.4891331269349846 -0.49999999999999994 -0.45833333333333331 -0.54560371517027839 0.13934426229508198 -0.49999999999999994 1.0000000180025095e-35 -0.64285714285714268 -0.067567567567567557 -0.63727650178798545 0.35458767238953026 0.31081081081081091 0.48360655737704922 0.36844486782567276 -0.41891891891891891 -0.33783783783783777 -0.3108108108108108 -0.29166666666666657 -1.0000000180025095e-35 -0.49999999999999994
decision_type=2 2 2 2 2 2 2 2 2 2 2 2 2 2 2 2 2 2 2 2 2 2 2 2 2 2 2 2 2 2
left_child=1 5 13 -3 -5 6 10 9 -9 -6 11 12 -1 -2 24 17 -17 -10 -15 -4 -21 22 28 -24 -11 -26 -27 -28 -20 -30
right_child=2 3 19 4 7 -7 -8 8 15 14 -12 -13 -14 18 -16 16 -18 -19 21 20 -22 -23 23 -25 25 26 27 -29 29 -31
leaf_value=-0.039419111614992106 -0.06891738335114056 0.086229435570928034 -0.043890230300574991 0.066248667121633228 -0.066071239650745225 -0.096501498588601131 0.003006928780226095 -0.078634258012016789 -0.021042368010998323 0.10337892934679005 -0.078426685662344175 -0.07448943925014205 0.064952793301208331 0.11241684885986941 -0.044460097248942808 -0.016742637789355298 -0.11936180311795336 0.032593552231956445 0.044043404685679674 0.081028077964261772 -0.016004339214163509 0.043639974249243894 -0.031796221118873688 -0.28685674696984226 -0.0043277585147521091 0.11191134818337621 -0.015086835766671173 0.036496095276141151 0.032305087920429298 -0.02229828048335732
leaf_weight=262.87449599802494 113.38201342150569 259.04794413037598 51.364696387201548 348.39388300105929 185.67410804331303 733.87334676459432 853.36920070648193 349.44632720202208 610.78080801665783 91.131824187934399 1105.6317049190402 302.91352675110102 159.50666047632694 100.18358857929707 225.99987231194973 2083.8445212095976 253.1568784750998 565.84430135414004 484.56144715473056 2011.6168974936008 77.709547512233257 794.79678776115179 40.148178026080132 38.639074504375458 995.13134979456663 204.04651036113501 528.48675567656755 819.04661002010107 387.39013135433197 512.32843581587076
leaf_count=2280 1542 7946 861 3899 966 10705 3730 3721 3810 768 13169 2959 937 1510 2362 14645 2697 5385 8731 79211 1562 14229 970 250 6785 2502 3137 11786 5209 6603
internal_value=0 -0.0175124 0.0450345 -0.0018648 -0.00500771 -0.0519373 -0.0397537 -0.00859902 -0.0225194 0.00903509 -0.0596839 -0.0311125 -4.44137e-06 0.019505 0.0139045 -0.0169385 -0.0278589 0.00475139 0.0237566 0.0745083 0.0774191 0.0198226 0.00688412 -0.156884 0.018905 0.0158821 0.0288441 0.0162659 0.0162051 0.00121219
internal_weight=0 10938.2 4612.12 7520.03 7260.98 3418.17 2684.3 6912.59 3863.07 3049.52 1830.93 725.295 422.381 2471.43 2863.84 3513.63 2337 1176.63 2358.05 2140.69 2089.33 2257.86 1463.07 78.7873 2637.84 2546.71 1551.58 1347.53 1384.28 899.719
internal_count=224867 104189 120678 70409 62463 33780 23075 58564 30258 28306 19345 6176 3217 39044 27340 26537 17342 9195 37502 81634 80773 35992 21763 1220 24978 24210 17425 14923 20543 11812
is_linear=0
shrinkage=0.1


Tree=26
num_leaves=31
num_cat=0
split_feature=2 2 0 21 4 3 0 3 0 8 4 1 4 2 3 3 20 21 0 3 7 20 2 21 3 0 0 3 3 0
split_gain=1086.05 496.144 333.083 172.157 171.165 136.475 131.403 242.464 131.331 127.022 124.148 123.092 124.668 98.2741 124.36 96.1178 86.29 168.628 77.0655 75.1471 74.3305 72.0527 109.753 68.5706 66.2337 209.187 165.912 148.281 103.194 69.4227
threshold=-0.12499999999999999 -0.54166666666666663 0.31081081081081091 -0.49999999999999994 1.9233436532507739 0.72950819672131162 -0.49999999999999994 -0.49999999999999994 -0.39189189189189183 -0.33582089552238797 0.0069659442724458792 -1.0000000180025095e-35 -0.39675204052913021 -0.45833333333333331 -0.56557377049180313 -0.63114754098360648 1.0000000180025095e-35 -0.49999999999999994 -0.47297297297297297 -0.17213114754098358 1.0000000180025095e-35 1.0000000180025095e-35 -0.62499999999999989 -0.49999999999999994 -0.63114754098360648 -0.608108108108108 -0.49999999999999994 -0.66393442622950805 -0.5491803278688524 -0.36486486486486486
decision_type=2 2 2 2 2 2 2 2 2 2 2 2 2 2 2 2 2 2 2 2 2 2 2 2 2 2 2 2 2 2
left_child=1 3 5 4 15 8 7 13 19 -10 -7 -8 23 14 -3 -1 -4 -18 -14 -2 -20 22 -5 -13 25 -24 -26 -27 -28 -30
right_child=2 6 16 21 -6 10 11 -9 9 -11 -12 12 18 -15 -16 -17 17 -19 20 -21 -22 -23 24 -25 26 27 28 -29 29 -31
leaf_value=0.10696311637457408 0.012716969978568932 0.0068064677298316448 0.082484514657407471 -0.11076321269021427 -0.079011293393972018 -0.035557491645667273 0.069702185365458053 -0.076355869821534098 -0.016567132962882303 0.043674062723930845 -0.29637014477538171 -0.012412343665176044 0.078739057099947551 0.03908147131006779 -0.094687096838059023 -0.0040049562342246636 0.063654285821798828 -0.11244772785106794 0.0048551181103648807 -0.058823543671351376 -0.02838884918717452 -0.11658800244102806 -0.10087104601397597 -0.095997201182770997 -0.10951082330313684 0.25446264078543929 0.055566675354429544 0.017854513313608846 -0.14968804342199901 -0.021805963609971508
leaf_weight=110.5014795139432 331.91081262379885 375.48555203527212 1533.6222251355648 376.36565794795752 243.57582486793399 88.194096947088838 248.96430790051818 686.46969004720449 422.06442032195628 2050.5710250902921 23.013162985444069 186.32282792031765 127.198151756078 403.22267246246338 177.93746210634708 265.84296911582351 250.06222727708519 69.484371431171894 4592.7280054204166 263.30737624689937 787.96867464482784 338.41094270348549 115.58123730868101 207.39872089773417 366.92906026169658 36.596963331103325 134.22428353130817 95.874136544764042 57.957753106951714 158.65608350932598
leaf_count=590 2966 2130 63718 5116 2793 2079 3214 7446 6853 43339 269 1211 5025 2217 2229 3073 7468 586 36361 2171 6557 4494 1634 3130 5304 238 1052 571 284 749
internal_value=0 -0.0179312 0.0389379 -0.0587374 -0.0136959 0.0192951 -0.00588616 -0.0310082 0.0232399 0.0333912 -0.0895299 0.000825147 -0.00208048 0.00153232 -0.0258259 0.0285773 0.0726346 0.0253615 0.00180544 -0.0189305 -1.32486e-05 -0.0753519 -0.0649549 -0.0564419 -0.047104 -0.00255774 -0.0624987 0.0832208 -0.0133305 -0.0560224
internal_weight=0 10094.2 5032.23 2300.52 619.92 3179.06 7793.7 1643.12 3067.85 2472.64 111.207 6150.58 5901.62 956.646 553.423 376.344 1853.17 319.547 5507.89 595.218 5380.7 1680.6 1342.19 393.722 965.82 248.052 717.767 132.471 350.838 216.614
internal_count=224867 95418 129449 25898 6456 57677 69520 14022 55329 50192 2348 55498 52284 6576 4359 3663 71772 8054 47943 5137 42918 19442 14948 4341 9832 2443 7389 809 2085 1033
is_linear=0
shrinkage=0.1


Tree=27
num_leaves=31
num_cat=0
split_feature=0 2 0 0 0 0 0 0 0 21 21 3 3 20 8 0 20 3 4 4 2 3 1 3 0 0 4 0 0 0
split_gain=949.477 583.372 189.126 218.174 220.488 189.756 215.524 268.32 173.495 153.767 150.956 143.694 143.428 151.726 126.08 125.988 120.618 117.71 101.53 89.7673 84.0854 80.7356 79.1817 68.962 131.313 72.318 68.766 68.5814 90.7568 103.023
threshold=0.31081081081081091 -0.54166666666666663 -0.39189189189189183 -0.3108108108108108 -0.33783783783783777 -0.28378378378378372 -0.20270270270270269 -0.17567567567567566 -0.22972972972972971 -0.49999999999999994 -0.64285714285714268 -0.38524590163934419 1.0409836065573772 -1.0000000180025095e-35 -0.39552238805970147 -0.25675675675675674 1.0000000180025095e-35 0.090163934426229511 0.97360681114551084 0.69465944272445823 -0.37499999999999994 -0.25409836065573765 -1.0000000180025095e-35 -0.61475409836065564 -0.58108108108108103 -0.63513513513513498 3.2959752321981424 -0.49999999999999994 -0.47297297297297297 -0.44594594594594589
decision_type=2 2 2 2 2 2 2 2 2 2 2 2 2 2 2 2 2 2 2 2 2 2 2 2 2 2 2 2 2 2
left_child=1 9 11 4 -4 21 8 17 15 10 -1 20 13 -9 -2 -7 -12 -8 27 -18 23 -5 -15 25 -25 -3 -22 -13 -29 -30
right_child=14 2 3 5 -6 6 7 12 -10 -11 16 18 -14 22 -16 -17 19 -19 -20 -21 26 -23 -24 24 -26 -27 -28 28 29 -31
leaf_value=-0.076297652047373252 0.014116660246606834 -0.080307416867672413 0.0055037159451779283 -0.01167659998450591 0.11086820220357314 0.1010964806172282 -0.039139518828713915 0.045191115546669734 0.10683012444323343 -0.073338320302293578 -0.072028037637626607 -0.068739879048908034 -0.19472701507902845 0.082463989997746803 0.074688455486797478 -0.030934980536544754 0.012560931372789415 -0.16626727192460891 -0.098420745090791573 0.12935517513348369 0.030265372606768395 -0.066444893589873405 -0.0059250002071507962 -0.079417922967927435 -0.0077681431635934486 0.04700935922188397 -0.13648406426165149 0.097549524362074355 -0.12845196770846656 -0.012058712694937582
leaf_weight=235.54484755545855 430.14720090292394 53.010688185691833 383.72488855570555 721.12489439547062 411.68876922130585 104.52722420543432 536.05025828257203 1219.5723698809743 404.24346703290939 1562.7477398626506 93.021332690492272 324.39619869366288 32.030101656913757 107.87640219554305 1708.7474055569619 234.21501076966524 162.65858117863536 84.285437270998955 258.65885250642896 110.52169968560338 761.68185746110976 429.44778534024954 1675.5408870261163 326.86382419615984 1176.2820826433599 281.67619704827666 25.561136906966567 66.28701258264482 84.82054265588522 735.15399270504713
leaf_count=2569 9287 535 3417 5668 4915 1054 5065 28769 5677 19323 1020 3315 579 2331 67262 2032 1553 636 2251 1248 6371 3196 23860 3669 10362 1574 163 1546 466 5154
internal_value=0 -0.0095517 0.000245164 0.0110584 0.0600381 0.00403732 0.0134955 0.0035155 0.0625951 -0.0567991 -0.0138463 -0.0165101 0.0157643 0.0180094 0.062507 0.00980656 0.0263231 -0.0564125 -0.0415502 0.0598129 -0.00249448 -0.0321187 -0.000578475 -0.0142081 -0.0233486 0.0268438 0.0248512 -0.0293998 -0.0150002 -0.0240988
internal_weight=0 12603.2 10438.7 6344.33 795.414 5548.91 4398.34 3655.36 742.986 2164.49 601.746 4094.39 3035.02 3002.99 2138.89 338.742 366.202 620.336 1469.32 273.18 2625.08 1150.57 1783.42 1837.83 1503.15 334.687 787.243 1210.66 886.262 819.975
