tree
version=v3
num_class=1
num_tree_per_iteration=1
label_index=0
max_feature_idx=23
objective=binary sigmoid:1
feature_names=MONTO_POSTERIOR FLAG_CON_SALDO SUM_CANTIDAD_RECARGAS SUM_MONTO_RECARGAS DIAS_FRECUENCIA_RECARGA SUM_SS_TRAFICO_IVR SUM_ESC_TRAFICO_LOCAL_VOZ SUM_ESC_TRAFICO_INTERNACIONAL_VOZ SUM_ESC_TRAFICO_IVR_VOZ SUM_ESC_ROAMING_ENTRANTE_VOZ SUM_ESC_ROAMING_SALIENTE_VOZ SUM_ESC_FAMILIA_Y_AMIGOS_VOZ STORE LATITTUDE LONGITUDE AGE GENDER EMPLYEE_STATUS MANUFACTURER MODEL YEAR MONTH DAY KMEANS_CLUSTERS
feature_infos=[-0.70270270270270274:14.405405405405405] [-1:0] [-0.66666666666666663:24.25] [-0.73770491803278693:11.377049180327869] [-0.73533680525911371:14.480192948006486] [-0.375:292.34920634920633] [-0.38144329896907214:55.216494845360828] [0:1592] [-0.53731343283582089:68.611940298507463] [0:965] [0:308] [0:78] [-1:0.94999999999999996] [-1.2543341295683479:1.054761552489738] [-2.0236131295385165:0.21203735822144471] [-1:1] [-1:0] [-0.5:0.5] [-1:1.0526315789473684] [-0.95238095238095233:0.90476190476190477] [-5.5:0.5] [-0.7142857142857143:0.8571428571428571] [-1:1] [-1:2]
tree_sizes=3378 3475 3484 3484 3505 3501 3502 3500 3490 3513 3515 3497 3480 3499 3499 3503 3531 3499 3509 3527 3516 3519 3510 3531 3533 3503 3529 3526 3521 3515 3489 3520 3521 3509 3517 3515 3526 3522 3527 3531 3512 3530 3522 3503 3511 3512 3538 3540 3530 3493 3527 3501 3531 3512 3524 3513 3523 3512 3542 3497 3531 3502 3511 3538 3515 3492 3534 3498 3504 3515 3516 3497 3507 3482 3427 3508 3477 3500 3477 3461 3469 3505 3496 3418 3450 3485 3490 3495 3497 3469 3459 3487 3489 3432 3448 3440 3450 3435 3463 3505

Tree=0
num_leaves=31
num_cat=0
split_feature=0 2 4 21 0 2 4 2 21 21 2 3 0 4 21 20 0 4 21 0 0 0 4 20 21 0 20 21 20 3
split_gain=104849 15058.6 6695.58 3537.82 2565.56 2411.9 3719.37 1970.6 1868.38 1264.45 695.607 1502.15 798.976 671.892 575.526 1397.04 518.871 505.542 452.969 349.576 1652.4 341.515 336.474 336.126 3727.48 327.519 325.218 324.415 302.764 230.768
threshold=-0.49999999999999994 -0.37499999999999994 -0.22438078015214516 -0.49999999999999994 -0.47297297297297297 -0.12499999999999999 -0.40962677546765386 -0.54166666666666663 -0.49999999999999994 -0.49999999999999994 -0.54166666666666663 -0.56557377049180313 -0.63513513513513498 -0.67193876462050695 -0.49999999999999994 1.0000000180025095e-35 -0.22972972972972971 2.1872865619397253 -0.64285714285714268 -0.52702702702702686 -0.58108108108108103 -0.52702702702702686 4.1365790147699144 1.0000000180025095e-35 -0.49999999999999994 -0.44594594594594589 1.0000000180025095e-35 -0.49999999999999994 1.0000000180025095e-35 -0.48360655737704911
decision_type=2 2 2 2 2 2 2 2 2 2 2 2 2 2 2 2 2 2 2 2 2 2 2 2 2 2 2 2 2 2
left_child=10 2 3 -2 -4 6 8 9 -3 17 -1 12 -12 27 18 25 -15 -6 -9 20 -13 -14 -8 -18 -25 -16 29 -7 -29 -11
right_child=1 5 4 -5 7 13 22 14 -10 26 11 19 21 16 15 -17 23 -19 -20 -21 -22 -23 -24 24 -26 -27 -28 28 -30 -31
leaf_value=0.80787349769554329 1.2220965024986761 1.2610265259813902 1.3531915946699351 0.794109183294468 1.2558202036917094 1.3313328532326567 1.2885955415612376 1.1655447330740547 0.79672320656947093 1.0369636972883129 0.81241823747970932 0.81300449775946015 1.1176792097014356 1.2888373462614096 0.97035795559979365 0.78867650595425975 1.3479642631967281 0.89328110953226902 1.3091210790561112 0.79015132970992441 1.0955378124990054 0.84375544257257373 0.81833937147594416 1.3426177774576487 0.79598845689908959 1.1934566729442175 0.78625142093664757 1.3265784741499205 0.78556601664081671 0.86520656427969556
leaf_weight=3214.1684169769287 260.23383331298828 135.0269889831543 798.23747253417969 749.13674926757812 204.99551963806152 28.583635330200195 5674.8160915374756 346.86153793334961 241.99642181396484 189.73922348022461 141.51529884338379 991.30853080749512 388.42179298400879 1867.5810813903809 69.267091751098633 96.447849273681641 18630.392644882202 47.347126007080078 599.55490303039551 894.15924263000488 261.63671112060547 51.555759429931641 15.256296157836912 1749.3886260986328 134.3255500793457 1315.5486640930176 145.8992919921875 13.678058624267576 42.437053680419922 133.09803199768066
leaf_count=18329 1484 770 4552 4272 1169 163 32361 1978 1380 1082 807 5653 2215 10650 395 550 106241 270 3419 5099 1492 294 87 9976 766 7502 832 78 242 759
internal_value=1.22649 1.29518 1.13429 0.904452 1.19307 1.32313 1.26718 1.15247 0.963009 1.00732 0.839396 0.876529 1.0191 1.33824 1.19559 1.15667 1.3393 1.1878 1.2565 0.837916 0.872002 1.08558 1.28733 1.34389 1.30364 1.1823 0.910156 1.05712 0.917438 0.966152
internal_weight=0 33489.8 4956.37 1009.37 3947 28533.5 6067.1 3148.76 377.023 721.079 5942.77 2728.6 581.493 22466.4 2427.68 1481.26 22381.7 252.343 946.416 2147.1 1252.95 439.978 5690.07 20514.1 1883.71 1384.82 468.737 84.6987 56.1151 322.837
internal_count=224867 190978 28264 5756 22508 162714 34598 17956 2150 4112 33889 15560 3316 128116 13844 8447 127633 1439 5397 12244 7145 2509 32448 116983 10742 7897 2673 483 320 1841
is_linear=0
shrinkage=1


Tree=1
num_leaves=31
num_cat=0
split_feature=0 2 4 21 2 4 0 2 21 21 21 20 4 0 20 2 3 2 20 21 4 0 0 0 3 21 0 3 0 21
split_gain=72188.1 12624.1 4296.31 2421.33 2254.15 2744.21 2002.25 1271.2 1085.03 1057.22 605.867 580.177 556.617 513.291 370.403 366.321 1018.19 340.421 269.426 2418.64 243.913 229.198 224.383 544.968 264.502 216.588 215.465 200.912 611.513 327.148
threshold=-0.49999999999999994 -0.37499999999999994 -0.16580668914880894 -0.49999999999999994 -0.12499999999999999 -0.40962677546765386 -0.47297297297297297 -0.45833333333333331 -0.49999999999999994 -0.49999999999999994 -0.64285714285714268 1.0000000180025095e-35 -0.67193876462050695 -0.094594594594594586 1.0000000180025095e-35 -0.45833333333333331 -0.49999999999999994 -0.62499999999999989 1.0000000180025095e-35 -0.49999999999999994 3.9471740800819601 -0.63513513513513498 -0.3108108108108108 -0.33783783783783777 -0.38524590163934419 -0.49999999999999994 -0.52702702702702686 -0.63114754098360648 -0.58108108108108103 -0.49999999999999994
decision_type=2 2 2 2 2 2 2 2 2 2 2 2 2 2 2 2 2 2 2 2 2 2 2 2 2 2 2 2 2 2
left_child=15 2 3 -2 5 8 -4 9 -3 10 -8 17 25 -14 -12 27 21 -11 -15 -20 -7 -17 23 24 -19 -6 -23 28 -1 -30
right_child=1 4 6 -5 12 20 7 -9 -10 11 14 -13 13 18 -16 16 -18 22 19 -21 -22 26 -24 -25 -26 -27 -28 -29 29 -31
leaf_value=-0.29766649211944624 0.004411857170756729 0.031714495946483699 0.12312924092563063 -0.31203151844633215 0.10042999653271503 0.058069550449431732 -0.1557242453595587 0.012221896077340692 -0.31269090966301483 -0.36471631111397634 -0.17426060113369399 -0.31835784949452617 0.075218766316436536 0.12014024588747441 0.088334203529581684 -0.28624326055169563 -0.28974570439067987 -0.10150013751037412 0.11439685007304419 -0.3120246309066268 -0.28460144720703384 -0.05674364942887275 -0.18742301507387177 0.1319356775738689 -0.34858973238546015 -0.23680326991370731 -0.26639341637884489 -0.31572772587454234 0.02640758666541819 -0.21044130526918875
leaf_weight=1663.3565904647112 320.04828032851219 132.47527524828911 737.41416215896606 989.06263241171837 26.941208258271217 5479.4349989145994 207.45068733394146 1373.6411920040846 295.56244701147079 62.057652473449707 62.53137032687664 225.27538523077965 3766.431262999773 15505.578872457147 381.02007056772709 68.971784621477127 1481.2468811273575 363.77302549779415 1578.59781691432 145.25149691104889 20.851128935813904 326.19563712179661 321.04691475629807 97.489859074354172 49.180267512798309 64.976289540529251 57.691731169819832 3265.7741221189499 85.501768186688423 183.42692689597607
leaf_count=7841 1835 770 4519 4622 163 32347 1128 7750 1380 312 352 1048 22612 94729 2245 324 7035 1947 9614 678 101 1696 1715 533 258 320 271 15442 407 873
internal_value=0 0.0648286 -0.0780142 -0.234668 0.0922698 0.0377907 -0.0251712 -0.0599605 -0.206099 -0.115985 -0.0146616 -0.174941 0.107585 0.10866 0.0513139 -0.286781 -0.249627 -0.138783 0.115971 0.0784666 0.0567705 -0.118405 -0.121921 -0.0807227 -0.130927 -0.13796 -0.0882504 -0.300605 -0.275046 -0.135139
internal_weight=0 32206.1 5189.99 1309.11 27016.1 5928.32 3880.88 3143.47 428.038 1769.83 651.002 1118.82 21087.8 20995.9 443.551 7132.17 1934.11 893.548 17229.4 1723.85 5500.29 452.859 831.49 510.443 412.953 91.9175 383.887 5198.06 1932.29 268.929
internal_count=224867 190978 28264 6457 162714 34598 21807 17288 2150 9538 3725 5813 128116 127633 2597 33889 9326 4765 105021 10292 32448 2291 4453 2738 2205 483 1967 24563 9121 1280
is_linear=0
shrinkage=0.1


Tree=2
num_leaves=31
num_cat=0
split_feature=0 2 4 21 0 2 20 21 0 21 20 21 20 4 0 0 4 3 4 0 4 2 20 21 3 2 0 4 21 20
split_gain=54350.7 10803.9 4024.61 2130.46 1692.38 1723.17 1346.38 6251.03 902.75 849.806 472.836 470.714 290.68 270.541 527.931 1119.23 277.711 260.386 252.608 248.182 223.727 174.502 167.211 148.119 145.295 287.505 137.538 137.205 133.432 239.158
threshold=-0.49999999999999994 -0.29166666666666657 -0.22904284522785326 -0.49999999999999994 -0.47297297297297297 -0.45833333333333331 1.0000000180025095e-35 -0.49999999999999994 -0.22972972972972971 -0.49999999999999994 1.0000000180025095e-35 -0.64285714285714268 1.0000000180025095e-35 2.0489157346538041 -0.52702702702702686 -0.58108108108108103 -0.21994493298044901 -0.10655737704918032 3.1685093485870399 -0.44594594594594589 1.85951079996585 0.12500000000000003 1.0000000180025095e-35 -0.64285714285714268 -0.56557377049180313 -0.45833333333333331 -0.63513513513513498 0.17130608015735657 -0.49999999999999994 1.0000000180025095e-35
decision_type=2 2 2 2 2 2 2 2 2 2 2 2 2 2 2 2 2 2 2 2 2 2 2 2 2 2 2 2 2 2
left_child=13 2 3 23 -4 9 8 20 17 11 18 -6 -13 14 15 24 -17 -3 -11 -7 -8 -10 -5 -2 25 -1 -27 -19 -21 -30
right_child=1 6 4 22 5 19 7 -9 21 10 -12 12 -14 -15 -16 16 -18 27 -20 28 -22 -23 -24 -25 -26 26 -28 -29 29 -31
leaf_value=-0.21851678177991227 -0.21386510506345338 0.069317606340004903 0.12060282423204688 -0.077421078397482954 -0.13058459210067147 -0.15305598771687901 0.10155072591874321 -0.29069001725757854 0.094283556042226019 -0.086925992036718802 -0.25903147535878873 -0.14389788874139239 0.079920008828800793 -0.25370948275056543 -0.25967461113401724 -0.23880565244837842 -0.04300573723263721 0.026996999553811102 -0.20542155307308013 0.055371215748364101 -0.30233677726772679 0.11710535809204128 -0.26578585191081955 0.032199300859043996 -0.24740514484200682 -0.21468020580241631 0.015994169386100415 -0.06984700624746823 0.012655231085500089 -0.31786383493200732
leaf_weight=625.0682538151741 26.276622027158737 2296.2761308699846 877.95824636518955 49.235951110720634 226.08112825453281 81.391104683279991 2261.9305054843426 502.21380327641964 4476.3713290989399 715.66850931942463 308.87412871420383 68.35007905960083 384.17609795928001 3621.044406041503 1689.7855042815208 83.940057590603828 528.65767113864422 561.6227398365736 240.31565172970295 914.78373110294342 13.798712164163588 13320.156968995929 1099.9933419823647 354.47096957266331 1157.8614982515574 36.65392093360424 87.675661638379097 197.82340794801712 1835.0247122645378 22.156704276800156
leaf_count=2705 152 14074 5701 223 1142 452 14435 2263 28507 3652 1305 353 2377 15500 7182 383 2533 3460 1139 5446 86 87352 4696 2061 4970 157 459 1214 10781 107
internal_value=0 0.0613462 -0.0458531 -0.189794 -0.00704516 -0.0304085 0.0940309 0.0286328 0.102743 -0.103032 -0.151467 -0.0127537 0.0461143 -0.233668 -0.216429 -0.18743 -0.0698349 0.05253 -0.116713 0.0190566 0.0991018 0.111365 -0.257716 0.0152176 -0.2252 -0.190893 -0.0520115 0.00177071 0.0241102 0.00871204
internal_weight=0 30835 7204.76 1529.98 5674.78 4796.82 23630.2 2777.94 20852.3 1943.47 1264.86 678.607 452.526 7830.69 4209.64 2519.86 612.598 3055.72 955.984 2853.36 2275.73 17796.5 1149.23 380.748 1907.26 749.398 124.33 759.446 2771.97 1857.18
internal_count=224867 190978 39587 7132 32455 26754 151391 16784 134607 9968 6096 3872 2730 33889 18389 11207 2916 18748 4791 16786 14521 115859 4919 2213 8291 3321 616 4674 16334 10888
is_linear=0
shrinkage=0.1


Tree=3
num_leaves=31
num_cat=0
split_feature=0 2 4 21 2 0 21 0 4 2 20 0 21 0 3 20 21 20 2 3 0 3 2 2 4 0 0 3 0 0
split_gain=42841.5 9467.29 3843.44 1808.9 1480.3 1586.55 706.384 676.799 535.226 638.358 428.281 400.594 370.053 308.553 318.164 287.48 444.467 226.056 208.861 542.675 308.053 199.646 193.129 191.785 357.661 169.768 201.23 832.546 143.059 150.65
threshold=-0.49999999999999994 -0.20833333333333329 -0.2835510804804931 -0.49999999999999994 -0.45833333333333331 -0.47297297297297297 -0.49999999999999994 -0.094594594594594586 -0.60867225518654455 0.54166666666666685 1.0000000180025095e-35 -0.47297297297297297 -0.64285714285714268 -0.39189189189189183 -0.23770491803278684 1.0000000180025095e-35 -0.49999999999999994 1.0000000180025095e-35 -0.54166666666666663 -0.56557377049180313 -0.63513513513513498 0.20491803278688528 -0.54166666666666663 0.12500000000000003 -0.54540574575258238 -0.3108108108108108 -0.28378378378378372 -0.30327868852459011 -0.39189189189189183 -0.47297297297297297
decision_type=2 2 2 2 2 2 2 2 2 2 2 2 2 2 2 2 2 2 2 2 2 2 2 2 2 2 2 2 2 2
left_child=18 2 3 -2 5 -4 12 15 9 -9 22 -6 -7 14 -13 21 -17 -14 -1 20 -20 28 -8 24 -10 -15 27 -27 29 -3
right_child=1 7 4 -5 11 6 10 8 23 -11 -12 13 17 25 -16 16 -18 -19 19 -21 -22 -23 -24 -25 -26 26 -28 -29 -30 -31
leaf_value=-0.21476291702053907 0.021078015782785054 0.12192239403697054 0.11642103257227464 -0.22254404314066112 0.1195336384251211 -0.11215488833516395 -0.15261384498194183 -0.17797132615542693 -0.13685333201819236 0.089564182251385821 -0.22285335868515671 -0.0056042079836768283 -0.12119859275092221 0.090785862977897425 -0.20706843825695029 0.038559042505817841 -0.28305040208490939 0.070834733733871877 -0.21313042161608031 -0.20186785044927782 -0.067432510884514782 0.0063368437210431011 -0.063457497833394425 0.11471686836493207 0.092191269740141496 0.034168591218198201 0.04447606980059441 -0.26331470202566404 0.085451865076230316 0.01510984843968983
leaf_weight=4496.1395346969366 402.03919705748558 167.34821854531765 433.50847765803337 1259.7976298928261 515.30386801064014 241.73768006265163 411.94394959509373 143.00300663709641 69.697779312729836 236.99226036667824 395.78653326630592 885.57535706460476 72.770811051130295 558.79152515530586 86.00164707005024 153.83843502402306 59.627349883317947 388.90093350410461 197.82284104824066 2959.1707107275724 544.67530861496925 471.63395008444786 592.3065143674612 12224.072485536337 3122.2684245407581 528.27343688905239 2302.2418264448643 114.46042789518833 2965.1299949586391 625.96103818714619
leaf_count=18329 2415 1065 3081 5168 3477 1156 1844 668 343 1592 1601 5274 353 3367 513 1013 267 2510 807 12244 2509 3120 2961 86397 21216 3203 14188 697 19512 3977
internal_value=0 0.0582104 -0.0259642 -0.163606 0.00442235 -0.0577746 -0.0936754 0.0964285 0.106127 -0.011117 -0.134751 0.0360397 -0.0119192 0.0264259 -0.0234373 0.0619507 -0.0512761 0.0405656 -0.20028 -0.182688 -0.106251 0.0676646 -0.100029 0.109017 0.08719 0.0402528 0.0306644 -0.0188083 0.0753604 0.0376419
internal_weight=0 29429 9189.44 1661.84 7527.6 2536.95 2103.45 20239.6 15796 379.995 1400.04 4990.65 703.409 4475.34 971.577 4443.54 213.466 461.672 8197.81 3701.67 742.498 4230.07 1004.25 15416 3191.97 3503.77 2944.98 642.734 3758.44 793.309
internal_count=224867 190978 51808 7583 44225 13506 10425 139170 110216 2260 6406 30719 4019 27242 5787 28954 1280 2863 33889 15560 3316 27674 4805 107956 21559 21455 18088 3900 24554 5042
is_linear=0
shrinkage=0.1


Tree=4
num_leaves=31
num_cat=0
split_feature=0 2 4 21 0 2 0 21 20 21 20 21 20 0 0 0 20 2 4 0 0 0 3 1 21 20 21 2 4 2
split_gain=34622.9 8329.52 3077.3 1416.54 1230.64 1649.3 663.206 542.202 516.472 2495.67 357.621 291.15 273.629 261.894 214.697 1229.22 184.267 175.738 149.802 145.235 243.482 285.755 167.546 140.734 137.209 886.275 191.619 134.445 131.784 131.262
threshold=-0.49999999999999994 -0.20833333333333329 -0.2835510804804931 -0.49999999999999994 -0.47297297297297297 -0.45833333333333331 -0.094594594594594586 -0.49999999999999994 1.0000000180025095e-35 -0.49999999999999994 1.0000000180025095e-35 -0.64285714285714268 -1.0000000180025095e-35 -0.44594594594594589 -0.52702702702702686 -0.58108108108108103 1.0000000180025095e-35 -0.62499999999999989 -0.26060853562518366 -0.44594594594594589 -0.3108108108108108 -0.33783783783783777 -0.43442622950819665 -1.0000000180025095e-35 -0.49999999999999994 1.0000000180025095e-35 -0.64285714285714268 -0.29166666666666657 -0.51406657495541952 -0.62499999999999989
decision_type=2 2 2 2 2 2 2 2 2 2 2 2 2 2 2 2 2 2 2 2 2 2 2 2 2 2 2 2 2 2
left_child=14 2 3 -2 -4 7 12 11 -8 -10 17 -6 -3 -7 15 -1 -13 -9 -17 -19 21 22 -21 -15 26 27 -25 -26 -14 -20
right_child=1 6 4 -5 5 13 8 10 9 -11 -12 16 28 23 -16 18 -18 19 29 20 -22 -23 -24 24 25 -27 -28 -29 -30 -31
leaf_value=-0.18540468869889254 0.019215923509960417 0.077734583870736951 0.11545006818804188 -0.1969693800835739 -0.096537429682550954 -0.12070326938450389 0.11007391914765297 -0.2327089586612423 0.10389403139913761 -0.21799375677202068 -0.19816834724216648 -0.10387057575058245 -0.13986720488152554 0.10198031897600789 -0.20009491676649091 -0.18188096928327804 0.06680516183644418 -0.19365394557331281 -0.21973357624735068 -0.014853264537957071 -0.12239654001439577 0.13443367583862575 -0.16342636767258478 0.0081705091296417291 0.0043423493613069198 -0.31261833328686661 0.087219578142244486 0.050363575966445119 0.030356216789347929 -0.03290155122296437
leaf_weight=4823.0509824305773 397.16574847698212 2681.412537202239 877.29228043556213 1279.6277244091034 252.14734721183777 121.1365714520216 12890.593012183905 76.566629141569138 1524.5261880159378 286.06418007612228 400.2370211482048 76.215725302696228 46.866141736507416 245.05702970921993 2663.5561243593693 85.362606510519981 372.01938040554523 93.581076383590698 39.610664948821068 282.49516342580318 381.10562220215797 100.61294198036194 103.78843933343887 557.60749179124832 1709.2510669976473 81.811425670981407 681.36161771416664 1009.8175086826086 1537.9449682384729 742.37755878269672
leaf_count=19471 2415 18334 6558 5168 1156 652 97868 313 11181 1167 1601 353 236 1536 10660 352 2510 410 160 1337 1735 534 476 3493 10254 387 4386 6534 10384 3246
internal_value=0 0.0552443 -0.0234108 -0.145764 0.00423108 -0.0106771 0.0929762 -0.0827288 0.103049 0.0530374 -0.117863 -0.0105734 0.0582646 0.024298 -0.176663 -0.165695 0.0377843 -0.0869027 -0.0560961 -0.0752928 -0.0625321 -0.0156747 -0.0547726 0.0283972 0.0239337 0.0116765 0.0516429 0.0214339 0.0253224 -0.0423653
internal_weight=0 28066.3 9098.9 1676.79 7422.1 6544.81 18967.4 2138.77 14701.2 1810.59 1438.39 700.382 4266.22 4406.04 8353.96 5690.4 448.235 1038.15 867.351 961.583 868.002 486.897 386.284 4284.91 4039.85 2800.88 1238.97 2719.07 1584.81 781.988
internal_count=224867 190978 51808 7583 44225 37667 139170 10425 110216 12348 6406 4019 28954 27242 33889 23229 2863 4805 3758 4492 4082 2347 1813 26590 25054 17175 7879 16788 10620 3406
is_linear=0
shrinkage=0.1


Tree=5
num_leaves=31
num_cat=0
split_feature=0 2 4 0 2 21 0 20 21 21 20 20 21 0 3 0 0 0 21 20 21 0 3 4 20 2 2 0 8 21
split_gain=28502.1 7343.83 2523.37 1137.98 1464.19 714.296 660.771 477.205 2090.54 474.691 362.505 247.254 232.142 231.236 228.448 190.203 1012.2 162.261 203.053 765.823 169.258 154.118 506.654 148.238 145.533 135.998 133.219 130.886 118.621 109.545
threshold=-0.49999999999999994 -0.20833333333333329 -0.35559848032101071 -0.47297297297297297 -0.45833333333333331 -0.49999999999999994 -0.094594594594594586 1.0000000180025095e-35 -0.49999999999999994 -0.49999999999999994 1.0000000180025095e-35 -1.0000000180025095e-35 -0.64285714285714268 -0.39189189189189183 -0.23770491803278684 -0.52702702702702686 -0.58108108108108103 -0.3108108108108108 -0.49999999999999994 1.0000000180025095e-35 -0.64285714285714268 -0.28378378378378372 -0.33606557377049173 3.9471740800819601 1.0000000180025095e-35 -0.37499999999999994 -0.29166666666666657 -0.33783783783783777 -0.38059701492537307 -0.64285714285714268
decision_type=2 2 2 2 2 2 2 2 2 2 2 2 2 2 2 2 2 2 2 2 2 2 2 2 2 2 2 2 2 2
left_child=15 2 5 -4 9 29 11 -8 -9 12 23 -3 -5 14 -6 16 -1 27 20 21 -19 22 -20 -11 -14 -18 -24 -15 -13 -2
right_child=1 6 3 4 13 -7 7 8 -10 10 -12 28 24 17 -16 -17 25 18 19 -21 -22 -23 26 -25 -26 -27 -28 -29 -30 -31
leaf_value=-0.16687140011907722 -0.21209111443363762 0.073812224655679437 0.11313158629963301 -0.085449710654436239 -0.0056672550594547774 -0.17955444527435341 0.1074658757938918 0.10080655497874447 -0.19457135774755313 -0.060333991872231554 -0.18059798735533561 -0.032336384043698943 -0.090920238690063659 0.020069617321101234 -0.16815196570683466 -0.18136039932604803 -0.075423245099516645 0.010295495135464012 0.043825697542342112 -0.24239289233990818 0.092046546672751903 0.037899404907260376 -0.27467209959867872 -0.16495170740693699 0.058203809679276269 0.011090054591804888 -0.080577852209311948 0.12307546077047365 0.036943419689393804 0.018694128655660138
leaf_weight=4822.14085970819 22.384258389472961 2548.528777256608 816.23883233964443 262.24443237483501 888.5112402588129 1129.4046641588211 11932.461741149426 1419.5357981994748 288.2654552012682 902.63554428517818 482.0153940320015 308.11656785011292 79.072441101074219 197.12244406342506 95.86503566801548 2645.3488677442074 618.01672931015491 421.2764105796814 298.26994933187962 117.61803959310055 634.99484059214592 1342.539476826787 76.935598582029343 159.35093341767788 379.69060236215591 257.37661364674568 65.441609412431717 329.65362906455994 1248.86769759655 253.38993768393993
leaf_count=19471 124 18334 6595 1166 5302 4582 97868 11181 1167 4157 1949 2008 354 1285 516 10660 2624 2691 1861 505 4294 8635 415 662 2649 1134 383 2118 8612 1565
internal_value=0 0.0525488 -0.0212799 0.00162208 -0.0118957 -0.144323 0.0898033 0.10039 0.0509487 -0.0773923 -0.108676 0.0546306 -0.0104001 0.0213055 -0.0214911 -0.159201 -0.148913 0.0333978 0.0242891 0.00475501 0.0594415 0.0210568 -0.0302585 -0.0760319 0.0325008 -0.0499873 -0.18546 0.0845301 0.0232334 -3.84308e-05
internal_weight=0 26700.4 8954.66 7549.48 6733.24 1405.18 17745.8 13640.3 1707.8 2265.01 1544 4105.51 721.007 4468.23 984.376 8342.88 5697.53 3483.85 2957.08 1900.8 1056.27 1783.19 440.647 1061.99 458.763 875.393 142.377 526.776 1556.98 275.774
internal_count=224867 190978 51808 45537 38942 6271 139170 110216 12348 10937 6768 28954 4169 28005 5818 33889 23229 22187 18784 11799 6985 11294 2659 4819 3003 3758 798 3403 10620 1689
is_linear=0
shrinkage=0.1


Tree=6
num_leaves=31
num_cat=0
split_feature=0 2 4 21 0 2 0 20 21 21 20 3 0 21 4 0 0 3 4 0 0 3 2 2 20 20 0 0 0 3
split_gain=23745.8 6477.46 2094.36 956.57 954.195 1080.33 666.207 524.918 2032.53 343.708 280.654 231.523 202.536 185.875 185.573 344.813 558.289 175.759 160.313 137.175 146.304 474.096 132.394 131.265 126.666 125.276 118.953 116.898 323.976 339.82
threshold=-0.49999999999999994 -0.20833333333333329 -0.2835510804804931 -0.49999999999999994 -0.47297297297297297 -0.45833333333333331 -0.22972972972972971 1.0000000180025095e-35 -0.49999999999999994 -0.49999999999999994 1.0000000180025095e-35 0.13934426229508198 -0.39189189189189183 -0.64285714285714268 2.0489157346538041 -0.52702702702702686 -0.58108108108108103 -0.28688524590163927 -0.14561950860990566 -0.3108108108108108 -0.28378378378378372 -0.30327868852459011 0.20833333333333334 -0.62499999999999989 1.0000000180025095e-35 1.0000000180025095e-35 -0.33783783783783777 -0.20270270270270269 -0.17567567567567566 -0.040983606557377046
decision_type=2 2 2 2 2 2 2 2 2 2 2 2 2 2 2 2 2 2 2 2 2 2 2 2 2 2 2 2 2 2
left_child=14 2 3 -2 -4 9 11 22 -9 13 23 -3 17 -6 15 16 -1 -7 -18 26 21 -21 -8 -11 -5 -15 -14 -22 29 -29
right_child=1 6 4 24 5 12 7 8 -10 10 -12 -13 19 25 -16 -17 18 -19 -20 20 27 -23 -24 -25 -26 -27 -28 28 -30 -31
leaf_value=-0.13557473360012051 0.01558322542550954 0.044630268911765705 0.11091890628349466 -0.013422469809265989 -0.073501585300484104 -0.00077567572636089914 0.085390350728572442 0.094608300795350514 -0.18318194148904249 -0.19265983065370298 -0.16695143595399636 -0.067760752778135341 0.019555851384343997 -0.078791180552702955 -0.16184470636707235 -0.16638836493803433 -0.14102225529640428 -0.11643712246617 -0.0090767588052209341 0.02747490236307043 0.084815648984946299 -0.18147232222795731 0.10779290673244719 -0.057803262780526103 -0.1712117109225105 0.059475384191839113 0.12033145595612316 -0.046445718303006367 0.04233280184823672 -0.46919386356769144
leaf_weight=2025.0503181368113 386.94293464720249 1855.75139939785 746.04706322401762 53.147581219673157 266.85786145925522 832.97532753646374 3716.4664530679584 1407.6967454627156 324.01903206110001 77.789482593536377 385.43301755189896 203.37296904623508 191.40320432186127 81.018304526805878 3777.5438990741968 1741.5027855783701 110.00465169548988 155.9869832098484 565.20427051186562 498.19146594405174 406.11827526986599 138.85774154961109 9090.6268605589867 1000.5182281583548 1189.7910945117474 342.7627365142107 301.83704326301813 213.77051912248135 1496.4779489338398 20.870947390794754
leaf_count=8291 2415 13185 6558 226 1156 4945 30835 11784 1330 313 1601 1363 1268 353 15500 7182 449 842 2467 3203 2706 697 80673 4492 4942 2510 2099 1410 9939 133
internal_value=0 0.0500112 -0.0194157 -0.12172 0.00388263 -0.00857342 0.0867652 0.0943049 0.0426313 -0.0662747 -0.0937111 0.0335298 0.0206315 -0.00812589 -0.145551 -0.131694 -0.109319 -0.0190187 -0.0305732 0.0326322 0.0239928 -0.0180694 0.101292 -0.0675319 -0.164465 0.0330416 0.0812252 0.0365304 0.0252027 -0.0840484
internal_weight=0 25384.7 8786.8 1629.88 7156.92 6410.87 16597.9 14538.8 1731.72 2154.38 1463.74 2059.12 4256.49 690.639 8219.31 4441.76 2700.26 988.962 675.209 3267.53 2774.29 637.049 12807.1 1078.31 1242.94 423.781 493.24 2137.24 1731.12 234.641
internal_count=224867 190978 51808 7583 44225 37667 139170 124622 13114 10425 6406 14548 27242 4019 33889 18389 11207 5787 2916 21455 18088 3900 111508 4805 5168 2863 3367 14188 11482 1543
is_linear=0
shrinkage=0.1


Tree=7
num_leaves=31
num_cat=0
split_feature=0 2 4 21 0 2 0 20 21 0 20 2 2 3 0 21 20 21 4 20 0 0 3 21 4 4 4 20 21 3
split_gain=19955.5 5719.48 1771.37 1093.1 815.952 793.031 670.409 400.233 1516.24 291.051 226.433 188.129 178.21 482.209 236.517 168.085 232.763 170.091 165.911 147.879 128.668 254.372 155.217 117.942 132.979 108.613 113.397 107.17 272.598 121.423
threshold=-0.49999999999999994 -0.20833333333333329 -0.21994493298044901 -0.49999999999999994 -0.47297297297297297 -0.54166666666666663 -0.094594594594594586 1.0000000180025095e-35 -0.49999999999999994 -0.44594594594594589 -1.0000000180025095e-35 -0.37499999999999994 -0.54166666666666663 -0.56557377049180313 -0.63513513513513498 -0.49999999999999994 1.0000000180025095e-35 -0.64285714285714268 3.9471740800819601 1.0000000180025095e-35 -0.3108108108108108 -0.33783783783783777 -0.25409836065573765 -0.49999999999999994 1.85951079996585 -0.24572504909075379 3.1685093485870399 1.0000000180025095e-35 -0.49999999999999994 0.10655737704918035
decision_type=2 2 2 2 2 2 2 2 2 2 2 2 2 2 2 2 2 2 2 2 2 2 2 2 2 2 2 2 2 2
left_child=12 2 3 -2 -4 23 10 -8 -9 -7 -3 15 -1 14 -14 17 20 -11 -13 -5 21 22 -17 24 -6 -16 -27 29 -29 -12
right_child=1 6 4 19 5 9 7 8 -10 11 27 18 13 -15 25 16 -18 -19 -20 -21 -22 -23 -24 -25 -26 26 -28 28 -30 -31
leaf_value=-0.14826507235849515 0.02255422710631319 0.06680750721423126 0.10940476070619826 -0.011692697992467414 0.018233496300527983 -0.10818736906948681 0.10279269272037035 0.095120477062018385 -0.16391331435654558 -0.022264118744325642 0.043723586515071251 0.033526687608331281 -0.14535104396787799 -0.13723916274126649 -0.16898739971649548 -0.0038569539169688903 -0.15994389197180015 0.068781511722281474 -0.25814016311140814 -0.16124156811003554 -0.046600903722044812 0.12432844005976405 -0.21422456107732091 -0.11675562183776811 -0.13958727520925907 0.008803738396253263 -0.14624441961591192 0.027190470134610036 -0.22278172822956668 -0.031306837201906933
leaf_weight=4333.6050224155188 483.39727438241243 2321.2051688954234 680.80380225926638 69.82914050668478 159.89866435527802 204.80651319026947 10213.704006537795 1232.2499440982938 276.71823668479919 365.8133724629879 996.35209003835917 2683.1692971661687 192.64092120528221 2893.0107330828905 44.05712653696537 513.60939994454384 121.34757228195667 467.32898501306772 19.645811468362808 1245.2553070783615 682.11730717122555 161.95427702367306 37.64451277256012 634.44784238934517 80.151768684387207 499.82436323165894 52.086047440767288 140.00635574758053 63.371913015842438 275.28092239797115
leaf_count=18329 3118 18334 6518 314 1089 978 97868 11181 1167 1884 7375 18060 807 12244 181 2667 519 3352 89 5363 3629 1036 170 2672 350 2117 211 1013 267 1965
internal_value=0 0.0475967 -0.017761 -0.106034 0.00554216 -0.00598929 0.0838628 0.0956905 0.0476182 0.00867763 0.0473389 0.0134147 -0.134521 -0.118344 -0.0490264 -0.00728007 -0.0271027 0.0288055 0.0314067 -0.153301 -0.0155499 0.0141476 -0.0182227 -0.094166 -0.0344622 -0.0178904 -0.00582879 0.0167013 -0.0506999 0.0274811
internal_weight=0 24130.1 8611.22 1798.48 6812.74 6131.94 15518.9 11722.7 1508.97 5257.44 3796.22 5052.63 8015.22 3681.62 788.608 2349.82 1516.67 833.142 2702.82 1315.08 1395.33 713.208 551.254 874.498 240.05 595.968 551.91 1475.01 203.378 1271.63
internal_count=224867 190978 51808 8795 43013 36495 139170 110216 12348 32384 28954 31406 33889 15560 3316 13257 8021 5236 18149 5677 7502 3873 2837 4111 1439 2509 2328 10620 1280 9340
is_linear=0
shrinkage=0.1


Tree=8
num_leaves=31
num_cat=0
split_feature=0 2 4 2 0 21 0 20 21 0 21 20 0 3 3 0 0 4 4 0 0 3 0 4 2 2 3 0 0 0
split_gain=16853.4 5099.42 1700.23 793.492 690.77 619.176 504.341 295.285 1035.1 278.889 244.405 285.739 223.92 200.775 193.54 188.997 828.785 137.001 133.945 128.774 204.364 417.874 127.914 121.263 119.334 106.488 103.375 131.105 105.425 135.684
threshold=-0.49999999999999994 -0.12499999999999999 -0.35559848032101071 -0.45833333333333331 -0.47297297297297297 -0.49999999999999994 -0.12162162162162161 1.0000000180025095e-35 -0.49999999999999994 -0.47297297297297297 -0.49999999999999994 1.0000000180025095e-35 -0.39189189189189183 -0.040983606557377046 0.20491803278688528 -0.52702702702702686 -0.58108108108108103 1.3365427302996671 2.1120507128831219 -0.3108108108108108 -0.28378378378378372 -0.25409836065573765 -0.33783783783783777 1.2965572440877657 -0.37499999999999994 -0.62499999999999989 -0.33606557377049173 0.31081081081081091 -0.44594594594594589 -0.3108108108108108
decision_type=2 2 2 2 2 2 2 2 2 2 2 2 2 2 2 2 2 2 2 2 2 2 2 2 2 2 2 2 2 2
left_child=15 2 5 4 -4 -2 14 17 -9 -5 18 25 13 -11 23 16 -1 -8 -6 22 21 -21 -14 -3 -22 -12 28 -28 -27 -30
right_child=1 6 3 9 10 -7 7 8 -10 12 11 -13 19 -15 -16 -17 -18 -19 -20 20 24 -23 -24 -25 -26 26 27 -29 29 -31
leaf_value=-0.13225584899558671 0.010369904187664999 0.056488330223974662 0.10565155620645367 0.10904200855133697 0.0096213052909090418 -0.14647236553337634 0.10156186052041244 0.091083572617419908 -0.15065551853393139 -0.0087961476708634176 -0.16819952424188897 -0.1491051000645236 0.020530641817763137 -0.2456180667374544 -0.036859780022175159 -0.14848296499397498 -0.026772636801394772 -0.089941597163135531 -0.11215443981546241 0.023603095837318181 -0.0033165135763826674 -0.14566465278111479 0.11694535094459924 -0.16536335318866813 0.047804710226910359 -0.12840844729555945 -0.13023840093727218 0.084311860437437075 0.015837508722470185 -0.080214722777195824
leaf_weight=4478.6964406520128 326.90825991332531 1942.9530918598175 292.0787902250886 396.58121152222157 593.41540879011154 1094.1185010969639 9622.4636550843716 1010.3784923106432 214.78178563714027 1154.8823493421078 75.010148659348488 432.45018272101879 234.04314335435629 36.943823620676994 268.31837729364634 2396.5618994832039 893.45227982103825 37.502435006201267 106.54127281904221 564.95607807487249 564.80603551864624 196.60044928640127 333.94193098694086 24.954353652894497 2384.0989743992686 90.625110685825348 212.17866207659245 32.897195532917976 478.34082522988319 212.35599169135094
leaf_count=19471 2174 15492 3111 3889 3722 4931 99266 9938 937 7023 313 1949 1628 194 1917 10660 3758 377 447 3774 3501 1081 2600 189 18019 367 892 139 2214 894
internal_value=0 0.0452874 -0.00923575 0.0078914 -0.0389699 -0.110391 0.0860666 0.0949528 0.0487045 0.0280669 -0.0578796 -0.0802243 0.0221964 -0.0161371 0.0428121 -0.12513 -0.114713 0.100818 -0.00891433 0.0328748 0.026087 -0.0200944 0.0772168 0.0536751 0.0380134 -0.0531794 -0.0447736 -0.101439 -0.0269996 -0.0136939
internal_weight=0 22935.1 9813.77 8392.75 2525.89 1421.03 13121.4 10885.1 1225.16 5866.85 2233.81 1533.86 5470.27 1191.83 2236.23 7768.71 5372.15 9659.97 699.957 4278.45 3710.46 761.557 567.985 1967.91 2948.91 1101.41 1026.4 245.076 781.322 690.697
internal_count=224867 190978 62862 55757 14048 7105 128116 110518 10875 41709 10937 6768 37820 7217 17598 33889 23229 99643 4169 30603 26375 4855 4228 15681 21520 4819 4506 1031 3475 3108
is_linear=0
shrinkage=0.1


Tree=9
num_leaves=31
num_cat=0
split_feature=0 2 4 0 2 21 0 20 21 21 20 0 0 0 20 3 1 21 21 20 21 2 3 0 2 0 4 4 4 0
split_gain=14307.4 4539.91 1442.92 665.57 837.395 544.915 503.061 241.299 865.067 203.816 265.924 187.201 740.611 187.009 170.336 166.637 126.524 121.885 119.074 720.497 149.223 111.48 356.459 219.297 108.578 121.628 100.693 99.0435 95.5662 94.4585
threshold=-0.49999999999999994 -0.12499999999999999 -0.35559848032101071 -0.47297297297297297 -0.45833333333333331 -0.49999999999999994 -0.094594594594594586 1.0000000180025095e-35 -0.49999999999999994 -0.49999999999999994 1.0000000180025095e-35 -0.52702702702702686 -0.58108108108108103 -0.39189189189189183 -1.0000000180025095e-35 -0.17213114754098358 -1.0000000180025095e-35 -0.64285714285714268 -0.49999999999999994 1.0000000180025095e-35 -0.64285714285714268 -0.54166666666666663 -0.59836065573770481 -0.63513513513513498 -0.29166666666666657 -0.3108108108108108 -0.35841198202463448 1.4928018014172288 2.8712488260906688 -0.39189189189189183
decision_type=2 2 2 2 2 2 2 2 2 2 2 2 2 2 2 2 2 2 2 2 2 2 2 2 2 2 2 2 2 2
left_child=11 2 5 -4 9 -2 14 27 -9 17 28 12 21 15 29 -6 -15 -5 20 24 -18 -1 23 -23 25 -20 -14 -8 -11 -3
right_child=1 6 3 4 13 -7 7 8 -10 10 -12 -13 26 16 -16 -17 18 -19 19 -21 -22 22 -24 -25 -26 -27 -28 -29 -30 -31
leaf_value=-0.13729619273921742 0.0093963978263816098 0.014721318189586722 0.10585015891475386 -0.059741446921555197 -0.0036084263792526281 -0.13896996641668552 0.10068883781715449 0.091064252794546996 -0.14097417842416685 -0.028934240978839038 -0.14216891472062848 -0.14113138867586844 -0.14569125336339217 0.10110354663018853 0.01393299560891721 -0.1432835521113521 0.013267148919648617 0.025718629555079271 0.071474762045348361 -0.21319417843758251 0.083220573387114832 -0.12083003267467418 -0.12763516787450424 0.040928432785079683 0.044934049661197392 -0.011532889728667062 -0.014786491211620945 -0.092011265005862139 -0.093758307684481651 0.076463808770570893
leaf_weight=2551.4611343890429 324.81520544737577 302.36022025346756 632.92426704615355 275.78523723781109 1108.6438258290291 1040.6249805539846 8369.6679877787828 920.56608607620001 194.63895104825497 781.89569517970085 409.37934301793575 2275.4858278334141 63.222169011831284 238.65090677142143 1049.0732191875577 92.544893115758896 552.50976503640413 422.64085330069065 216.23030626028776 132.31297720968723 680.55353242903948 130.16576611995697 1392.9145074039698 235.34075373411179 1397.074136570096 961.2054447978735 832.76627930998802 26.757667228579521 320.7001268863678 1372.7490867748857
leaf_count=11708 2174 2394 7000 1166 6747 4931 94556 9769 894 3472 1949 10660 261 1852 8044 470 4009 3003 1653 571 5398 589 6218 956 11099 6021 3497 255 1347 12204
internal_value=0 0.0430437 -0.00847848 0.00732911 -0.000886342 -0.103676 0.0834187 0.09427 0.0505661 -0.0527049 -0.0733431 -0.117205 -0.106747 0.0204047 0.0455305 -0.0143696 0.0304011 -0.00802671 0.0261184 0.0143849 0.0518759 -0.123945 -0.104571 -0.0166777 0.026081 0.00371106 -0.0240233 0.100075 -0.0477889 0.0653192
internal_weight=0 21824.3 9588.49 8223.05 7590.13 1365.44 12235.8 9511.63 1115.21 2210.4 1511.98 7481.36 5205.87 5379.73 2724.18 1201.19 4178.54 698.426 3939.89 2706.82 1233.06 4309.88 1758.42 365.507 2574.51 1177.44 895.988 8396.43 1102.6 1675.11
internal_count=224867 190978 62862 55757 48757 7105 128116 105474 10663 10937 6768 33889 23229 37820 22642 7217 30603 4169 28751 19344 9407 19471 7763 1545 18773 7674 3758 94811 4819 14598
is_linear=0
shrinkage=0.1


Tree=10
num_leaves=31
num_cat=0
split_feature=0 2 4 0 2 0 21 20 21 0 0 21 20 0 1 0 0 20 3 0 3 0 3 21 4 3 2 4 0 0
split_gain=12212.3 4036.95 1229.64 594.309 689.739 503.215 484.32 221.429 752.958 183.305 671.555 169.128 250.661 163.608 156.822 154.423 165.846 132.674 129.328 125.948 208.372 130.984 122.413 116.022 110.185 118.482 196.036 108.213 105.794 157.772
threshold=-0.49999999999999994 -0.12499999999999999 -0.35559848032101071 -0.47297297297297297 -0.45833333333333331 -0.094594594594594586 -0.49999999999999994 1.0000000180025095e-35 -0.49999999999999994 -0.52702702702702686 -0.58108108108108103 -0.49999999999999994 1.0000000180025095e-35 -0.44594594594594589 -1.0000000180025095e-35 -0.39189189189189183 -0.47297297297297297 1.0000000180025095e-35 -0.17213114754098358 -0.094594594594594586 0.12295081967213116 -0.41891891891891891 0.10655737704918035 -0.49999999999999994 2.0489157346538041 -0.56557377049180313 -0.45833333333333331 0.38110005976265698 -0.39189189189189183 -0.3108108108108108
decision_type=2 2 2 2 2 2 2 2 2 2 2 2 2 2 2 2 2 2 2 2 2 2 2 2 2 2 2 2 2 2
left_child=9 2 6 -4 11 15 -2 -7 -9 10 24 -5 -13 -6 -15 16 -3 22 -18 20 21 -16 -17 -19 25 26 -1 -24 -23 -30
right_child=1 5 3 4 13 7 -8 8 -10 -11 -12 12 -14 14 19 17 18 23 -20 -21 -22 28 27 -25 -26 -27 -28 -29 29 -31
leaf_value=-0.093241906776563188 0.0085091140230117487 0.11469692613499705 0.10420120670496624 -0.0072320978728025497 -0.08151944562563096 0.098125132007484434 -0.13262413315414387 0.088474616418485627 -0.13428493269932881 -0.13501799654881028 -0.02163575983877284 -0.042789506990421666 -0.13643814904297222 0.093626668355673182 0.11007433375230893 0.073601954880232967 0.014831442914873883 0.019146855321996149 -0.10058982934518496 0.042534927385652919 -0.157856137761055 -0.023381672391940847 0.027114987747851267 -0.20296692011981868 -0.13157293151092439 -0.11993620647829413 0.036853880176033103 -0.19344973493077142 0.068833094441044004 0.0046766298110579169
leaf_weight=588.98973587155342 322.92121436446905 88.835111357271671 581.29553386569023 695.13656333088875 157.72871015965939 7741.0783821344376 984.28668101131916 856.10575740039349 184.42806915938854 2147.2710243612528 895.82604509592056 1108.0649140179157 385.16298764944077 287.57453832775354 127.97296951711178 1539.8999129161239 217.88133265078068 69.995474137365818 175.09026579558849 1428.7154206335545 74.840964108705521 848.01634262502193 484.69966384768486 35.417023971676826 2319.8602405637503 1060.7303014546633 144.18041983246803 23.313514120876789 481.99375585466623 1872.1256418377161
leaf_count=2705 2174 727 7000 4169 800 94811 4931 9769 894 10660 3758 4819 1949 2265 801 14003 1706 553 1268 11203 477 5160 4056 148 11180 4970 616 181 3932 13182
internal_value=0 0.0408955 -0.00780248 0.00680783 -0.000773773 0.0808027 -0.0977598 0.0923033 0.0489919 -0.110573 -0.100096 -0.0479773 -0.0669452 0.0187942 0.0218837 0.0424769 -0.00869994 0.0539277 -0.036595 0.0176154 0.00715921 0.0108678 0.0595593 -0.0554801 -0.117181 -0.0985701 -0.0676581 0.0169929 0.00690299 0.0178123
internal_weight=0 20772.6 9355.84 8048.63 7467.33 11416.7 1307.21 8781.61 1040.53 7156.86 5009.59 2188.36 1493.23 5278.97 5121.24 2635.13 481.807 2153.33 392.972 4833.67 3404.95 3330.11 2047.91 105.412 4113.76 1793.9 733.17 508.013 3202.14 2354.12
internal_count=224867 190978 62862 55757 48757 128116 7105 105474 10663 33889 23229 10937 6768 37820 37020 22642 3701 18941 2974 34755 23552 23075 18240 701 19471 8291 3321 4237 22274 17114
is_linear=0
shrinkage=0.1


Tree=11
num_leaves=31
num_cat=0
split_feature=0 2 4 21 0 0 2 20 21 0 0 0 1 0 0 0 0 3 2 0 0 0 3 3 20 0 3 4 2 3
split_gain=10438.3 3594.86 1057.02 847.122 499.681 497.242 489.134 229.609 680.821 206.49 182.657 613.342 178.136 160.652 189.434 219.799 272.961 236.075 228.417 197.625 180.081 401.417 247.142 158.473 155.278 144.049 134.403 124.029 110.719 309.316
threshold=-0.49999999999999994 -0.12499999999999999 -0.22438078015214516 -0.49999999999999994 -0.47297297297297297 -0.12162162162162161 -0.54166666666666663 1.0000000180025095e-35 -0.49999999999999994 -0.44594594594594589 -0.52702702702702686 -0.58108108108108103 -1.0000000180025095e-35 -0.41891891891891891 -0.39189189189189183 -0.3108108108108108 -0.28378378378378372 -0.30327868852459011 -0.45833333333333331 -0.33783783783783777 -0.20270270270270269 -0.17567567567567566 -0.22131147540983603 0.10655737704918035 1.0000000180025095e-35 -0.22972972972972971 -0.48360655737704911 1.3365427302996671 -0.54166666666666663 -0.59836065573770481
decision_type=2 2 2 2 2 2 2 2 2 2 2 2 2 2 2 2 2 2 2 2 2 2 2 2 2 2 2 2 2 2
left_child=10 2 3 -2 -4 23 -6 27 -9 -8 11 28 -11 -14 -15 19 17 18 26 -16 25 22 -22 -3 -5 -18 -17 -7 -1 -30
right_child=1 5 4 24 6 7 9 8 -10 12 -12 -13 13 14 15 16 20 -19 -20 -21 21 -23 -24 -25 -26 -27 -28 -29 29 -31
leaf_value=-0.12526450889070101 0.025152419695554446 0.047531603247630852 0.10320699564772183 0.006304495511839675 -0.06986678368051677 0.095587434415881897 -0.079746504467575821 0.08285192537957807 -0.13017691325361813 0.090250714890580966 -0.12985232532894705 -0.019434478397392305 0.1110319000741022 -0.026354032705150545 0.0040401420884056917 -0.017761640815369115 0.0068131896421785567 -0.13249827974875006 0.021594797164602306 0.1209179169265937 -0.034893884453072496 0.030491823105660367 -0.22270024188958973 -0.022931229916022033 -0.13683026967311657 0.1178157168977446 -0.21957472738753236 -0.084511536386001007 -0.0083529641827061966 -0.11410257882874991
leaf_weight=2288.9825392067432 538.21425086259842 1638.5541453659534 523.73729119449854 81.544656954705715 835.14510087668896 7580.4028523117304 237.19798032939434 816.87447961419821 183.77312043309212 301.78662968426943 2016.1811611354351 897.47078520059586 157.17337515950203 1212.0260460972786 240.44801742583513 61.3394735455513 182.22442822158337 210.84722810983658 488.22835704684258 363.18808907270432 263.63236735761166 1898.0124559178948 95.433493368327618 396.39419063180685 1074.2564882487059 326.16173391789198 71.425964638590813 38.432224035263062 353.28628605604172 1274.1785811036825
leaf_count=11708 3861 14598 6922 419 4112 99266 1120 9938 937 2386 10660 3758 1003 6930 1715 341 1258 1100 3402 2972 1801 14517 567 3000 5705 2432 299 377 1545 6218
internal_value=0 0.0387708 -0.00715929 -0.0784759 0.00901789 0.0782673 0.00191415 0.088764 0.0437283 0.0117269 -0.104583 -0.094 0.015422 0.0113678 0.00847395 0.0185223 0.0091523 -0.0410734 -0.0100317 0.0743617 0.02426 0.0121492 -0.0848096 0.0338059 -0.126732 0.0780283 -0.126334 0.0946789 -0.111087 -0.0911467
internal_weight=0 19816.5 9162.02 1694.02 7468.01 10654.4 6944.27 8619.48 1000.65 6109.13 6830.1 4813.92 5871.93 5570.14 5412.97 4200.94 3597.31 831.841 620.994 603.636 2765.46 2257.08 359.066 2034.95 1155.8 508.386 132.765 7618.84 3916.45 1627.46
internal_count=224867 190978 62862 9985 52877 128116 45955 110518 10875 41843 33889 23229 40723 38337 37334 30404 25717 5142 4042 4687 20575 16885 2368 17598 6124 3690 640 99643 19471 7763
is_linear=0
shrinkage=0.1


Tree=12
num_leaves=31
num_cat=0
split_feature=0 2 4 2 0 0 21 20 21 2 3 4 21 4 4 3 2 0 4 4 2 20 3 0 0 3 0 0 3 3
split_gain=8940.13 3204.71 1025.26 559.919 487.628 400.222 239.305 435.267 201.389 186.412 454.597 162.855 160.911 157.712 148.611 142.078 330.701 507.301 260.031 141.97 159.001 137.33 135.209 121.812 158.569 276.798 141.38 120.31 287.683 116.46
threshold=-0.49999999999999994 -1.0000000180025095e-35 -0.41887272688465793 -0.37499999999999994 -0.47297297297297297 -0.094594594594594586 -0.49999999999999994 1.0000000180025095e-35 -0.49999999999999994 -0.45833333333333331 -0.49999999999999994 1.2102727738410313 -0.64285714285714268 1.1248902318547158 3.9471740800819601 -0.63114754098360648 -0.62499999999999989 -0.63513513513513498 0.11325868337175223 -0.60867225518654455 0.62500000000000011 1.0000000180025095e-35 -0.66393442622950805 -0.47297297297297297 -0.22972972972972971 -0.17213114754098358 -0.20270270270270269 0.31081081081081091 0.41803278688524598 0.22131147540983609
decision_type=2 2 2 2 2 2 2 2 2 2 2 2 2 2 2 2 2 2 2 2 2 2 2 2 2 2 2 2 2 2
left_child=9 2 8 4 -4 13 12 -8 -2 15 -11 19 -6 29 23 16 -1 -18 -19 20 -7 -14 -20 -5 25 -25 -26 28 -13 -3
right_child=1 5 3 14 6 11 7 -9 -10 10 -12 27 21 -15 -16 -17 17 18 22 -21 -22 -23 -24 24 26 -27 -28 -29 -30 -31
leaf_value=-0.1335173628952874 -0.01696417163458841 0.054185600862249807 0.1002937505404234 0.10562934117899828 -0.038449165427819801 -0.11338986492064887 -0.026695565094493681 -0.13120363611341773 -0.12427705431220604 0.0085320595071425049 -0.10262533956699289 -0.010873877002675551 -0.055179303008017468 -0.20245540286870045 -0.22235174474731814 -0.12367101220649364 -0.12734280625814404 -0.099071926455688672 0.18555017776133564 0.094502972175058778 0.075915825442147131 0.057785548566487016 0.033413199934159032 0.023641765929036981 0.11035562914678987 -0.074935325973921538 0.036336981418796967 0.039505948572472395 -0.86625539467737223 -0.011466265642443201
leaf_weight=835.35684472322464 227.69950369000435 1534.0324964001775 310.54730553925037 212.58923157304525 475.02009703963995 69.579532034695148 1939.6437126174569 501.58154737949371 753.82986255735159 505.23190677165985 1353.7052218466997 11.321226485073568 132.25146112591028 26.633384928107262 23.15769000351429 2864.8057790845633 429.57144603133202 135.38096791505814 72.163926348090172 6852.3734035715461 122.45013435184956 577.73007379472256 306.64826379716396 1744.0388547033072 288.88305389136076 340.45079877972603 2417.8762847706676 23.425060197710991 6.0239060670137397 327.96423947066069
leaf_count=4495 1678 14605 4645 2645 2348 497 9820 2792 4350 2291 7035 117 739 201 103 15442 2304 602 382 97740 1552 4569 1338 12675 2618 2318 22061 254 60 2591
internal_value=0 0.0367421 -0.00235306 0.00827159 -0.0199708 0.0800697 -0.0302701 -0.0481681 -0.0993821 -0.0991749 -0.0724144 0.0909731 0.00660149 0.0391659 0.0303889 -0.109887 -0.0876915 -0.0471295 0.0198829 0.0921265 0.00732329 0.0367431 0.0623954 0.0315586 0.0282721 0.00754159 0.0442367 -0.108312 -0.307945 0.042622
internal_weight=0 18919.1 9945.3 8963.77 3936.77 8973.8 3626.23 2441.23 981.529 6502.86 1858.94 7085.17 1185 1888.63 5027 4643.93 1779.12 943.765 514.193 7044.4 192.03 709.982 378.812 5003.84 4791.25 2084.49 2706.76 40.7702 17.3451 1862
internal_count=224867 190978 73361 67333 24913 117617 20268 12612 6028 33889 9326 100220 7656 17397 42420 24563 9121 4626 2322 99789 2049 5308 1720 42317 39672 14993 24679 431 177 17196
is_linear=0
shrinkage=0.1


Tree=13
num_leaves=31
num_cat=0
split_feature=2 0 0 4 2 4 0 0 21 2 3 8 3 20 21 4 0 0 1 21 2 3 0 3 0 3 4 0 0 0
split_gain=7697.22 1733.31 1331.91 646.902 540.81 500.021 407.223 317.723 273.046 230.913 210.234 189.599 167.909 166.314 137.616 129.59 124.416 346.227 123.295 119.721 93.937 289.184 204.497 86.1302 191.042 99.8366 85.563 84.8482 318.18 222.095
threshold=-0.29166666666666657 -0.49999999999999994 -0.22972972972972971 -0.21554452974669827 0.20833333333333334 -0.4757021788792043 -0.47297297297297297 -0.49999999999999994 -0.49999999999999994 -0.54166666666666663 -0.38524590163934419 -0.47014925373134325 -0.12295081967213113 1.0000000180025095e-35 -0.49999999999999994 1.3712669683257919 -0.52702702702702686 -0.58108108108108103 -1.0000000180025095e-35 -0.49999999999999994 -0.54166666666666663 -0.61475409836065564 -0.63513513513513498 -0.41803278688524587 -0.094594594594594586 -0.10655737704918032 0.063753948604115096 -0.39189189189189183 -0.3108108108108108 -0.28378378378378372
decision_type=2 2 2 2 2 2 2 2 2 2 2 2 2 2 2 2 2 2 2 2 2 2 2 2 2 2 2 2 2 2
left_child=1 16 7 8 5 14 -5 10 -3 -8 15 -7 13 -9 -4 -2 17 20 -11 -15 -1 22 -22 -20 25 27 -14 -25 -29 -30
right_child=2 3 4 6 -6 11 9 12 -10 18 -12 -13 26 19 -16 -17 -18 -19 23 -21 21 -23 -24 24 -26 -27 -28 28 29 -31
leaf_value=-0.11624468100020269 0.050024079806665435 -0.010625867357366999 0.02000428531099091 0.099579014569866939 0.092976259626785879 -0.003941635774371061 -0.060589558355807038 0.04015991991175244 -0.11927764166007591 0.082381105633558049 -0.098791909310309456 0.063422730978076061 0.0012861696563580619 -0.0045700446066034009 -0.12989669876133381 -0.13410507192163482 -0.12283389917219961 -0.026183573197372176 0.011392246768727108 -0.20010355558386472 -0.11083551479519589 -0.109962274886771 0.059219097556717497 -0.079926176559433113 0.025385281450303609 -0.11889664181483083 -0.07322887313821716 0.088052320099494083 -0.14740373911130855 -0.015076553129829426
leaf_weight=2025.8361659049988 200.29447101056576 323.2800110951066 89.327386669814587 348.9339923709631 5700.7773072198033 478.95244238525629 818.51314157247543 1656.9457438290119 812.85169594734907 166.03910404443741 474.62531138956547 3272.6086574569345 391.57284268736839 87.078652836382389 194.79913728684187 47.237550675868988 1518.8471524268389 715.07468304038048 1581.1643484532833 48.89631162583828 107.16846561431885 898.87325686216354 207.8915521800518 279.07072009146214 617.70419777929783 150.43398205935955 254.09337192773819 216.91922464221716 176.86348258703947 448.40229336172342
leaf_count=11708 945 2215 932 5699 86414 4643 4110 14039 4925 1214 2585 38472 3035 674 1191 233 9189 2998 9524 241 555 4821 855 1452 4230 812 1750 1724 888 2794
internal_value=0 -0.05791 0.0548369 -0.0205022 0.0731467 0.0451356 -0.00445382 -0.0015652 -0.0883614 -0.0126019 -0.0598268 0.0548225 0.0156883 0.031435 -0.0827689 0.014886 -0.0985059 -0.0891628 -0.001801 -0.0748835 -0.103063 -0.0810663 0.00137459 -0.00582846 -0.0202398 -0.0424015 -0.0280382 -0.0321385 -0.0163034 -0.0525068
internal_weight=0 11413.9 12897.2 5940.18 9736.46 4035.69 4804.04 3160.74 1136.13 4455.11 722.157 3751.56 2438.59 1792.92 284.127 247.532 5473.69 3954.84 3636.6 135.975 3239.77 1213.93 315.06 3470.56 1889.39 1271.69 645.666 1121.26 842.185 625.266
internal_count=224867 69713 155154 39587 131652 45238 32447 23502 7140 26748 3763 43115 19739 14954 2123 1178 30126 20937 22638 915 17939 6231 1410 21424 11900 7670 4785 6858 5406 3682
is_linear=0
shrinkage=0.1


Tree=14
num_leaves=31
num_cat=0
split_feature=2 0 0 4 2 4 0 21 0 3 2 8 0 0 3 20 0 0 21 20 4 4 1 2 3 0 4 3 0 0
split_gain=6556.39 1555.59 1197.1 559.809 521.407 427.093 350.407 328.942 266.363 181.844 174.419 169.524 151.575 159.498 130.885 129.947 126.139 327.25 123.37 114.078 110.216 108.008 98.72 91.3703 254.868 172.339 89.8845 86.1855 112.193 176.618
threshold=-0.29166666666666657 -0.49999999999999994 -0.22972972972972971 -0.16095882474905773 0.20833333333333334 -0.4757021788792043 -0.47297297297297297 -0.49999999999999994 -0.49999999999999994 -0.38524590163934419 -0.54166666666666663 -0.42537313432835816 -0.47297297297297297 -0.44594594594594589 -0.36885245901639335 -1.0000000180025095e-35 -0.52702702702702686 -0.58108108108108103 -0.49999999999999994 1.0000000180025095e-35 1.85951079996585 1.3712669683257919 -1.0000000180025095e-35 -0.54166666666666663 -0.61475409836065564 -0.63513513513513498 0.38110005976265698 -0.48360655737704911 -0.3108108108108108 -0.33783783783783777
decision_type=2 2 2 2 2 2 2 2 2 2 2 2 2 2 2 2 2 2 2 2 2 2 2 2 2 2 2 2 2 2
left_child=1 16 8 7 5 18 -5 -3 9 21 27 -7 -10 14 -14 -15 17 23 -4 -9 -17 -2 -12 -1 25 -25 -6 28 29 -8
right_child=2 3 4 6 26 11 10 19 12 -11 22 -13 13 15 -16 20 -18 -19 -20 -21 -22 -23 -24 24 -26 -27 -28 -29 -30 -31
leaf_value=-0.11222195317656398 0.044760913388118162 -0.0028597067233994914 0.018294963732680636 0.098484650895858727 0.092813812075083768 0.0051992234167998865 -0.033567889306706442 0.012628595500945961 0.10697722060861725 -0.093306004780301002 0.077715453196045725 0.061819567432426982 -0.00064503644810097254 0.034090967472538224 -0.2223596883813003 -0.010575919668318711 -0.11949036026399505 -0.023555228494256314 -0.12600529035563413 -0.12549959479871217 -0.24348718365417621 -0.12613288325189212 -0.0044125764270284374 -0.1056641328421286 -0.10484422644181222 0.053329452497614595 0.00042337854597693323 -0.0970916236338632 -0.13349942043058513 0.15118717464361364
leaf_weight=1895.365059658885 201.39823260903358 385.41196250170469 87.979807965457439 317.56067280098796 5161.0775333270431 644.36309392005205 361.24757415056229 64.870279438793659 164.67751801013947 453.39749908447266 152.99597538262606 2948.3160861805081 53.081409953534603 1258.8566452041268 53.422540314495564 850.99698361009359 1410.7751267701387 715.35995362699032 181.42386031895876 763.681127846241 20.814127288758755 45.302086561918259 3374.410474203527 101.46954031288624 850.97950761020184 207.76945379376411 107.49374831467867 282.73100364208221 84.263365864753723 60.39192758500576
leaf_count=11708 945 2730 932 5663 84809 6487 1849 310 1964 2585 1168 36628 342 10618 364 6325 9189 2998 1191 5001 126 233 20778 555 4821 855 1605 1336 444 308
internal_value=0 -0.0540863 0.0522354 -0.0187335 0.070469 0.0425581 -0.00289636 -0.0791825 -0.00143553 -0.0557122 -0.0103557 0.0516645 0.0143852 0.00756953 -0.111857 0.0135392 -0.0939819 -0.0844388 -0.0788808 -0.114685 -0.0161366 0.0133793 -0.000850396 -0.0986925 -0.0765905 0.00115943 0.0909288 -0.0528709 -0.0281575 -0.0071052
internal_weight=0 11029.3 12232.6 5847.56 9130.65 3862.08 4633.6 1213.96 3101.95 700.098 4316.04 3592.68 2401.85 2237.17 106.504 2130.67 5181.72 3770.94 269.404 828.551 871.811 246.7 3527.41 3055.58 1160.22 309.239 5268.57 788.634 505.903 421.64
internal_count=224867 69713 155154 39587 131652 45238 31546 8041 23502 3763 25883 43115 19739 17775 706 17069 30126 20937 2123 5311 6451 1178 21946 17939 6231 1410 86414 3937 2601 2157
is_linear=0
shrinkage=0.1


Tree=15
num_leaves=31
num_cat=0
split_feature=0 2 4 0 0 2 0 0 21 20 20 21 21 4 4 1 3 3 2 20 4 4 3 0 3 2 0 3 0 0
split_gain=5619.55 2283.3 677.945 389.727 379.748 417.996 199.012 515.525 185.846 392.34 153.554 423.504 136.187 117.401 115.166 113.313 110.041 108.569 142.466 107.127 103.926 103.717 102.402 105.042 120.388 104.642 95.845 191.012 149.788 125.643
threshold=-0.49999999999999994 -1.0000000180025095e-35 -0.45086233940026871 -0.094594594594594586 -0.47297297297297297 -0.37499999999999994 -0.52702702702702686 -0.58108108108108103 -0.49999999999999994 1.0000000180025095e-35 1.0000000180025095e-35 -0.49999999999999994 -0.64285714285714268 0.93999493846885651 1.4928018014172288 -1.0000000180025095e-35 0.20491803278688528 -0.49999999999999994 -0.45833333333333331 1.0000000180025095e-35 3.9471740800819601 1.0662648949274922 -0.48360655737704911 0.31081081081081091 0.17213114754098363 -0.62499999999999989 -0.22972972972972971 -0.17213114754098358 -0.20270270270270269 -0.17567567567567566
decision_type=2 2 2 2 2 2 2 2 2 2 2 2 2 2 2 2 2 2 2 2 2 2 2 2 2 2 2 2 2 2
left_child=6 2 -2 13 -4 8 7 14 12 22 21 -12 -6 16 17 -7 -3 18 -1 -14 26 -5 25 24 -24 -10 27 -17 -28 -30
right_child=1 3 4 10 5 15 -8 -9 9 -11 11 -13 19 -15 -16 20 -18 -19 -20 -21 -22 -23 23 -25 -26 -27 28 -29 29 -31
leaf_value=-0.072754195059793636 -0.096274991399161569 0.047204268889968683 0.098924650080156482 0.092205403306247533 -0.033531290444958152 0.085874931001106256 -0.1158297952766872 -0.0066464024424017724 -0.14500370775991472 -0.12302910081518814 0.078792529497596964 -0.12417323106635912 -0.044822274238004084 -0.14023165226912224 -0.10631699170903755 0.01607209623465778 -0.017265962010251851 -0.10091797397016239 0.030985248130665506 0.054124323857926121 -0.19346131966823321 -0.065967273998183973 -0.039339147712870087 0.078709764500931145 -0.20528850334644774 0.018317060317715957 0.10741904953704091 -0.06676438659075358 -0.037906187398461487 0.032878558047400031
leaf_weight=383.80630023777485 707.24719555675983 1347.2714448273182 414.77327352389693 4969.9247634597123 480.39570125937462 253.1220119446516 1533.6819740235806 896.98502153158188 41.625239074230194 466.257956802845 531.58397490903735 127.4529824256897 135.01375275105238 39.339029498398304 2077.0469528287649 1600.650988124311 329.50082432478666 485.57321904599667 202.08052681386471 577.21246955543756 23.32670983672142 41.804657191038132 1100.4194713160396 71.853685274720192 45.523618519306183 681.93023937940598 234.96736177057028 336.96876783668995 289.90480370074511 1857.1300866678357
leaf_count=2260 5105 14325 7311 90525 2354 2613 10660 3758 196 3118 8505 707 739 294 13312 11895 2778 2949 950 4673 99 483 5789 380 205 3262 2429 2169 2305 18719
internal_value=0 0.0307595 -0.00215729 0.072283 0.00557281 0.000848747 -0.0851557 -0.0735268 -0.0246668 -0.0406576 0.0849188 0.0395404 0.00761459 0.030529 -0.0925805 0.0208358 0.0345353 -0.0659521 -0.036973 0.0353674 0.0170451 0.090886 -0.0208743 -0.0385774 -0.0459316 0.00892142 0.0181819 0.00166612 0.0316165 0.0233208
internal_weight=0 16705.2 9318.32 7386.88 8611.08 8196.3 5579.17 4045.49 3600.23 2407.61 5670.77 659.037 1192.62 1716.11 3148.51 4596.07 1676.77 1071.46 585.887 712.226 4342.95 5011.73 1941.35 1217.8 1145.94 723.555 4319.62 1937.62 2382 2147.03
internal_count=224867 190978 73361 117617 68256 60945 33889 23229 20716 12950 100220 9212 7766 17397 19471 40229 17103 6159 3210 5412 37616 91008 9832 6374 5994 3458 37517 14064 23453 21024
is_linear=0
shrinkage=0.1


Tree=16
num_leaves=31
num_cat=0
split_feature=2 0 0 4 2 0 0 4 21 20 3 0 0 8 0 0 0 1 21 20 21 20 21 20 4 4 3 0 2 20
split_gain=4817.89 1240.46 1004.68 438.623 365.989 279.848 278.062 260.891 220.882 197.626 173.253 168.474 174.666 144.838 128.753 277.764 116.679 112.06 105.314 234.213 158.359 146.899 98.1221 226.885 94.7324 93.4819 111.962 107.704 150.793 85.9526
threshold=-0.29166666666666657 -0.49999999999999994 -0.094594594594594586 -0.21554452974669827 0.20833333333333334 -0.39189189189189183 -0.47297297297297297 -0.54540574575258238 -0.49999999999999994 -1.0000000180025095e-35 -0.17213114754098358 -0.44594594594594589 -0.41891891891891891 -0.47014925373134325 -0.52702702702702686 -0.58108108108108103 -0.3108108108108108 -1.0000000180025095e-35 -0.49999999999999994 1.0000000180025095e-35 -0.64285714285714268 1.0000000180025095e-35 -0.49999999999999994 1.0000000180025095e-35 1.5953961410398703 2.0489157346538041 -0.56557377049180313 -0.63513513513513498 -0.54166666666666663 1.0000000180025095e-35
decision_type=2 2 2 2 2 2 2 2 2 2 2 2 2 2 2 2 2 2 2 2 2 2 2 2 2 2 2 2 2 2
left_child=1 14 5 8 7 10 -5 -4 -3 -7 24 -8 -13 22 15 25 -11 -14 20 -20 -19 -22 -9 -24 -2 26 27 -1 -29 -10
right_child=2 3 4 6 -6 9 11 13 29 16 -12 12 17 -15 -16 -17 -18 18 19 -21 21 -23 23 -25 -26 -27 -28 28 -30 -31
leaf_value=-0.11034069090122363 0.0049735779914241232 -0.0091551941287290727 -0.094498011948415492 0.095544345713560908 0.09048025815613317 0.053458872770937686 -0.08690342356387884 0.053482289716243039 0.017717548271538718 0.071773037243807208 -0.074605164329759485 0.11180936522530181 0.074468366423720678 0.060391356717613767 -0.11391635013443223 -0.020532993317091307 -0.011933348032600412 -0.02523574521963276 -0.013977947285240717 -0.12575501051258919 -0.031259732571580816 0.076705625254155918 0.028950886708330001 -0.18636905783380919 -0.119984841524715 -0.10628457602184049 -0.10069992270872963 -0.069807163806234931 0.048866748100156107 -0.12001521557477067
leaf_weight=151.83353151381016 1134.5222643464804 325.03234322369099 133.71114476025105 268.43496367707849 4161.3028599359095 1608.8410634845495 262.98233978450298 145.24687468260527 48.928099028766155 196.58798871934414 447.85820387676358 125.50530843436718 158.26516783982515 1871.9081663228571 1209.3596443384886 715.42405319213867 1088.857876598835 569.22317228466272 2434.4972002804279 203.09724836051464 173.07381963729858 463.57220440357924 127.4119319729507 79.454048782587051 64.096714325249195 1581.8782962709665 557.81131829321384 221.07438856363297 207.63071078062057 612.55171677470207
leaf_count=943 8496 2215 1120 5699 82046 17358 1169 1672 229 1661 3000 799 1260 27702 9189 2998 9696 3173 13859 1328 1083 4077 1609 398 396 11072 3609 1441 874 4696
internal_value=0 -0.0475789 0.0474908 -0.0160843 0.0726452 0.0113774 -0.00325725 0.041167 -0.0766583 0.0301017 -0.0215372 -0.00929836 -0.00435346 0.0493233 -0.0858547 -0.0759769 0.000868179 -0.00799665 -0.0113924 -0.0225849 0.013089 0.047355 -0.0095167 -0.0537502 -0.00170863 -0.0905588 -0.0687059 -0.0379643 -0.0123309 -0.109827
internal_weight=0 10290.2 11059.8 5645.16 6519.04 4540.76 4658.65 2357.73 986.512 2894.29 1646.48 4390.22 4127.23 2224.02 4645.01 3435.65 1285.45 4001.73 3843.46 2637.59 1205.87 636.646 352.113 206.866 1198.62 2720.23 1138.35 580.539 428.705 661.48
internal_count=224867 69713 155154 39587 114547 40607 32447 32501 7140 28715 11892 26748 25579 31381 30126 20937 11357 24780 23520 15187 8333 5160 3679 2007 8892 17939 6867 3258 2315 4925
is_linear=0
shrinkage=0.1


Tree=17
num_leaves=31
num_cat=0
split_feature=0 2 4 2 0 0 0 0 4 20 21 20 21 4 2 3 0 0 0 0 0 21 4 3 2 4 21 0 2 4
split_gain=4152.06 1812.79 587.81 366.277 260.598 242.551 202.127 442.43 154.262 141.095 243.336 582.22 141.318 143.206 126.092 133.747 151.457 252.531 324.24 176.382 341.199 111.648 108.206 97.1746 100.308 96.6275 96.5853 95.2588 91.7013 89.9685
threshold=-0.49999999999999994 0.12500000000000003 -0.4757021788792043 -0.37499999999999994 -0.47297297297297297 -0.094594594594594586 -0.52702702702702686 -0.58108108108108103 -0.085683184739788407 -1.0000000180025095e-35 -0.49999999999999994 1.0000000180025095e-35 -0.64285714285714268 1.4928018014172288 -0.62499999999999989 -0.48360655737704911 -0.39189189189189183 -0.3108108108108108 -0.28378378378378372 -0.20270270270270269 -0.17567567567567566 -0.49999999999999994 2.0489157346538041 -0.56557377049180313 -0.45833333333333331 -0.63869840929609023 -0.64285714285714268 -0.33783783783783777 -0.37499999999999994 1.2360528899513363
decision_type=2 2 2 2 2 2 2 2 2 2 2 2 2 2 2 2 2 2 2 2 2 2 2 2 2 2 2 2 2 2
left_child=6 2 21 4 -4 -3 7 22 -6 -5 12 -12 13 -11 -10 -16 -17 27 -19 -20 -21 26 23 24 -1 -7 -2 -18 -9 -27
right_child=1 5 3 9 8 25 -8 28 14 10 11 -13 -14 -15 15 16 17 18 19 20 -22 -23 -24 -25 -26 29 -28 -29 -30 -31
leaf_value=-0.056448625602672498 -0.23946565988542981 0.029660040948546348 0.093808027655439108 0.04047251551099984 -0.070024132626777619 -0.027917395836283512 -0.11087851421606432 -0.025215843692590861 -0.1421581503023388 0.022643171665175772 0.0063209665784036946 -0.17850353633610005 0.082474102818193007 -0.21593345537528263 0.01687296632970359 -0.081958119321332651 -0.020351924224613325 -0.15150591409181668 0.080681211300091704 -0.14548615500122089 0.010544702232472407 -0.11418915168316185 -0.1032572760683525 -0.087833302074970254 0.041568069188791586 0.089402086521603516 0.0049168406747879742 0.12636653128730999 0.044427906142861649 -0.11380960783054389
leaf_weight=438.51232078671455 18.046781186014414 923.27341974154115 207.20605140179396 2915.8366564102471 554.17676899582148 72.786692336201668 1322.2593267187476 625.80065397918224 73.225413426756859 530.5504495203495 1765.3388849273324 188.65265940129757 559.83521676808596 26.412179388105869 1167.7037236914039 387.94782815873623 60.912500739097595 184.53356692939997 186.0446065440774 186.21748425066471 566.49140021950006 473.53246258199215 1494.8362267464399 743.98745509982109 137.03637827932835 4084.8631569445133 155.69652386382222 161.79371107369661 270.91202999651432 21.903597336262465
leaf_count=2705 106 9749 4665 31565 4220 917 10660 2624 372 5659 17852 924 5996 170 6739 1803 335 843 1104 934 3357 3874 11180 4970 616 87126 1222 1212 1134 234
internal_value=0 0.0272521 0.00324173 0.00938462 -0.015184 0.076047 -0.0773066 -0.065345 -0.0215834 0.0247179 0.00975823 -0.0115233 0.0469933 0.0113294 -0.0125595 -0.00928902 -0.0269075 -0.0110406 -0.0303272 -0.0065068 -0.0280568 -0.0890321 -0.0848348 -0.0639649 -0.0331112 0.086294 -0.0204673 0.0862375 -0.00417529 0.0883182
internal_weight=0 15473 10370.2 9722.88 3736.25 5102.83 5033.34 3711.09 3529.05 5986.63 3070.79 1953.99 1116.8 556.963 2974.87 2901.64 1733.94 1345.99 1123.29 938.753 752.709 647.276 2814.37 1319.54 575.549 4179.55 173.743 222.706 896.713 4106.77
internal_count=224867 190978 92952 87750 25584 98026 33889 23229 20919 62166 30601 18776 11825 5829 16699 16327 9588 7785 6238 5395 4291 5202 19471 8291 3321 88277 1328 1547 3758 87360
is_linear=0
shrinkage=0.1


Tree=18
num_leaves=31
num_cat=0
split_feature=0 2 4 2 0 0 0 0 1 20 21 20 21 4 21 2 3 0 4 4 2 4 0 3 4 4 2 0 3 0
split_gain=3557.09 1612.83 504.639 305.994 237.376 200.187 399.981 188.718 167.696 190.834 281.632 500.709 192.288 136.782 109.611 108.307 214.502 110.849 107.948 89.1762 87.5087 86.7612 85.5885 118.751 85.2346 82.3185 85.9306 78.5766 74.9866 73.2618
threshold=-0.49999999999999994 0.12500000000000003 -0.4757021788792043 -0.45833333333333331 -0.094594594594594586 -0.52702702702702686 -0.58108108108108103 -0.47297297297297297 -1.0000000180025095e-35 -1.0000000180025095e-35 -0.49999999999999994 1.0000000180025095e-35 -0.64285714285714268 0.10580524844190221 -0.49999999999999994 -0.54166666666666663 -0.59836065573770481 -0.63513513513513498 1.9226457781951678 -0.60867225518654455 1.4583333333333337 0.38110005976265698 -0.22972972972972971 -0.10655737704918032 0.38110005976265698 -0.39630671915852117 -0.62499999999999989 -0.47297297297297297 0.43442622950819676 -0.20270270270270269
decision_type=2 2 2 2 2 2 2 2 2 2 2 2 2 2 2 2 2 2 2 2 2 2 2 2 2 2 2 2 2 2
left_child=5 2 14 7 21 6 15 -4 -5 22 12 27 -11 -9 -2 -1 17 -17 -15 20 -6 28 23 -10 -21 -8 -27 -12 -3 -24
right_child=1 4 3 8 19 -7 25 13 9 10 11 -13 -14 18 -16 16 -18 -19 -20 24 -22 -23 29 -25 -26 26 -28 -29 -30 -31
leaf_value=-0.099519166883304741 -0.018133746725732158 0.046592258127297705 0.092208696821317881 0.081703954422403829 -0.083218619082328429 -0.10855094817025256 -0.12210636529224013 -0.078331732383844346 0.027082396144169203 -0.0034959717064896147 0.10460264047685547 -0.15336568793162447 0.071505778038857326 0.0053660055048470063 -0.11174543591535235 -0.082566730550986164 -0.083878664000197209 0.04948104316145252 -0.046332197552141602 0.089647999167172976 0.08375684690184404 -0.08777419499513367 0.10962974125316441 -0.053934512972531802 -0.00075251107330140648 -0.14923229958408535 0.010694007351870854 -0.0090729135422621798 -0.045936476829914474 0.041971255088807523
leaf_weight=1448.5952225103974 175.1832906268537 742.54363377764821 132.37486387044191 398.08787051960826 61.948485735803843 1220.7707058489323 55.154132455587387 471.74538450688124 1572.471748650074 664.62523280084133 62.76145863160491 258.4880867600441 703.81260310485959 923.85870753228664 437.36126095056534 88.595742985606194 897.46917745471001 225.08451649546623 717.62052519619465 3635.7745361551642 63.620693553239107 61.056887842714787 182.60115569829941 204.44244939088821 107.3778820335865 35.06241911649704 804.20399509370327 1953.452530272305 99.297533698379993 1295.4121929481626
leaf_count=11708 1328 8355 3160 4761 624 10660 250 3667 13802 6227 1170 1512 7454 5022 3874 589 6218 956 3190 84405 1256 562 2183 1471 1992 160 3348 17731 832 16400
internal_value=0 0.0255459 0.00301225 0.00866059 0.0734989 -0.073614 -0.0616139 -0.0236186 0.0185954 0.0149534 -0.000768167 -0.0223333 0.0350788 -0.0308742 -0.0849732 -0.0810676 -0.0589986 0.0121855 -0.0172354 0.084274 0.00138092 0.02733 0.0325502 0.017761 0.0870547 -0.0037644 0.00401269 -0.00553438 0.0356782 0.0503301
internal_weight=0 14925.9 10154.3 9541.75 4771.62 4774.94 3554.17 2245.6 7296.16 6898.07 3643.14 2274.7 1368.44 2113.22 612.545 2659.74 1211.15 313.68 1641.48 3868.72 125.569 902.898 3254.93 1776.91 3743.15 894.421 839.266 2016.21 841.841 1478.01
internal_count=224867 190978 92952 87750 98026 33889 23229 15039 72711 67950 34094 20413 13681 11879 5202 19471 7763 1545 8212 88277 1880 9749 33856 15273 86397 3758 3508 18901 9187 18583
is_linear=0
shrinkage=0.1


Tree=19
num_leaves=31
num_cat=0
split_feature=2 0 0 2 4 0 4 20 4 3 21 20 2 0 2 3 2 0 8 0 3 4 0 21 1 1 7 3 20 21
split_gain=3066.15 862.893 787.09 300.06 284.639 212.098 201.827 201.113 131.749 207.129 191.182 136.578 145.311 198.129 130.809 311.593 127.512 121.514 119.058 117.877 114.356 111.921 105.592 103.414 77.7907 77.0105 72.3818 69.6761 73.912 168.877
threshold=-0.29166666666666657 -0.49999999999999994 -0.094594594594594586 0.29166666666666669 -0.32390602666461016 -0.47297297297297297 -0.54540574575258238 -1.0000000180025095e-35 3.1685093485870399 -0.63114754098360648 -0.49999999999999994 1.0000000180025095e-35 -0.62499999999999989 -0.63513513513513498 -0.45833333333333331 -0.53278688524590156 -0.54166666666666663 -0.63513513513513498 -0.47014925373134325 -0.39189189189189183 -0.38524590163934419 1.85951079996585 -0.63513513513513498 -0.49999999999999994 -1.0000000180025095e-35 -1.0000000180025095e-35 2.5000000000000004 0.25409836065573776 1.0000000180025095e-35 -0.49999999999999994
decision_type=2 2 2 2 2 2 2 2 2 2 2 2 2 2 2 2 2 2 2 2 2 2 2 2 2 2 2 2 2 2
left_child=1 8 7 6 23 -6 -4 19 9 10 17 12 -12 -14 -11 22 -7 -1 -8 20 -2 25 -16 -3 -18 -9 -26 28 -27 -30
right_child=2 4 3 -5 5 16 18 21 -10 14 11 -13 13 -15 15 -17 24 -19 -20 -21 -22 -23 -24 -25 26 27 -28 -29 29 -31
leaf_value=-0.08937965093378647 0.060483907324441748 -0.019089421293573675 -0.081301021088270656 0.087141469000535612 0.090654798990129098 -0.045788612373909424 -0.0080983051747613635 0.054196727337231923 -0.10315489474438391 -0.097501783291723335 -0.11940909140174412 -0.15330842139698764 -0.091033581464087479 0.092402010801021922 -0.12224187476391078 -0.087432104149690534 0.069845976209098659 0.11496718644589568 0.056382314532044779 0.045894707923660259 -0.020738540817314903 -0.14474687006818154 0.072462995548036355 -0.10376214670975797 -0.00033467912989329859 -8.7956228687417117e-05 -0.05173705935748231 -0.083635023892055571 9.0752612463059057e-05 -0.15608655046021186
leaf_weight=36.418795436620712 232.90243237093091 216.40232300013304 130.46084781363606 3025.0079794339836 221.45181215181947 799.82469142973423 337.21768004447222 165.54036958515644 1176.2663594856858 1319.4934088215232 102.0828016102314 96.353005558252335 95.356037870049477 153.93650235235691 32.000892415642738 565.18120342493057 145.80728408321738 144.79901538789272 1898.417645316571 1456.9046189673245 677.84851196035743 64.63639735430479 214.9022464081645 432.57217436283827 3234.7628000974655 1224.5775923393667 299.29097555577755 144.66900154948235 195.27271265164018 107.27062021195889
leaf_count=300 1663 1359 1253 75663 5769 4491 4061 1573 10144 10732 811 480 774 740 189 4232 1298 709 33570 17358 5536 407 1015 4114 20611 10723 1945 1049 1682 616
internal_value=0 -0.0395952 0.0408747 0.0662765 -0.0134475 -0.00487758 0.039601 0.00880088 -0.0751299 -0.0631884 -0.0127608 -0.0478368 -0.0189147 0.0222367 -0.0780677 -0.0464907 -0.00960019 0.0739002 0.0466562 0.028253 3.21274e-05 -0.0154141 0.0472275 -0.0755278 -0.00173457 -0.0108642 -0.00468783 -0.0173065 -0.011023 -0.0552839
internal_weight=0 9286.9 9660.73 5391.1 5350.11 4701.14 2366.1 4269.62 3936.79 2760.52 628.946 447.728 351.375 249.293 2131.58 812.084 4479.69 181.218 2235.64 2367.66 910.751 1901.97 246.903 648.974 3679.86 1837.33 3534.05 1671.79 1527.12 302.543
internal_count=224867 69713 155154 114547 39587 34114 38884 40607 30126 19982 3814 2805 2325 1514 16168 5436 28345 1009 37631 24557 7199 16050 1204 5473 23854 15643 22556 14070 13021 2298
is_linear=0
shrinkage=0.1


Tree=20
num_leaves=31
num_cat=0
split_feature=0 2 4 0 0 2 0 0 0 0 4 21 20 21 21 4 20 3 20 21 20 21 20 4 3 0 2 4 3 2
split_gain=2637.83 1280.89 378.792 259.995 271.891 217.51 215.296 200.69 353.527 163.72 143.094 126.494 395.333 122.422 105.444 102.015 98.3369 93.7452 86.9971 218.352 82.5666 145.626 343.793 82.3086 81.2974 78.984 88.1928 77.2288 76.3754 153.475
threshold=-0.49999999999999994 0.12500000000000003 -0.4757021788792043 -0.47297297297297297 -0.44594594594594589 -0.29166666666666657 1.0000000180025095e-35 -0.52702702702702686 -0.58108108108108103 -0.41891891891891891 2.6029251686160677 -0.49999999999999994 1.0000000180025095e-35 -0.64285714285714268 -0.49999999999999994 2.0489157346538041 1.0000000180025095e-35 0.43442622950819676 1.0000000180025095e-35 -0.49999999999999994 -1.0000000180025095e-35 -0.49999999999999994 1.0000000180025095e-35 0.86750245453769315 -0.56557377049180313 -0.63513513513513498 -0.54166666666666663 0.38110005976265698 -0.66393442622950805 -0.62499999999999989
decision_type=2 2 2 2 2 2 2 2 2 2 2 2 2 2 2 2 2 2 2 2 2 2 2 2 2 2 2 2 2 2
left_child=7 2 14 -4 -5 9 17 8 15 -6 20 13 -13 -11 -2 24 -15 27 23 -20 -7 -22 -23 -8 25 -1 28 -3 29 -27
right_child=1 6 3 4 5 10 18 -9 -10 11 -12 12 -14 16 -16 -17 -18 -19 19 -21 21 22 -24 -25 -26 26 -28 -29 -30 -31
leaf_value=-0.093420210647123247 -0.014454949577516191 0.04899331358367711 0.09526484484352607 -0.080596047057106726 0.10748112000308807 0.040917557268616102 0.089650799562877692 -0.10491444179429554 -0.00061078107276445832 -0.020318575035328343 -0.18513814350684199 -0.0082129104757346031 -0.1169710534235488 -0.027834160241055068 -0.10779783134016584 -0.095046867487597553 0.056337802852144958 -0.049275416573496426 0.074727835601579293 -0.12633847694703168 0.049131195783735954 0.0094986437845242626 -0.16143627324724616 -0.075937144556452979 -0.077503417443310935 -0.1164580099029414 0.04158186855820957 -0.061536885880587366 -0.11687217220562029 0.14451646229380152
leaf_weight=125.30584524571896 178.58016593381763 898.14902643114328 325.04162917658687 362.6423400118947 120.68386521935463 1960.1298039853573 2742.9120510481298 1056.7249065041542 879.85161632299423 613.48316871747375 32.301320493221283 2526.1271806620061 385.18901874870062 175.98778443783522 375.46538560092449 1216.2206915840507 656.80092102661729 129.87686093896627 264.81870177015662 67.848270684480667 710.37830706685781 1249.5306328423321 129.89321518689394 30.350567433983088 638.07408262044191 45.648298971354961 212.08914789557457 68.000728029757738 92.777694180607796 44.503134876489639
leaf_count=958 1328 13471 7587 1869 821 25142 75437 10660 3758 3461 203 14703 3367 1137 3874 11180 5832 1471 6153 358 8984 13995 649 437 4970 378 922 699 759 304
internal_value=0 0.022404 0.00260287 0.00741439 0.00421428 0.00780704 0.0685957 -0.0670507 -0.0547564 -0.00741189 0.0245024 -0.0105939 -0.0226024 0.0135792 -0.0777115 -0.0748186 0.0385503 0.0304911 0.0820421 0.0337199 0.0261745 0.0123462 -0.00659741 0.0878386 -0.0535807 -0.0242442 -0.00230051 0.0412138 -0.053178 0.0123717
internal_weight=0 14004.2 9802.23 9248.19 8923.15 8560.51 4201.96 4311.2 3254.47 4478.27 4082.23 4357.59 2911.32 1446.27 554.046 2374.62 832.789 1096.03 3105.93 332.667 4049.93 2089.8 1379.42 2773.26 1158.4 520.324 395.018 966.15 182.929 90.1514
internal_count=224867 190978 92952 87750 80163 78294 98026 33889 23229 29321 48973 28500 18070 10430 5202 19471 6969 15641 82385 6511 48770 23628 14644 75874 8291 3321 2363 14170 1441 682
is_linear=0
shrinkage=0.1


Tree=21
num_leaves=31
num_cat=0
split_feature=0 0 2 0 20 1 0 0 4 4 0 21 20 21 4 8 21 20 3 2 0 2 3 0 21 0 0 0 0 2
split_gain=2277.34 1014.96 430.894 315.583 243.313 202.637 196.036 318.785 170.458 157.915 141.253 115.316 266.838 119.186 100.187 97.0249 113.794 268.17 92.3887 122.841 183.764 93.7851 148.63 98.1393 82.9967 77.9916 99.4541 120.714 125.331 109.171
threshold=-0.094594594594594586 -0.49999999999999994 0.20833333333333334 -0.47297297297297297 -1.0000000180025095e-35 -1.0000000180025095e-35 -0.52702702702702686 -0.58108108108108103 -0.41887272688465793 -0.54540574575258238 -0.44594594594594589 -0.49999999999999994 1.0000000180025095e-35 -0.64285714285714268 3.1685093485870399 -0.30597014925373128 -0.49999999999999994 1.0000000180025095e-35 -0.63114754098360648 -0.62499999999999989 -0.63513513513513498 -0.45833333333333331 -0.49999999999999994 -0.63513513513513498 -0.64285714285714268 -0.41891891891891891 -0.39189189189189183 -0.3108108108108108 -0.33783783783783777 -0.45833333333333331
decision_type=2 2 2 2 2 2 2 2 2 2 2 2 2 2 2 2 2 2 2 2 2 2 2 2 2 2 2 2 2 2
left_child=1 6 9 -3 10 -6 7 14 -7 -2 -5 13 -13 -10 18 16 24 -18 19 -1 -21 -20 23 -23 -11 -12 -27 28 -28 -29
right_child=2 3 -4 4 5 8 -8 -9 11 15 25 12 -14 -15 -16 -17 17 -19 21 20 -22 22 -24 -25 -26 26 27 29 -30 -31
leaf_value=-0.11358652546913106 -0.072593826387599758 0.092858699578418247 0.081260353958117051 -0.069616154638699315 0.064943077135125912 -0.090850397291735607 -0.10296090792301726 -0.00054970407954336618 -0.027133889721824934 -0.0065161322418512656 0.10527077951456686 -0.021113616134281143 -0.12107538013765483 0.035709683038307648 -0.10131290098800483 0.047337436572490225 0.017167533348450167 -0.1369999371930751 -0.10041463587404607 -0.077082654322358612 0.08733690756058432 -0.11346776136247948 -0.081067962543156499 0.059470774740081514 0.082001374532509816 -0.012377960157993986 0.010438072245784802 -0.057044461038887953 0.11626360896864832 0.02396755859273432
leaf_weight=92.171664834022522 153.60851619020104 332.920754192397 2823.6657185330987 192.42440869659185 248.94783238694072 389.92687286436558 973.38337003439665 879.85096356272697 610.38926210999489 174.52076410874724 100.60571877658367 2068.4131321981549 306.6293626204133 596.91534689813852 752.66285914182663 1592.9640440419316 482.31192433089018 147.2850593328476 548.99229950457811 115.74035680294037 164.71449095755816 40.919147163629532 362.37993824481964 165.66300839185715 269.49940414354205 888.27358277142048 190.24621807783842 186.9860470443964 271.79529717937112 1506.8999639153481
leaf_count=884 1565 7895 82046 993 2337 3710 10660 3758 3809 2012 831 14419 2632 5340 7668 25505 5616 1079 4873 1065 891 276 2984 830 3268 5600 1788 804 2783 16946
internal_value=0 -0.0233912 0.0536463 -0.00242678 -0.00662374 -0.0225767 -0.0637765 -0.0515638 -0.0280616 0.0259982 0.0135549 -0.0212273 -0.0340192 0.00393722 -0.0715727 0.0316776 0.00844266 -0.0188977 -0.0565555 -0.0134327 0.0194829 -0.0709288 -0.0424779 0.0252157 0.0472098 0.018644 0.0157811 0.0273831 0.0726898 0.0150247
internal_weight=0 11987.9 5643.86 7891.37 7558.45 4221.22 4096.48 3123.09 3972.27 2820.19 3337.23 3582.35 2375.04 1207.3 2243.24 2666.58 1073.62 629.597 1490.58 372.627 280.455 1117.95 568.962 206.582 444.02 3144.81 3044.2 2155.93 462.042 1693.89
internal_count=224867 103776 121091 69887 61992 32247 33889 23229 29910 39045 29745 26200 17051 9149 19471 37480 11975 6695 11803 2840 1956 8963 4090 1106 5280 28752 27921 22321 4571 17750
is_linear=0
shrinkage=0.1


Tree=22
num_leaves=31
num_cat=0
split_feature=2 0 0 20 4 0 20 21 3 3 1 3 4 2 3 0 4 3 2 3 21 2 0 3 3 4 4 0 2 20
split_gain=1954.68 761.861 476.531 217.498 210.698 190.721 163.819 444.904 147.473 131.959 128.554 116.973 145.735 113.206 323.049 289.352 231.354 231.403 117.774 202.219 106.605 101.559 99.5066 136.962 96.5349 190.108 108.586 106.69 90.4539 73.4961
threshold=-0.37499999999999994 0.31081081081081091 -0.49999999999999994 -1.0000000180025095e-35 -0.085683184739788407 -0.28378378378378372 1.0000000180025095e-35 -0.49999999999999994 -0.48360655737704911 -0.36885245901639335 -1.0000000180025095e-35 0.74590163934426246 0.040070963073182968 -0.62499999999999989 -0.63114754098360648 -0.63513513513513498 0.17130608015735657 -0.66393442622950805 -0.54166666666666663 -0.56557377049180313 -0.49999999999999994 -0.62499999999999989 0.31081081081081091 0.17213114754098363 0.46721311475409838 0.656789464697345 -0.45086233940026871 -0.39189189189189183 -0.54166666666666663 1.0000000180025095e-35
decision_type=2 2 2 2 2 2 2 2 2 2 2 2 2 2 2 2 2 2 2 2 2 2 2 2 2 2 2 2 2 2
left_child=2 3 13 5 20 9 -3 -8 21 -2 -5 -7 -13 -1 15 -15 -17 -18 -16 -20 -4 -6 23 28 26 -26 -12 -28 -10 -22
right_child=1 6 4 10 8 11 7 -9 22 -11 24 12 -14 14 18 16 17 -19 19 -21 29 -23 -24 -25 25 -27 27 -29 -30 -31
leaf_value=-0.11253566290403397 0.03819896823208585 0.085239848621748701 -0.018650785361538812 0.060670821871695625 -0.1329415159886006 0.055644356763067129 0.075222409231793741 -0.1291381875589904 -0.084675766540507277 -0.015199894981376669 -0.073702390228639142 -0.0099504115374841676 -0.43984411349114866 -0.096486556628827436 -0.11168464021068275 -0.071825742121379071 0.26579388256690067 0.048078713895242445 -0.0013285027541804946 -0.09161038552288106 0.015034181534474082 0.026207424357425568 0.06920397582237732 -0.18353506139455339 -0.049764678902674657 -0.40907539289718298 -0.033926980043124867 0.0092475922229946113 -0.014720282219354314 -0.11106322204818503
leaf_weight=506.76688604801893 783.50256199017167 2249.7410778645426 304.00071058608592 270.8646553568542 41.429536320269108 1805.5138201676309 438.88008311390877 140.6766079813242 214.36548861861229 1130.540152605623 228.22728081978858 34.614934410899878 10.212178282439707 219.05384905636311 785.98402268439531 127.18942447006702 59.299526803195477 276.2305446267128 374.86751963943243 733.63707066327333 52.573904223740101 1246.6266434360296 108.13926834240556 56.000365065410733 135.39448254555464 16.522090032696724 776.64911407604814 2175.9044861719012 1341.7319169286638 382.59605497866869
leaf_count=5584 6714 65964 2193 3809 240 33989 9001 1024 1129 10532 2276 914 130 2324 8889 636 384 1321 2013 6941 269 10953 676 258 2405 110 5928 25715 7918 4628
internal_value=0 0.0289175 -0.0402098 0.0119794 -0.0162524 0.0287897 0.0730268 0.0256177 -0.00449871 0.00665863 -0.00558099 0.0516826 -0.107886 -0.0693303 -0.0608316 -0.0018026 0.0430213 0.0865564 -0.0820745 -0.0610794 -0.0640878 0.0210885 -0.0236576 -0.0298867 -0.0109656 -0.0888425 -0.00724614 -0.00210918 -0.0243572 -0.0958291
internal_weight=0 10197.2 6830.49 7367.95 3747.46 3764.38 2829.3 579.557 3008.29 1914.04 3603.56 1850.34 44.8271 3083.03 2576.26 681.773 462.719 335.53 1894.49 1108.5 739.171 1288.06 1720.24 1612.1 3332.7 151.917 3180.78 2952.55 1556.1 435.17
internal_count=224867 168511 56356 92522 28264 52279 75989 10025 21174 17246 40243 35033 1044 28092 22508 4665 2341 1705 17843 8954 7090 11193 9981 9305 36434 2515 33919 31643 9047 4897
is_linear=0
shrinkage=0.1


Tree=23
num_leaves=31
num_cat=0
split_feature=0 0 2 0 0 0 0 0 20 1 4 4 4 8 21 20 21 20 21 21 0 0 0 0 0 0 3 2 3 3
split_gain=1704.66 779.507 387.187 276.087 190.199 280.465 187.946 194.38 176.697 141.429 132.238 122.443 92.483 91.4051 91.1384 216.966 89.2346 259.625 92.0654 82.6117 77.3706 114.718 119.519 86.4957 163.688 199.282 128.382 115.574 97.5779 74.796
threshold=-0.094594594594594586 -0.49999999999999994 0.29166666666666669 -0.47297297297297297 -0.52702702702702686 -0.58108108108108103 -0.44594594594594589 -0.41891891891891891 -1.0000000180025095e-35 -1.0000000180025095e-35 -0.54540574575258238 -0.48213923631862021 3.1685093485870399 -0.32089552238805968 -0.49999999999999994 1.0000000180025095e-35 -0.49999999999999994 1.0000000180025095e-35 -0.64285714285714268 -0.64285714285714268 -0.39189189189189183 -0.3108108108108108 -0.33783783783783777 -0.28378378378378372 -0.20270270270270269 -0.17567567567567566 0.090163934426229511 -0.29166666666666657 -0.15573770491803277 -0.63114754098360648
decision_type=2 2 2 2 2 2 2 2 2 2 2 2 2 2 2 2 2 2 2 2 2 2 2 2 2 2 2 2 2 2
left_child=1 4 10 -3 5 12 -5 -8 20 -10 -2 -11 29 14 19 -16 18 -18 -13 -12 -9 22 -22 28 -25 26 27 -26 -23 -1
right_child=2 3 -4 6 -6 -7 7 8 9 11 13 16 -14 -15 15 -17 17 -19 -20 -21 21 23 -24 24 25 -27 -28 -29 -30 -31
leaf_value=-0.011795656181657607 -0.06531555708216133 0.091108782697068569 0.080235703133876748 -0.073429349464427848 -0.09978612078876635 0.0016115449486936492 0.097469462211097424 -0.011276540431663117 0.059570817993119508 -0.089982248950657817 -0.010897676241284003 -0.024275334422418332 -0.097412560498363235 0.044161253008355654 0.013264277953928311 -0.13191379901355973 -0.017095154522678329 -0.11802049692566839 0.032309485960152505 0.079886137958365022 0.0091172632730544892 0.0024803257144191591 0.11446207234505919 0.078985671670288901 -0.11885271319569612 0.040204927938760446 -0.22896507537389266 0.024168235140608178 -0.099074879040627381 -0.065276784480151187
leaf_weight=352.19974613189697 154.32232070714235 304.73971690610051 2248.0631083771586 391.65315166860819 839.40132787823677 873.63510333001614 190.1850495710969 890.19468226283789 215.56591388955712 259.54765132814646 171.31711712107062 577.17094219475985 646.1290280520916 1680.3656932879239 464.86908566765487 132.22071835026145 1936.7133749872446 293.5149775147438 572.99939693510532 241.58668294176459 188.50532553344965 390.56447433680296 251.23761606216431 396.29438293725252 101.36347956955433 442.4987581409514 42.186874907463789 127.66372447833419 124.8584763109684 1015.4918736293912
leaf_count=2840 1698 7895 75663 2119 10660 3758 1572 5600 2219 2728 2115 3612 7668 31268 6019 1077 13618 2962 5241 3251 1788 3038 2783 4912 541 6045 385 1765 1064 8963
internal_value=0 -0.0203467 0.0492189 -0.0021709 -0.0578869 -0.0457066 -0.00601604 -0.00224481 -0.0050292 -0.0191311 0.0247073 -0.023792 -0.0662341 0.0298711 0.00609596 -0.0188842 -0.0187099 -0.0303777 0.00391446 0.0422192 0.0133678 0.0239908 0.0693037 0.0117319 0.0274511 -0.00116378 -0.0686588 -0.0391304 -0.0221209 -0.0515046
internal_weight=0 11424.3 5092.74 7697.46 3726.86 2887.46 7392.72 7001.07 6810.88 3855.51 2844.68 3639.95 2013.82 2690.36 1009.99 597.09 3380.4 2230.23 1150.17 412.904 2955.37 2065.17 439.743 1625.43 1110.01 713.713 271.214 229.027 515.423 1367.69
internal_count=224867 103776 121091 69887 33889 23229 61992 59873 58301 30380 45428 28161 19471 43730 12462 7096 25433 16580 8853 5366 27921 22321 4571 17750 13648 8736 2691 2306 4102 11803
is_linear=0
shrinkage=0.1


Tree=24
num_leaves=31
num_cat=0
split_feature=2 0 0 0 4 4 0 0 0 1 2 3 20 3 4 2 3 4 21 20 21 20 22 21 3 0 0 0 0 0
split_gain=1472.78 632.465 393.967 188.635 174.586 165.117 162.533 211.117 146.536 132.375 110.353 107.704 106.235 100.195 92.6036 91.4655 154.146 75.1148 73.0515 355.605 73.525 104.687 80.4684 69.7545 66.3862 120.022 155.299 150.028 80.6951 239.553
threshold=-0.12499999999999999 -0.49999999999999994 0.31081081081081091 -0.47297297297297297 -0.43525317398013036 1.0031299166981744 -0.52702702702702686 -0.58108108108108103 -0.39189189189189183 -1.0000000180025095e-35 -0.54166666666666663 0.073770491803278701 -1.0000000180025095e-35 -0.23770491803278684 -0.60867225518654455 -0.54166666666666663 -0.61475409836065564 -0.12399990482092235 -0.49999999999999994 1.0000000180025095e-35 -0.64285714285714268 1.0000000180025095e-35 0.50000000000000011 -0.49999999999999994 -0.30327868852459011 -0.17567567567567566 -0.20270270270270269 -0.22972972972972971 -0.3108108108108108 -0.33783783783783777
decision_type=2 2 2 2 2 2 2 2 2 2 2 2 2 2 2 2 2 2 2 2 2 2 2 2 2 2 2 2 2 2
left_child=1 6 5 -3 23 8 7 15 13 -6 -11 -7 -10 -2 -4 -1 -17 -9 20 24 -12 -22 -23 -5 -20 26 27 28 29 -26
right_child=2 3 14 4 9 11 -8 17 12 10 18 -13 -14 -15 -16 16 -18 -19 19 -21 21 22 -24 -25 25 -27 -28 -29 -30 -31
leaf_value=-0.085034450499516287 0.031671718348301563 0.085165075489028144 -0.018151013429151572 -0.018935078270432944 0.06663246277526326 -0.045439508852453965 -0.098867016724341741 -0.095908475596926113 0.054474690490278289 -0.04233930694188142 -0.0043457917041122267 -0.28240813448753777 0.013940467345507235 -0.051606741543747219 0.081082366202759285 0.02223459132329679 -0.068460715333609784 0.0076489900126212517 0.011231503093345531 -0.12470928816210305 -0.015154648922160785 0.081161543524456578 -0.012859522697074155 -0.10077379509048182 -0.067702658321857789 0.010532465037202853 -0.15918407789791078 0.11284729466394304 -0.089504714137056962 0.11142821216391877
leaf_weight=965.54699845612049 238.90971645340323 229.51971046999097 98.561494495719671 172.65088797360659 262.89915851131082 83.938493221998215 715.78337270021439 77.530794247984886 1415.8890768717974 730.12646492943168 826.12063854932785 24.860721059143543 1190.0095523353666 365.48319101333618 2049.8853399306536 271.22333302348852 606.3363251388073 725.21420995891094 2060.4049309268594 246.42180007696152 255.27814358472824 448.11343517899513 114.23279109224677 262.49406123161316 245.88371682167053 814.89861599728465 102.59676668047905 68.790775131434202 229.28204899281263 107.20461593568325
leaf_count=11708 2100 7168 1934 1059 2911 867 10036 374 31711 4662 5700 170 19760 2938 70206 1494 5615 3092 13798 2253 2199 5153 1110 3693 1357 7919 623 759 1270 1228
internal_value=0 -0.0207967 0.0431657 -0.00403057 -0.00697731 0.0215691 -0.0565917 -0.0451549 0.0256751 -0.00287957 -0.00580382 -0.0995871 0.0359643 -0.0186877 0.07653 -0.0637969 -0.0404299 -0.00235281 -0.000970617 -0.00846317 0.0166947 0.0379538 0.0620625 -0.0683029 -0.000569781 -0.0160706 -0.0448315 -0.0268142 -0.0433112 -0.013315
internal_weight=0 10538.6 5467.54 7176.92 6947.4 3319.09 3361.64 2645.85 3210.29 6512.25 6249.35 108.799 2605.9 604.393 2148.45 1843.11 877.56 802.745 5519.23 3875.48 1643.75 817.624 562.346 435.145 3629.06 1568.66 753.758 651.161 582.37 353.088
internal_count=224867 95181 129686 62862 55694 57546 32319 22283 56509 50942 48031 1037 51471 5038 72140 18817 7109 3466 43369 29207 14162 8462 6263 4752 26954 13156 5237 4614 3855 2585
is_linear=0
shrinkage=0.1


Tree=25
num_leaves=31
num_cat=0
split_feature=2 0 0 3 4 20 20 21 3 2 3 0 4 3 2 3 4 0 4 1 2 0 0 0 0 0 0 21 4 0
split_gain=1263.17 568.664 327.711 172.66 154.922 148.836 138.975 345.325 119.693 118.472 282.441 237.214 178.709 182.377 127.127 178.647 116.583 115.37 107.998 86.8238 81.9598 81.936 199.411 227.649 141.127 215.514 81.6302 78.8673 77.9746 73.0431
threshold=-0.37499999999999994 0.31081081081081091 -0.49999999999999994 0.76229508196721318 -0.085683184739788407 -0.74999999999999989 1.0000000180025095e-35 -0.49999999999999994 -0.48360655737704911 -0.62499999999999989 -0.63114754098360648 -0.63513513513513498 0.17130608015735657 -0.66393442622950805 -0.54166666666666663 -0.56557377049180313 0.040070963073182968 -0.28378378378378372 2.8712488260906688 -1.0000000180025095e-35 -0.62499999999999989 -0.39189189189189183 -0.3108108108108108 -0.28378378378378372 -0.20270270270270269 -0.17567567567567566 -0.33783783783783777 -0.49999999999999994 -0.54540574575258238 -0.608108108108108
decision_type=2 2 2 2 2 2 2 2 2 2 2 2 2 2 2 2 2 2 2 2 2 2 2 2 2 2 2 2 2 2
left_child=2 3 9 5 27 17 -3 -8 20 -1 11 -11 -13 -14 -12 29 -5 -2 19 -7 -6 -10 26 -24 -25 -26 -23 -4 -21 -16
right_child=1 6 4 16 8 18 7 -9 21 10 14 12 13 -15 15 -17 -18 -19 -20 28 -22 22 23 24 25 -27 -28 -29 -30 -31
leaf_value=-0.11016125135879642 0.011763833295076144 0.080035907236297055 -0.02048265825044308 -0.053183661522836635 -0.12738825560369713 0.054752049996461508 0.068810595385716142 -0.12280227557561015 -0.061767014884290587 -0.091346179044192621 -0.10910433665131368 -0.061424452272983168 0.2332314634630922 0.045134321540242113 -0.10897704373312099 -0.084072052041084935 -0.28920424028802638 0.055717489794192721 -0.12708958236320475 -0.078787661099477824 0.024002759120988516 -0.014258736189034624 -0.12662022841994477 0.075549416728622892 -0.11654514570634787 0.0074555553859479082 0.12395749344069928 -0.090480791112143938 0.0017725962410885074 0.021620185017445993
leaf_weight=406.15495982393622 1288.8324960060418 1820.2565444838256 298.13968963176012 79.051462443545461 36.863664701581001 303.71944145672023 372.55909477546811 125.81770462915301 389.50279182754457 183.49136634916067 624.72300427779555 120.18864849954844 63.530721634626389 273.28138221055269 49.525986112654209 622.68734587728977 28.46416512131691 1112.7713185641915 64.594394598156214 123.87611939571798 1194.7154600471258 61.435416452586651 187.46898727864027 173.46967703849077 189.48151262104511 538.47639043629169 140.34104475751519 349.83321397192776 3990.5873753093183 316.58821610361338
leaf_count=5584 12081 65964 2193 1674 240 4817 9001 1024 2064 2324 8889 636 384 1321 441 6941 252 23996 401 1273 10953 335 843 1112 1030 3385 1212 4897 48028 1572
internal_value=0 0.0243092 -0.0338937 0.0100774 -0.014051 0.0120412 0.0672255 0.020437 -0.00420982 -0.0604463 -0.0514881 0.00469635 0.0432586 0.0806139 -0.0737907 -0.0514796 -0.115669 0.0321295 0.00127907 0.00315583 0.0194713 -0.0215682 -0.00943694 -0.0263573 -0.00550569 -0.0248208 0.0818744 -0.0582739 -0.00065287 0.00395369
internal_weight=0 9310.53 6219.9 6991.9 3559.73 6884.38 2318.63 498.377 2911.75 2660.17 2254.02 640.492 457.001 336.812 1613.52 988.802 107.516 2401.6 4482.78 4418.18 1231.58 1680.18 1290.67 1088.9 901.428 727.958 201.776 647.973 4114.46 366.114
internal_count=224867 168511 56356 92522 28264 90596 75989 10025 21174 28092 22508 4665 2341 1705 17843 8954 1926 36077 54519 54118 11193 9981 7917 6370 5527 4415 1547 7090 49301 2013
is_linear=0
shrinkage=0.1


Tree=26
num_leaves=31
num_cat=0
split_feature=0 0 2 0 0 0 0 0 8 0 20 21 20 4 1 4 0 0 0 0 0 20 3 2 0 2 3 3 0 21
split_gain=1104.77 504.759 322.515 220.301 179.261 210.981 143.637 167.27 124.718 93.9598 93.9238 158.483 257.436 90.3976 84.1886 76.8768 76.8464 260.012 76.6048 389.606 72.5305 67.7466 67.5316 100.51 132.793 95.5703 132.459 81.8091 81.5768 67.4772
threshold=-0.094594594594594586 -0.49999999999999994 0.29166666666666669 -0.47297297297297297 -0.52702702702702686 -0.58108108108108103 -0.44594594594594589 -0.41891891891891891 -0.23134328358208953 -0.067567567567567557 -1.0000000180025095e-35 -0.49999999999999994 1.0000000180025095e-35 3.7735528899513358 -1.0000000180025095e-35 0.34038609303272516 -0.20270270270270269 -0.22972972972972971 -0.3108108108108108 -0.33783783783783777 -0.17567567567567566 -1.7499999999999998 -0.63114754098360648 -0.62499999999999989 -0.63513513513513498 -0.45833333333333331 -0.49999999999999994 -0.68032786885245888 -0.63513513513513498 -0.64285714285714268
decision_type=2 2 2 2 2 2 2 2 2 2 2 2 2 2 2 2 2 2 2 2 2 2 2 2 2 2 2 2 2 2
left_child=1 4 9 -3 5 13 -5 -8 16 -2 -11 29 -13 22 -10 -4 17 18 19 -9 -18 -16 23 -1 27 -24 28 -25 -27 -12
right_child=2 3 15 6 -6 -7 7 8 14 10 11 12 -14 -15 21 -17 20 -19 -20 -21 -22 -23 25 24 -26 26 -28 -29 -30 -31
leaf_value=-0.10852447282571287 0.11129509375792879 0.087746712124145865 0.07804261525154052 -0.064634531596429054 -0.095233646246900699 0.003112180501282839 0.094057218905482284 -0.03063142342626813 0.06751994231828716 0.043264952443320771 0.0013685667991128439 0.0047462308704097718 -0.11848355307029068 -0.098219016907131584 0.033296553342001288 -0.052736048833864513 -0.084937028929611469 0.11152401558418178 -0.046601503983155629 0.12056538159349051 -0.020674315239988847 -0.0028057971436635121 -0.091598572431258962 0.17901672345475286 0.069022388844908231 -0.10586344593647974 -0.070019084979677862 -0.099099310292127749 0.065550134015780082 0.062967192638818253
leaf_weight=79.816626764833927 108.29251134209335 263.54575515724719 1799.8781195450574 386.59788591042161 671.80355264246464 863.78738264739513 176.69020836427808 1032.5036893486977 219.7639835588634 844.00943090394139 307.29860002547503 691.76988138444722 224.55727878957987 412.58879081904888 634.42073700577021 46.100431948900223 311.64377794787288 160.6263562142849 725.72920886799693 204.12066395953298 402.42330201715231 2876.3426289632916 460.30409653484821 11.849326111376284 187.63544598966837 33.550724357366562 299.23179556801915 98.477423556149006 160.95996303856373 422.10968272015452
leaf_count=1118 1696 7895 74406 2119 10660 3758 1572 7288 2711 17843 4906 11952 2551 6199 6827 1257 2620 1784 5747 1911 3963 25450 5668 126 1008 277 2994 1242 839 6480
internal_value=0 -0.0165202 0.0428174 -0.00203732 -0.0491703 -0.0373056 -0.0053556 -0.00195758 -0.00454071 0.0201094 0.0161433 0.002234 -0.0254527 -0.0573195 0.0074767 0.0747766 -0.0203428 -0.0107978 -0.0208103 -0.00567446 -0.0487208 0.00371816 -0.0446491 -0.00886452 0.0178319 -0.0588189 -0.0282592 -0.0692291 0.0359834 0.0370158
internal_weight=0 10674.4 4444.02 7394.41 3280.01 2608.2 7130.86 6744.26 6567.57 2598.04 2489.74 1645.74 916.327 1744.41 3730.53 1845.98 2837.05 2122.98 1962.35 1236.62 714.067 3510.76 1331.83 377.779 297.962 954.047 493.742 110.327 194.511 729.408
internal_count=224867 103776 121091 69887 33889 23229 61992 59873 58301 45428 43732 25889 14503 19471 34988 75663 23313 16730 14946 9199 6583 32277 13272 3494 2376 9778 4110 1368 1116 11386
is_linear=0
shrinkage=0.1


Tree=27
num_leaves=31
num_cat=0
split_feature=0 2 2 3 20 21 20 0 20 21 4 3 0 3 0 3 4 3 1 3 21 20 21 0 0 3 2 3 22 8
split_gain=972.911 578.492 214.007 161.664 143.727 141.056 256.161 133.35 123.133 309.82 116.693 114.835 112.909 185.69 193.503 98.9722 97.9739 97.4497 92.2928 89.738 75.8243 297.957 95.9878 72.7283 118.868 99.2875 62.7902 59.3879 57.9473 54.8483
threshold=0.31081081081081091 -0.45833333333333331 -0.62499999999999989 0.72950819672131162 -1.0000000180025095e-35 -0.49999999999999994 1.0000000180025095e-35 -0.22972972972972971 1.0000000180025095e-35 -0.49999999999999994 2.1120507128831219 -0.63114754098360648 -0.49999999999999994 -0.63114754098360648 -0.608108108108108 -0.27049180327868844 -0.027441795601442744 -0.25409836065573765 -1.0000000180025095e-35 -0.66393442622950805 -0.49999999999999994 1.0000000180025095e-35 -0.64285714285714268 -0.20270270270270269 -0.17567567567567566 -0.057377049180327863 -1.0000000180025095e-35 0.35245901639344268 0.36666666666666675 -0.42537313432835816
decision_type=2 2 2 2 2 2 2 2 2 2 2 2 2 2 2 2 2 2 2 2 2 2 2 2 2 2 2 2 2 2
left_child=1 2 -1 4 7 10 12 17 -2 -10 11 -4 13 14 -7 -14 -5 -3 -6 -16 22 -22 29 -9 25 -25 27 -26 -24 -20
right_child=8 3 5 16 18 6 -8 23 9 -11 -12 -13 15 -15 19 -17 -18 -19 20 -21 21 -23 28 24 26 -27 -28 -29 -30 -31
leaf_value=-0.11089995993352871 0.075841465476665954 0.021103899475369864 0.097575393547512601 -0.044426561355598977 0.051558134085757414 -0.09106794466441967 -0.11487009923888539 0.10440685590173691 0.064845650791742093 -0.11766054067201784 -0.065995276618977625 -0.0026430216218646129 0.0052534316770662774 -0.083348119285901356 0.19566269851836818 -0.086900427250786338 -0.22477296202330282 -0.019807274165355791 -0.059944886654487578 0.031996294379840473 -0.0082277394888591246 -0.11983338219387646 0.060882709205835522 0.0064786933391635902 0.028238419449125321 -0.15397552611767062 0.068931009391307807 -0.15534968760888646 -0.0071193081028110066 0.0030204299920570717
leaf_weight=394.54264334216714 1666.8091709017754 1609.8335310127586 134.39448518306017 93.96719704195857 263.15034695155919 130.41188613325357 451.20678566396236 175.53456851840019 370.51128030754626 124.19376854971051 241.27145403437316 766.01318606548011 854.05292268656194 717.68608347699046 41.223768532276154 134.95938195288181 44.335236931219697 912.12294182181358 193.48798444494605 178.82619138807058 2550.282013617456 263.97093810886145 411.52956264652312 150.31652015447617 464.38253227621317 51.87348447740078 646.97845835238695 18.315040230751038 180.17432567663491 485.4182793404907
leaf_count=5957 66398 14798 679 2088 4145 1886 6491 3153 9307 1220 2531 7008 5373 9458 241 621 406 8866 1575 886 26823 2969 5277 1750 6397 602 20935 273 1809 4945
internal_value=0 -0.00979508 -0.0409353 0.00499521 0.00676556 -0.0333726 -0.0466351 0.0203719 0.0628386 0.0190282 -0.00423391 0.0123155 -0.0316688 -0.054212 0.00545391 -0.00732177 -0.10224 0.00630744 -0.00584363 0.0626573 -0.0095415 -0.0186961 0.0107349 0.0439025 0.0359283 -0.0346871 0.0485671 0.0212725 0.040176 -0.0149247
internal_weight=0 12560.3 4044.59 8515.67 8377.37 3650.05 2508.37 4029.36 2161.51 494.705 1141.68 900.408 2057.16 1068.15 350.462 989.012 138.302 2521.96 4348.01 220.05 4084.86 2814.25 1270.61 1507.4 1331.87 202.19 1129.68 482.698 591.704 678.906
internal_count=224867 147942 41131 106811 104317 35174 24956 56774 76925 10527 10218 7687 18465 12471 3013 5994 2494 23664 47543 1127 43398 29792 13606 33110 29957 2352 27605 6670 7086 6520
is_linear=0
shrinkage=0.1


Tree=28
num_leaves=31
num_cat=0
split_feature=0 0 0 0 0 1 20 3 4 2 0 0 0 0 0 0 0 0 3 4 0 0 2 3 0 3 2 3 6 6
